<?xml version="1.0"?>
<opencv_storage>
<stage8>
  <maxWeakCount>16</maxWeakCount>
  <stageThreshold>-6.4133715629577637e-01</stageThreshold>
  <weakClassifiers>
    <_>
      <internalNodes>
        0 -1 50021 -8.4076961502432823e-03</internalNodes>
      <leafValues>
        -8.6363637447357178e-01 5.3571429103612900e-02</leafValues></_>
    <_>
      <internalNodes>
        0 -1 46766 -1.9779975712299347e-01</internalNodes>
      <leafValues>
        8.8352555036544800e-01 -8.1199511885643005e-02</leafValues></_>
    <_>
      <internalNodes>
        0 -1 41496 1.6636120155453682e-02</internalNodes>
      <leafValues>
        -1.7017579078674316e-01 5.9139221906661987e-01</leafValues></_>
    <_>
      <internalNodes>
        0 -1 57396 -1.0181465186178684e-03</internalNodes>
      <leafValues>
        -6.3260769844055176e-01 1.3955420255661011e-01</leafValues></_>
    <_>
      <internalNodes>
        0 -1 24191 -2.5961833074688911e-02</internalNodes>
      <leafValues>
        5.9375870227813721e-01 -1.6558440029621124e-01</leafValues></_>
    <_>
      <internalNodes>
        0 -1 78447 6.6985050216317177e-04</internalNodes>
      <leafValues>
        1.6482417285442352e-01 -5.5655294656753540e-01</leafValues></_>
    <_>
      <internalNodes>
        0 -1 26916 4.4283657334744930e-03</internalNodes>
      <leafValues>
        -3.5455781221389771e-01 2.9109650850296021e-01</leafValues></_>
    <_>
      <internalNodes>
        0 -1 1913 1.2045697867870331e-01</internalNodes>
      <leafValues>
        2.1598839759826660e-01 -4.5343115925788879e-01</leafValues></_>
    <_>
      <internalNodes>
        0 -1 73087 1.2919398024678230e-02</internalNodes>
      <leafValues>
        -1.6321073472499847e-01 6.8139195442199707e-01</leafValues></_>
    <_>
      <internalNodes>
        0 -1 15056 2.2166952490806580e-02</internalNodes>
      <leafValues>
        -2.2827772796154022e-01 4.5389541983604431e-01</leafValues></_>
    <_>
      <internalNodes>
        0 -1 34322 3.9167273789644241e-03</internalNodes>
      <leafValues>
        1.8726848065853119e-01 -6.7856198549270630e-01</leafValues></_>
    <_>
      <internalNodes>
        0 -1 66621 1.1667575745377690e-04</internalNodes>
      <leafValues>
        -3.5633191466331482e-01 2.9299148917198181e-01</leafValues></_>
    <_>
      <internalNodes>
        0 -1 75118 -1.4429372968152165e-03</internalNodes>
      <leafValues>
        -4.8394519090652466e-01 2.1119485795497894e-01</leafValues></_>
    <_>
      <internalNodes>
        0 -1 44818 -3.3303810050711036e-04</internalNodes>
      <leafValues>
        3.6307838559150696e-01 -2.9320168495178223e-01</leafValues></_>
    <_>
      <internalNodes>
        0 -1 77988 5.8932101819664240e-04</internalNodes>
      <leafValues>
        1.8065223097801208e-01 -6.4190614223480225e-01</leafValues></_>
    <_>
      <internalNodes>
        0 -1 52655 1.1560125276446342e-03</internalNodes>
      <leafValues>
        -3.1830048561096191e-01 3.2920756936073303e-01</leafValues></_></weakClassifiers></stage8>
</opencv_storage>
