<?xml version="1.0"?>
<opencv_storage>
<stage0>
  <maxWeakCount>10</maxWeakCount>
  <stageThreshold>-1.1076654195785522e+00</stageThreshold>
  <weakClassifiers>
    <_>
      <internalNodes>
        0 -1 49319 -3.7348275072872639e-03</internalNodes>
      <leafValues>
        3.6274510622024536e-01 -5.3409093618392944e-01</leafValues></_>
    <_>
      <internalNodes>
        0 -1 686 -1.4447081089019775e-01</internalNodes>
      <leafValues>
        7.3530942201614380e-01 -2.8174084424972534e-01</leafValues></_>
    <_>
      <internalNodes>
        0 -1 43750 -1.7651969194412231e-01</internalNodes>
      <leafValues>
        7.5840437412261963e-01 -2.4378910660743713e-01</leafValues></_>
    <_>
      <internalNodes>
        0 -1 14834 9.2664093244820833e-04</internalNodes>
      <leafValues>
        3.2208332419395447e-01 -5.4839640855789185e-01</leafValues></_>
    <_>
      <internalNodes>
        0 -1 50912 -9.1915931552648544e-03</internalNodes>
      <leafValues>
        6.8884086608886719e-01 -2.2215202450752258e-01</leafValues></_>
    <_>
      <internalNodes>
        0 -1 35122 -1.7861072719097137e-01</internalNodes>
      <leafValues>
        7.7470451593399048e-01 -1.9855460524559021e-01</leafValues></_>
    <_>
      <internalNodes>
        0 -1 57795 -1.7127159517258406e-03</internalNodes>
      <leafValues>
        -6.9170582294464111e-01 2.6673382520675659e-01</leafValues></_>
    <_>
      <internalNodes>
        0 -1 24998 2.4551423266530037e-03</internalNodes>
      <leafValues>
        -2.8554248809814453e-01 6.0381072759628296e-01</leafValues></_>
    <_>
      <internalNodes>
        0 -1 61458 7.8475978225469589e-03</internalNodes>
      <leafValues>
        2.4745380878448486e-01 -9.3456202745437622e-01</leafValues></_>
    <_>
      <internalNodes>
        0 -1 41496 1.5212379395961761e-02</internalNodes>
      <leafValues>
        -3.2463708519935608e-01 6.2402480840682983e-01</leafValues></_></weakClassifiers></stage0>
</opencv_storage>
