<?xml version="1.0"?>
<opencv_storage>
<stage3>
  <maxWeakCount>10</maxWeakCount>
  <stageThreshold>-7.7477967739105225e-01</stageThreshold>
  <weakClassifiers>
    <_>
      <internalNodes>
        0 -1 40263 -9.0408757328987122e-02</internalNodes>
      <leafValues>
        8.1538462638854980e-01 -2.3174603283405304e-01</leafValues></_>
    <_>
      <internalNodes>
        0 -1 9 -1.9221814000047743e-04</internalNodes>
      <leafValues>
        -3.8119193911552429e-01 3.0015107989311218e-01</leafValues></_>
    <_>
      <internalNodes>
        0 -1 62186 -3.6168319638818502e-04</internalNodes>
      <leafValues>
        1.9972035288810730e-01 -5.0589931011199951e-01</leafValues></_>
    <_>
      <internalNodes>
        0 -1 56371 3.5527229774743319e-03</internalNodes>
      <leafValues>
        1.4052176475524902e-01 -8.4569936990737915e-01</leafValues></_>
    <_>
      <internalNodes>
        0 -1 41381 -2.8959712944924831e-03</internalNodes>
      <leafValues>
        6.6693931818008423e-01 -1.6822318732738495e-01</leafValues></_>
    <_>
      <internalNodes>
        0 -1 29637 3.1434707343578339e-02</internalNodes>
      <leafValues>
        -2.2447593510150909e-01 5.1522451639175415e-01</leafValues></_>
    <_>
      <internalNodes>
        0 -1 14477 -5.8421269059181213e-03</internalNodes>
      <leafValues>
        -8.3758002519607544e-01 1.4548413455486298e-01</leafValues></_>
    <_>
      <internalNodes>
        0 -1 72453 1.4110792428255081e-02</internalNodes>
      <leafValues>
        -1.9880025088787079e-01 6.0525679588317871e-01</leafValues></_>
    <_>
      <internalNodes>
        0 -1 39150 2.0929597667418420e-04</internalNodes>
      <leafValues>
        -3.7351018190383911e-01 3.2996630668640137e-01</leafValues></_>
    <_>
      <internalNodes>
        0 -1 77732 2.0363174844533205e-03</internalNodes>
      <leafValues>
        2.1900418400764465e-01 -5.5371081829071045e-01</leafValues></_></weakClassifiers></stage3>
</opencv_storage>
