<?xml version="1.0"?>
<opencv_storage>
<stage18>
  <maxWeakCount>15</maxWeakCount>
  <stageThreshold>-6.7016315460205078e-01</stageThreshold>
  <weakClassifiers>
    <_>
      <internalNodes>
        0 -1 69300 3.3944421447813511e-03</internalNodes>
      <leafValues>
        -1.8954248726367950e-01 5.1351350545883179e-01</leafValues></_>
    <_>
      <internalNodes>
        0 -1 37802 5.0795839342754334e-05</internalNodes>
      <leafValues>
        -3.0705761909484863e-01 2.6420450210571289e-01</leafValues></_>
    <_>
      <internalNodes>
        0 -1 77692 -4.4358596205711365e-02</internalNodes>
      <leafValues>
        7.1927189826965332e-01 -1.6978386044502258e-01</leafValues></_>
    <_>
      <internalNodes>
        0 -1 66780 -2.2553281858563423e-02</internalNodes>
      <leafValues>
        -6.1515200138092041e-01 2.0867709815502167e-01</leafValues></_>
    <_>
      <internalNodes>
        0 -1 72639 1.5349595807492733e-02</internalNodes>
      <leafValues>
        -1.8167816102504730e-01 5.2615314722061157e-01</leafValues></_>
    <_>
      <internalNodes>
        0 -1 77830 -3.1734132207930088e-03</internalNodes>
      <leafValues>
        4.0999761223793030e-01 -2.4355909228324890e-01</leafValues></_>
    <_>
      <internalNodes>
        0 -1 45692 7.1588414721190929e-03</internalNodes>
      <leafValues>
        -1.8528003990650177e-01 5.2569466829299927e-01</leafValues></_>
    <_>
      <internalNodes>
        0 -1 62432 2.7781049720942974e-03</internalNodes>
      <leafValues>
        2.0950119197368622e-01 -6.4121276140213013e-01</leafValues></_>
    <_>
      <internalNodes>
        0 -1 31602 1.4046076685190201e-03</internalNodes>
      <leafValues>
        -2.9326391220092773e-01 4.1171851754188538e-01</leafValues></_>
    <_>
      <internalNodes>
        0 -1 68450 -2.4448651820421219e-03</internalNodes>
      <leafValues>
        4.8009139299392700e-01 -1.8683648109436035e-01</leafValues></_>
    <_>
      <internalNodes>
        0 -1 35213 3.4145712852478027e-02</internalNodes>
      <leafValues>
        -1.4408478140830994e-01 6.7396962642669678e-01</leafValues></_>
    <_>
      <internalNodes>
        0 -1 16567 -7.7336584217846394e-04</internalNodes>
      <leafValues>
        3.4796813130378723e-01 -3.4522354602813721e-01</leafValues></_>
    <_>
      <internalNodes>
        0 -1 27846 2.0735491998493671e-03</internalNodes>
      <leafValues>
        -2.5225925445556641e-01 4.3023702502250671e-01</leafValues></_>
    <_>
      <internalNodes>
        0 -1 77709 1.9036959856748581e-03</internalNodes>
      <leafValues>
        2.3326794803142548e-01 -5.5746132135391235e-01</leafValues></_>
    <_>
      <internalNodes>
        0 -1 39989 1.5660304343327880e-03</internalNodes>
      <leafValues>
        -2.3707085847854614e-01 5.0759172439575195e-01</leafValues></_></weakClassifiers></stage18>
</opencv_storage>
