<?xml version="1.0"?>
<opencv_storage>
<stage5>
  <maxWeakCount>17</maxWeakCount>
  <stageThreshold>-9.3391966819763184e-01</stageThreshold>
  <weakClassifiers>
    <_>
      <internalNodes>
        0 -1 78284 -4.0064385393634439e-04</internalNodes>
      <leafValues>
        -5.0847458839416504e-01 1.5267175436019897e-01</leafValues></_>
    <_>
      <internalNodes>
        0 -1 43467 -2.4116089940071106e-01</internalNodes>
      <leafValues>
        6.3429790735244751e-01 -1.6340318322181702e-01</leafValues></_>
    <_>
      <internalNodes>
        0 -1 75379 -3.7052965490147471e-04</internalNodes>
      <leafValues>
        -4.2560943961143494e-01 2.4740006029605865e-01</leafValues></_>
    <_>
      <internalNodes>
        0 -1 57814 -2.4841958656907082e-03</internalNodes>
      <leafValues>
        -5.8818000555038452e-01 1.9034627079963684e-01</leafValues></_>
    <_>
      <internalNodes>
        0 -1 46542 -2.3518162779510021e-03</internalNodes>
      <leafValues>
        4.9279361963272095e-01 -2.5805816054344177e-01</leafValues></_>
    <_>
      <internalNodes>
        0 -1 54654 3.7572244182229042e-03</internalNodes>
      <leafValues>
        1.9704280793666840e-01 -6.7319196462631226e-01</leafValues></_>
    <_>
      <internalNodes>
        0 -1 11976 -9.4724364578723907e-02</internalNodes>
      <leafValues>
        6.7686551809310913e-01 -1.6379559040069580e-01</leafValues></_>
    <_>
      <internalNodes>
        0 -1 53813 -1.8846006132662296e-03</internalNodes>
      <leafValues>
        2.8808125853538513e-01 -3.4756970405578613e-01</leafValues></_>
    <_>
      <internalNodes>
        0 -1 65982 1.1790471617132425e-03</internalNodes>
      <leafValues>
        2.0312634110450745e-01 -4.3364745378494263e-01</leafValues></_>
    <_>
      <internalNodes>
        0 -1 77990 -5.1225069910287857e-04</internalNodes>
      <leafValues>
        -4.3329000473022461e-01 2.0085735619068146e-01</leafValues></_>
    <_>
      <internalNodes>
        0 -1 78347 2.0412025041878223e-03</internalNodes>
      <leafValues>
        2.1017625927925110e-01 -4.9432370066642761e-01</leafValues></_>
    <_>
      <internalNodes>
        0 -1 73644 3.2655902206897736e-02</internalNodes>
      <leafValues>
        -1.6191437840461731e-01 5.8365458250045776e-01</leafValues></_>
    <_>
      <internalNodes>
        0 -1 47029 -1.6300506889820099e-02</internalNodes>
      <leafValues>
        7.8533142805099487e-01 -1.4504908025264740e-01</leafValues></_>
    <_>
      <internalNodes>
        0 -1 71176 -5.2871322259306908e-04</internalNodes>
      <leafValues>
        4.4448092579841614e-01 -2.1077556908130646e-01</leafValues></_>
    <_>
      <internalNodes>
        0 -1 25673 3.2807484269142151e-01</internalNodes>
      <leafValues>
        -1.4442117512226105e-01 8.4161806106567383e-01</leafValues></_>
    <_>
      <internalNodes>
        0 -1 65895 -1.6078881919384003e-02</internalNodes>
      <leafValues>
        4.7454023361206055e-01 -1.9698062539100647e-01</leafValues></_>
    <_>
      <internalNodes>
        0 -1 10388 -2.2115116007626057e-03</internalNodes>
      <leafValues>
        -6.7416542768478394e-01 1.6681672632694244e-01</leafValues></_></weakClassifiers></stage5>
</opencv_storage>
