<?xml version="1.0"?>
<opencv_storage>
<stage13>
  <maxWeakCount>15</maxWeakCount>
  <stageThreshold>-6.0649538040161133e-01</stageThreshold>
  <weakClassifiers>
    <_>
      <internalNodes>
        0 -1 77665 -2.4339766241610050e-03</internalNodes>
      <leafValues>
        -7.1428573131561279e-01 7.8864350914955139e-02</leafValues></_>
    <_>
      <internalNodes>
        0 -1 7093 -3.4035038203001022e-02</internalNodes>
      <leafValues>
        -7.5020360946655273e-01 7.9975828528404236e-02</leafValues></_>
    <_>
      <internalNodes>
        0 -1 34454 -9.9368263036012650e-03</internalNodes>
      <leafValues>
        -7.0813918113708496e-01 9.0614274144172668e-02</leafValues></_>
    <_>
      <internalNodes>
        0 -1 53117 1.5163566172122955e-01</internalNodes>
      <leafValues>
        -8.3634562790393829e-02 8.6512500047683716e-01</leafValues></_>
    <_>
      <internalNodes>
        0 -1 20033 8.1429276615381241e-03</internalNodes>
      <leafValues>
        -1.9472034275531769e-01 3.9895913004875183e-01</leafValues></_>
    <_>
      <internalNodes>
        0 -1 51325 -1.4035389758646488e-02</internalNodes>
      <leafValues>
        7.1671122312545776e-01 -1.0859140008687973e-01</leafValues></_>
    <_>
      <internalNodes>
        0 -1 24516 -2.4752803146839142e-03</internalNodes>
      <leafValues>
        4.8571065068244934e-01 -1.7815501987934113e-01</leafValues></_>
    <_>
      <internalNodes>
        0 -1 25773 1.2443724554032087e-03</internalNodes>
      <leafValues>
        -1.9100345671176910e-01 4.5627021789550781e-01</leafValues></_>
    <_>
      <internalNodes>
        0 -1 14609 3.9337687194347382e-03</internalNodes>
      <leafValues>
        1.2210331857204437e-01 -8.4059059619903564e-01</leafValues></_>
    <_>
      <internalNodes>
        0 -1 58560 -2.9746146174147725e-04</internalNodes>
      <leafValues>
        -3.4916937351226807e-01 2.2455853223800659e-01</leafValues></_>
    <_>
      <internalNodes>
        0 -1 63036 -2.3575681261718273e-03</internalNodes>
      <leafValues>
        5.8441418409347534e-01 -1.7486579716205597e-01</leafValues></_>
    <_>
      <internalNodes>
        0 -1 54624 2.7196720475330949e-04</internalNodes>
      <leafValues>
        2.0220774412155151e-01 -4.2751726508140564e-01</leafValues></_>
    <_>
      <internalNodes>
        0 -1 50846 -1.2586665106937289e-03</internalNodes>
      <leafValues>
        6.6528272628784180e-01 -1.2821198999881744e-01</leafValues></_>
    <_>
      <internalNodes>
        0 -1 48748 1.6844456549733877e-03</internalNodes>
      <leafValues>
        9.7514547407627106e-02 -8.3286631107330322e-01</leafValues></_>
    <_>
      <internalNodes>
        0 -1 75724 -3.5955512430518866e-03</internalNodes>
      <leafValues>
        5.0022321939468384e-01 -1.7137742042541504e-01</leafValues></_></weakClassifiers></stage13>
</opencv_storage>
