<?xml version="1.0"?>
<opencv_storage>
<stage4>
  <maxWeakCount>9</maxWeakCount>
  <stageThreshold>-7.1346974372863770e-01</stageThreshold>
  <weakClassifiers>
    <_>
      <internalNodes>
        0 -1 61076 1.6628699377179146e-02</internalNodes>
      <leafValues>
        -4.3103447556495667e-01 5.4054051637649536e-01</leafValues></_>
    <_>
      <internalNodes>
        0 -1 46383 -5.5386379361152649e-02</internalNodes>
      <leafValues>
        6.4796841144561768e-01 -2.2211180627346039e-01</leafValues></_>
    <_>
      <internalNodes>
        0 -1 70976 1.9769554492086172e-03</internalNodes>
      <leafValues>
        1.8224704265594482e-01 -9.0004640817642212e-01</leafValues></_>
    <_>
      <internalNodes>
        0 -1 70817 5.1597296260297298e-03</internalNodes>
      <leafValues>
        1.4542338252067566e-01 -8.8455587625503540e-01</leafValues></_>
    <_>
      <internalNodes>
        0 -1 29758 -6.5701449057087302e-04</internalNodes>
      <leafValues>
        3.5382181406021118e-01 -4.2052885890007019e-01</leafValues></_>
    <_>
      <internalNodes>
        0 -1 32338 2.2585312835872173e-03</internalNodes>
      <leafValues>
        2.1785889565944672e-01 -7.1942150592803955e-01</leafValues></_>
    <_>
      <internalNodes>
        0 -1 50551 -6.4341141842305660e-03</internalNodes>
      <leafValues>
        -6.7729151248931885e-01 1.7003422975540161e-01</leafValues></_>
    <_>
      <internalNodes>
        0 -1 63663 -1.2252686545252800e-02</internalNodes>
      <leafValues>
        5.8018344640731812e-01 -2.7537420392036438e-01</leafValues></_>
    <_>
      <internalNodes>
        0 -1 13633 -5.7936934754252434e-03</internalNodes>
      <leafValues>
        -8.8774752616882324e-01 1.5289013087749481e-01</leafValues></_></weakClassifiers></stage4>
</opencv_storage>
