<?xml version="1.0"?>
<opencv_storage>
<stage0>
  <maxWeakCount>8</maxWeakCount>
  <stageThreshold>-9.0716159343719482e-01</stageThreshold>
  <weakClassifiers>
    <_>
      <internalNodes>
        0 -1 31337 -1.0637357831001282e-01</internalNodes>
      <leafValues>
        8.8148146867752075e-01 -5.6734693050384521e-01</leafValues></_>
    <_>
      <internalNodes>
        0 -1 45242 -1.3829790055751801e-02</internalNodes>
      <leafValues>
        6.1247730255126953e-01 -4.5158198475837708e-01</leafValues></_>
    <_>
      <internalNodes>
        0 -1 73083 -1.2912909733131528e-03</internalNodes>
      <leafValues>
        5.2594375610351562e-01 -3.8373628258705139e-01</leafValues></_>
    <_>
      <internalNodes>
        0 -1 71759 3.9898669347167015e-03</internalNodes>
      <leafValues>
        -3.9492425322532654e-01 5.2218425273895264e-01</leafValues></_>
    <_>
      <internalNodes>
        0 -1 50252 -1.0065069794654846e-01</internalNodes>
      <leafValues>
        7.4439030885696411e-01 -3.0130845308303833e-01</leafValues></_>
    <_>
      <internalNodes>
        0 -1 61266 2.9199952259659767e-03</internalNodes>
      <leafValues>
        -3.0248549580574036e-01 5.7322531938552856e-01</leafValues></_>
    <_>
      <internalNodes>
        0 -1 6101 1.1099087074398994e-02</internalNodes>
      <leafValues>
        2.6031506061553955e-01 -8.9599376916885376e-01</leafValues></_>
    <_>
      <internalNodes>
        0 -1 33061 -9.2318607494235039e-03</internalNodes>
      <leafValues>
        3.5320559144020081e-01 -5.9288173913955688e-01</leafValues></_></weakClassifiers></stage0>
</opencv_storage>
