<?xml version="1.0"?>
<opencv_storage>
<stage5>
  <maxWeakCount>8</maxWeakCount>
  <stageThreshold>-1.0827487707138062e+00</stageThreshold>
  <weakClassifiers>
    <_>
      <internalNodes>
        0 -1 37543 -1.3008905574679375e-02</internalNodes>
      <leafValues>
        5.0000000000000000e-01 -5.7142859697341919e-01</leafValues></_>
    <_>
      <internalNodes>
        0 -1 57410 -6.1475215479731560e-03</internalNodes>
      <leafValues>
        5.0854736566543579e-01 -3.2562127709388733e-01</leafValues></_>
    <_>
      <internalNodes>
        0 -1 9768 -2.9388619586825371e-03</internalNodes>
      <leafValues>
        4.0952870249748230e-01 -4.2983597517013550e-01</leafValues></_>
    <_>
      <internalNodes>
        0 -1 54275 5.8589926920831203e-03</internalNodes>
      <leafValues>
        -3.6462190747261047e-01 4.2302277684211731e-01</leafValues></_>
    <_>
      <internalNodes>
        0 -1 78350 -7.1810889057815075e-03</internalNodes>
      <leafValues>
        -7.5716841220855713e-01 1.9730135798454285e-01</leafValues></_>
    <_>
      <internalNodes>
        0 -1 78165 -1.7013434320688248e-02</internalNodes>
      <leafValues>
        -8.7744206190109253e-01 1.6943654417991638e-01</leafValues></_>
    <_>
      <internalNodes>
        0 -1 21076 3.0930597335100174e-02</internalNodes>
      <leafValues>
        -2.5254610180854797e-01 6.4213269948959351e-01</leafValues></_>
    <_>
      <internalNodes>
        0 -1 7696 -9.8775373771786690e-04</internalNodes>
      <leafValues>
        4.1141194105148315e-01 -3.6415144801139832e-01</leafValues></_></weakClassifiers></stage5>
</opencv_storage>
