<?xml version="1.0"?>
<opencv_storage>
<stage11>
  <maxWeakCount>10</maxWeakCount>
  <stageThreshold>-5.3744208812713623e-01</stageThreshold>
  <weakClassifiers>
    <_>
      <internalNodes>
        0 -1 16177 2.2504575550556183e-02</internalNodes>
      <leafValues>
        -3.0952382087707520e-01 4.5312500000000000e-01</leafValues></_>
    <_>
      <internalNodes>
        0 -1 34457 -4.1016852483153343e-03</internalNodes>
      <leafValues>
        -6.8759727478027344e-01 1.8326871097087860e-01</leafValues></_>
    <_>
      <internalNodes>
        0 -1 36282 -1.9624412059783936e-02</internalNodes>
      <leafValues>
        7.9429435729980469e-01 -1.2192162126302719e-01</leafValues></_>
    <_>
      <internalNodes>
        0 -1 38432 -2.3672431707382202e-03</internalNodes>
      <leafValues>
        -8.5284507274627686e-01 8.8962584733963013e-02</leafValues></_>
    <_>
      <internalNodes>
        0 -1 47261 4.3499851599335670e-03</internalNodes>
      <leafValues>
        -1.6795848309993744e-01 7.3441880941390991e-01</leafValues></_>
    <_>
      <internalNodes>
        0 -1 59545 2.3333726450800896e-02</internalNodes>
      <leafValues>
        -2.7575883269309998e-01 4.0119993686676025e-01</leafValues></_>
    <_>
      <internalNodes>
        0 -1 33623 1.9025407964363694e-03</internalNodes>
      <leafValues>
        1.7864745855331421e-01 -8.8336622714996338e-01</leafValues></_>
    <_>
      <internalNodes>
        0 -1 49218 -6.7884735763072968e-03</internalNodes>
      <leafValues>
        3.2819935679435730e-01 -3.6892664432525635e-01</leafValues></_>
    <_>
      <internalNodes>
        0 -1 70436 -6.5720197744667530e-03</internalNodes>
      <leafValues>
        3.8853567838668823e-01 -3.1111371517181396e-01</leafValues></_>
    <_>
      <internalNodes>
        0 -1 19661 5.8578685857355595e-03</internalNodes>
      <leafValues>
        1.6912113130092621e-01 -7.3256039619445801e-01</leafValues></_></weakClassifiers></stage11>
</opencv_storage>
