<?xml version="1.0"?>
<opencv_storage>
<stage1>
  <maxWeakCount>8</maxWeakCount>
  <stageThreshold>-7.0593363046646118e-01</stageThreshold>
  <weakClassifiers>
    <_>
      <internalNodes>
        0 -1 37235 -1.0586402565240860e-01</internalNodes>
      <leafValues>
        7.3611110448837280e-01 -5.3389829397201538e-01</leafValues></_>
    <_>
      <internalNodes>
        0 -1 39950 -2.8119249269366264e-02</internalNodes>
      <leafValues>
        6.0304731130599976e-01 -3.3132559061050415e-01</leafValues></_>
    <_>
      <internalNodes>
        0 -1 61483 2.3745466023683548e-03</internalNodes>
      <leafValues>
        -4.6682789921760559e-01 3.6118313670158386e-01</leafValues></_>
    <_>
      <internalNodes>
        0 -1 65982 5.2602514624595642e-03</internalNodes>
      <leafValues>
        2.0456610620021820e-01 -7.7917796373367310e-01</leafValues></_>
    <_>
      <internalNodes>
        0 -1 70975 1.0593978222459555e-03</internalNodes>
      <leafValues>
        -3.7110111117362976e-01 4.4980892539024353e-01</leafValues></_>
    <_>
      <internalNodes>
        0 -1 61259 1.6875142464414239e-03</internalNodes>
      <leafValues>
        -3.0035614967346191e-01 5.4667258262634277e-01</leafValues></_>
    <_>
      <internalNodes>
        0 -1 40122 -4.3973708525300026e-03</internalNodes>
      <leafValues>
        -8.3929938077926636e-01 1.7598225176334381e-01</leafValues></_>
    <_>
      <internalNodes>
        0 -1 22557 -1.3323940336704254e-02</internalNodes>
      <leafValues>
        -7.5201773643493652e-01 1.6992478072643280e-01</leafValues></_></weakClassifiers></stage1>
</opencv_storage>
