<?xml version="1.0"?>
<opencv_storage>
<stage7>
  <maxWeakCount>11</maxWeakCount>
  <stageThreshold>-8.1387656927108765e-01</stageThreshold>
  <weakClassifiers>
    <_>
      <internalNodes>
        0 -1 40225 -8.1610970199108124e-02</internalNodes>
      <leafValues>
        5.8878505229949951e-01 -3.0402931571006775e-01</leafValues></_>
    <_>
      <internalNodes>
        0 -1 45095 -1.0574550833553076e-03</internalNodes>
      <leafValues>
        -7.1463966369628906e-01 2.0130707323551178e-01</leafValues></_>
    <_>
      <internalNodes>
        0 -1 57182 -9.1732665896415710e-03</internalNodes>
      <leafValues>
        3.7215685844421387e-01 -3.1931972503662109e-01</leafValues></_>
    <_>
      <internalNodes>
        0 -1 74986 -3.7152715958654881e-03</internalNodes>
      <leafValues>
        -7.1464794874191284e-01 2.0686043798923492e-01</leafValues></_>
    <_>
      <internalNodes>
        0 -1 22447 -3.1607646495103836e-02</internalNodes>
      <leafValues>
        6.4738959074020386e-01 -2.7686807513237000e-01</leafValues></_>
    <_>
      <internalNodes>
        0 -1 68681 2.1351864561438560e-03</internalNodes>
      <leafValues>
        2.3989745974540710e-01 -8.0774044990539551e-01</leafValues></_>
    <_>
      <internalNodes>
        0 -1 66872 -1.8038041889667511e-02</internalNodes>
      <leafValues>
        6.8215191364288330e-01 -2.2970794141292572e-01</leafValues></_>
    <_>
      <internalNodes>
        0 -1 42987 9.4380078371614218e-04</internalNodes>
      <leafValues>
        -2.4514590203762054e-01 4.8162758350372314e-01</leafValues></_>
    <_>
      <internalNodes>
        0 -1 9412 -8.2974638789892197e-03</internalNodes>
      <leafValues>
        -7.8696209192276001e-01 1.8574412167072296e-01</leafValues></_>
    <_>
      <internalNodes>
        0 -1 68124 -2.6259983424097300e-03</internalNodes>
      <leafValues>
        -7.7152681350708008e-01 8.0718196928501129e-02</leafValues></_>
    <_>
      <internalNodes>
        0 -1 48925 2.0165545865893364e-03</internalNodes>
      <leafValues>
        -2.7344104647636414e-01 4.2473712563514709e-01</leafValues></_></weakClassifiers></stage7>
</opencv_storage>
