<?xml version="1.0"?>
<opencv_storage>
<stage6>
  <maxWeakCount>11</maxWeakCount>
  <stageThreshold>-7.8144311904907227e-01</stageThreshold>
  <weakClassifiers>
    <_>
      <internalNodes>
        0 -1 60689 -3.5775966942310333e-02</internalNodes>
      <leafValues>
        4.1040462255477905e-01 -4.3961352109909058e-01</leafValues></_>
    <_>
      <internalNodes>
        0 -1 5321 4.9892589449882507e-03</internalNodes>
      <leafValues>
        1.6699884831905365e-01 -8.9678502082824707e-01</leafValues></_>
    <_>
      <internalNodes>
        0 -1 30803 6.7445207387208939e-03</internalNodes>
      <leafValues>
        -3.7081187963485718e-01 4.4618409872055054e-01</leafValues></_>
    <_>
      <internalNodes>
        0 -1 49830 3.2964290585368872e-03</internalNodes>
      <leafValues>
        -3.3851629495620728e-01 4.7776368260383606e-01</leafValues></_>
    <_>
      <internalNodes>
        0 -1 62544 -9.8588801920413971e-03</internalNodes>
      <leafValues>
        5.4971587657928467e-01 -3.0220371484756470e-01</leafValues></_>
    <_>
      <internalNodes>
        0 -1 76004 -9.5509774982929230e-03</internalNodes>
      <leafValues>
        -8.7088900804519653e-01 2.1245291829109192e-01</leafValues></_>
    <_>
      <internalNodes>
        0 -1 20642 -6.1831865459680557e-03</internalNodes>
      <leafValues>
        -8.2499039173126221e-01 1.2348084151744843e-01</leafValues></_>
    <_>
      <internalNodes>
        0 -1 69522 -1.1656332761049271e-02</internalNodes>
      <leafValues>
        4.6880495548248291e-01 -3.1566420197486877e-01</leafValues></_>
    <_>
      <internalNodes>
        0 -1 19381 -1.3880012556910515e-02</internalNodes>
      <leafValues>
        -1. 1.2651184201240540e-01</leafValues></_>
    <_>
      <internalNodes>
        0 -1 68900 -2.7618231251835823e-03</internalNodes>
      <leafValues>
        -9.1286641359329224e-01 1.1465008556842804e-01</leafValues></_>
    <_>
      <internalNodes>
        0 -1 68360 7.5820120400749147e-05</internalNodes>
      <leafValues>
        -5.4070532321929932e-01 2.4127197265625000e-01</leafValues></_></weakClassifiers></stage6>
</opencv_storage>
