<?xml version="1.0"?>
<opencv_storage>
<stage10>
  <maxWeakCount>12</maxWeakCount>
  <stageThreshold>-7.6733636856079102e-01</stageThreshold>
  <weakClassifiers>
    <_>
      <internalNodes>
        0 -1 9783 -3.6581031978130341e-02</internalNodes>
      <leafValues>
        4.2222222685813904e-01 -3.1428572535514832e-01</leafValues></_>
    <_>
      <internalNodes>
        0 -1 42992 4.7456459142267704e-03</internalNodes>
      <leafValues>
        -3.6470890045166016e-01 3.5544234514236450e-01</leafValues></_>
    <_>
      <internalNodes>
        0 -1 62815 3.6060854792594910e-02</internalNodes>
      <leafValues>
        -1.6798700392246246e-01 6.6406297683715820e-01</leafValues></_>
    <_>
      <internalNodes>
        0 -1 49959 4.0353965014219284e-03</internalNodes>
      <leafValues>
        1.5017142891883850e-01 -7.9567945003509521e-01</leafValues></_>
    <_>
      <internalNodes>
        0 -1 65439 7.4292009230703115e-04</internalNodes>
      <leafValues>
        -3.6287689208984375e-01 3.2985132932662964e-01</leafValues></_>
    <_>
      <internalNodes>
        0 -1 72829 -2.8319894336163998e-03</internalNodes>
      <leafValues>
        -7.8527748584747314e-01 1.1260082572698593e-01</leafValues></_>
    <_>
      <internalNodes>
        0 -1 66638 -1.7086325213313103e-02</internalNodes>
      <leafValues>
        7.1487331390380859e-01 -2.3186238110065460e-01</leafValues></_>
    <_>
      <internalNodes>
        0 -1 39243 -2.9310408979654312e-02</internalNodes>
      <leafValues>
        -7.8365516662597656e-01 2.1681517362594604e-01</leafValues></_>
    <_>
      <internalNodes>
        0 -1 63669 -2.2137682884931564e-02</internalNodes>
      <leafValues>
        5.7877928018569946e-01 -2.5155624747276306e-01</leafValues></_>
    <_>
      <internalNodes>
        0 -1 43824 -3.2899961806833744e-03</internalNodes>
      <leafValues>
        -8.1417673826217651e-01 1.5634807944297791e-01</leafValues></_>
    <_>
      <internalNodes>
        0 -1 62650 6.2055536545813084e-03</internalNodes>
      <leafValues>
        1.0987711697816849e-01 -8.8097715377807617e-01</leafValues></_>
    <_>
      <internalNodes>
        0 -1 46546 -1.1512720957398415e-02</internalNodes>
      <leafValues>
        5.9403520822525024e-01 -2.4863764643669128e-01</leafValues></_></weakClassifiers></stage10>
</opencv_storage>
