<?xml version="1.0"?>
<opencv_storage>
<cascade>
  <stageType>BOOST</stageType>
  <featureType>HAAR</featureType>
  <height>20</height>
  <width>20</width>
  <stageParams>
    <boostType>GAB</boostType>
    <minHitRate>9.9500000476837158e-01</minHitRate>
    <maxFalseAlarm>4.0000000596046448e-01</maxFalseAlarm>
    <weightTrimRate>9.4999999999999996e-01</weightTrimRate>
    <maxDepth>1</maxDepth>
    <maxWeakCount>100</maxWeakCount></stageParams>
  <featureParams>
    <maxCatCount>0</maxCatCount>
    <featSize>1</featSize>
    <mode>BASIC</mode></featureParams>
  <stageNum>20</stageNum>
  <stages>
    <!-- stage 0 -->
    <_>
      <maxWeakCount>6</maxWeakCount>
      <stageThreshold>-5.4271572828292847e-01</stageThreshold>
      <weakClassifiers>
        <_>
          <internalNodes>
            0 -1 8 -2.3799583315849304e-02</internalNodes>
          <leafValues>
            6.5217393636703491e-01 -4.5454546809196472e-01</leafValues></_>
        <_>
          <internalNodes>
            0 -1 61 -2.7523914352059364e-02</internalNodes>
          <leafValues>
            7.3296344280242920e-01 -3.7757024168968201e-01</leafValues></_>
        <_>
          <internalNodes>
            0 -1 170 -3.2945079728960991e-03</internalNodes>
          <leafValues>
            6.4914816617965698e-01 -4.1468974947929382e-01</leafValues></_>
        <_>
          <internalNodes>
            0 -1 67 -1.3980256393551826e-02</internalNodes>
          <leafValues>
            5.7097810506820679e-01 -4.3326917290687561e-01</leafValues></_>
        <_>
          <internalNodes>
            0 -1 54 2.6972878724336624e-02</internalNodes>
          <leafValues>
            -3.3280071616172791e-01 7.5334107875823975e-01</leafValues></_>
        <_>
          <internalNodes>
            0 -1 68 1.7752146814018488e-03</internalNodes>
          <leafValues>
            -4.4006150960922241e-01 4.6591234207153320e-01</leafValues></_></weakClassifiers></_>
    <!-- stage 1 -->
    <_>
      <maxWeakCount>5</maxWeakCount>
      <stageThreshold>-3.5263442993164062e-01</stageThreshold>
      <weakClassifiers>
        <_>
          <internalNodes>
            0 -1 93 -4.1043471544981003e-02</internalNodes>
          <leafValues>
            7.3584908246994019e-01 -3.5766422748565674e-01</leafValues></_>
        <_>
          <internalNodes>
            0 -1 123 5.6707244366407394e-03</internalNodes>
          <leafValues>
            -4.7702282667160034e-01 4.8623123764991760e-01</leafValues></_>
        <_>
          <internalNodes>
            0 -1 31 -1.1991066858172417e-02</internalNodes>
          <leafValues>
            8.1960719823837280e-01 -3.0878251791000366e-01</leafValues></_>
        <_>
          <internalNodes>
            0 -1 26 -6.5599501132965088e-02</internalNodes>
          <leafValues>
            6.0997158288955688e-01 -3.6124867200851440e-01</leafValues></_>
        <_>
          <internalNodes>
            0 -1 166 -3.5753007978200912e-03</internalNodes>
          <leafValues>
            -9.3955993652343750e-01 2.1696351468563080e-01</leafValues></_></weakClassifiers></_>
    <!-- stage 2 -->
    <_>
      <maxWeakCount>8</maxWeakCount>
      <stageThreshold>-5.8514374494552612e-01</stageThreshold>
      <weakClassifiers>
        <_>
          <internalNodes>
            0 -1 108 -5.8500193059444427e-02</internalNodes>
          <leafValues>
            7.0588237047195435e-01 -3.3093523979187012e-01</leafValues></_>
        <_>
          <internalNodes>
            0 -1 34 2.0484289154410362e-02</internalNodes>
          <leafValues>
            -4.4501149654388428e-01 6.1689782142639160e-01</leafValues></_>
        <_>
          <internalNodes>
            0 -1 115 3.2180774956941605e-02</internalNodes>
          <leafValues>
            -3.4610027074813843e-01 5.8396929502487183e-01</leafValues></_>
        <_>
          <internalNodes>
            0 -1 2 -5.7917427271604538e-02</internalNodes>
          <leafValues>
            7.4960505962371826e-01 -2.2659038007259369e-01</leafValues></_>
        <_>
          <internalNodes>
            0 -1 62 1.9291093945503235e-01</internalNodes>
          <leafValues>
            -2.6141113042831421e-01 7.5379598140716553e-01</leafValues></_>
        <_>
          <internalNodes>
            0 -1 173 3.5934574902057648e-02</internalNodes>
          <leafValues>
            -2.5604355335235596e-01 7.8054326772689819e-01</leafValues></_>
        <_>
          <internalNodes>
            0 -1 167 -1.3319198973476887e-02</internalNodes>
          <leafValues>
            6.3850271701812744e-01 -2.7726814150810242e-01</leafValues></_>
        <_>
          <internalNodes>
            0 -1 126 1.6284545883536339e-02</internalNodes>
          <leafValues>
            -3.4804853796958923e-01 6.7091906070709229e-01</leafValues></_></weakClassifiers></_>
    <!-- stage 3 -->
    <_>
      <maxWeakCount>9</maxWeakCount>
      <stageThreshold>-8.6713975667953491e-01</stageThreshold>
      <weakClassifiers>
        <_>
          <internalNodes>
            0 -1 172 3.8691740483045578e-03</internalNodes>
          <leafValues>
            1.8055555224418640e-01 -7.8260868787765503e-01</leafValues></_>
        <_>
          <internalNodes>
            0 -1 139 -7.5871003791689873e-03</internalNodes>
          <leafValues>
            -8.1826061010360718e-01 1.6751846671104431e-01</leafValues></_>
        <_>
          <internalNodes>
            0 -1 164 -3.1041918322443962e-02</internalNodes>
          <leafValues>
            5.5274283885955811e-01 -2.8202849626541138e-01</leafValues></_>
        <_>
          <internalNodes>
            0 -1 28 2.1836161613464355e-03</internalNodes>
          <leafValues>
            2.7023360133171082e-01 -6.9243913888931274e-01</leafValues></_>
        <_>
          <internalNodes>
            0 -1 140 -2.1280029322952032e-03</internalNodes>
          <leafValues>
            -9.4954586029052734e-01 1.4459371566772461e-01</leafValues></_>
        <_>
          <internalNodes>
            0 -1 87 -6.6566966474056244e-02</internalNodes>
          <leafValues>
            5.4183650016784668e-01 -3.2270666956901550e-01</leafValues></_>
        <_>
          <internalNodes>
            0 -1 53 2.2343821823596954e-02</internalNodes>
          <leafValues>
            -4.1923525929450989e-01 4.6040600538253784e-01</leafValues></_>
        <_>
          <internalNodes>
            0 -1 159 -8.2269799895584583e-04</internalNodes>
          <leafValues>
            -6.8352073431015015e-01 2.7785494923591614e-01</leafValues></_>
        <_>
          <internalNodes>
            0 -1 122 -8.9208409190177917e-03</internalNodes>
          <leafValues>
            -9.4909060001373291e-01 1.7557966709136963e-01</leafValues></_></weakClassifiers></_>
    <!-- stage 4 -->
    <_>
      <maxWeakCount>8</maxWeakCount>
      <stageThreshold>-6.4771252870559692e-01</stageThreshold>
      <weakClassifiers>
        <_>
          <internalNodes>
            0 -1 189 3.5663694143295288e-03</internalNodes>
          <leafValues>
            1.7687074840068817e-01 -8.3720928430557251e-01</leafValues></_>
        <_>
          <internalNodes>
            0 -1 161 -2.9570862650871277e-02</internalNodes>
          <leafValues>
            5.3616416454315186e-01 -3.9691743254661560e-01</leafValues></_>
        <_>
          <internalNodes>
            0 -1 165 -5.1626516506075859e-03</internalNodes>
          <leafValues>
            -8.9519870281219482e-01 1.9336575269699097e-01</leafValues></_>
        <_>
          <internalNodes>
            0 -1 33 -6.3225855119526386e-03</internalNodes>
          <leafValues>
            -9.5135891437530518e-01 1.8303851783275604e-01</leafValues></_>
        <_>
          <internalNodes>
            0 -1 118 -2.2196967154741287e-02</internalNodes>
          <leafValues>
            5.7705247402191162e-01 -3.5599666833877563e-01</leafValues></_>
        <_>
          <internalNodes>
            0 -1 179 -2.8225909918546677e-03</internalNodes>
          <leafValues>
            6.4179742336273193e-01 -2.6063901185989380e-01</leafValues></_>
        <_>
          <internalNodes>
            0 -1 43 -9.2929638922214508e-03</internalNodes>
          <leafValues>
            8.3265876770019531e-01 -2.1576668322086334e-01</leafValues></_>
        <_>
          <internalNodes>
            0 -1 13 -3.1331626232713461e-03</internalNodes>
          <leafValues>
            -8.7655407190322876e-01 2.2968050837516785e-01</leafValues></_></weakClassifiers></_>
    <!-- stage 5 -->
    <_>
      <maxWeakCount>6</maxWeakCount>
      <stageThreshold>-7.0156079530715942e-01</stageThreshold>
      <weakClassifiers>
        <_>
          <internalNodes>
            0 -1 45 1.8605306744575500e-02</internalNodes>
          <leafValues>
            -4.0495866537094116e-01 5.6521737575531006e-01</leafValues></_>
        <_>
          <internalNodes>
            0 -1 71 3.5135075449943542e-02</internalNodes>
          <leafValues>
            -3.3859753608703613e-01 6.9744157791137695e-01</leafValues></_>
        <_>
          <internalNodes>
            0 -1 138 1.5308473259210587e-02</internalNodes>
          <leafValues>
            -3.2255801558494568e-01 6.1579519510269165e-01</leafValues></_>
        <_>
          <internalNodes>
            0 -1 32 5.3949663415551186e-03</internalNodes>
          <leafValues>
            2.5477054715156555e-01 -9.1073161363601685e-01</leafValues></_>
        <_>
          <internalNodes>
            0 -1 78 -2.0501632243394852e-02</internalNodes>
          <leafValues>
            5.8460825681686401e-01 -2.9389885067939758e-01</leafValues></_>
        <_>
          <internalNodes>
            0 -1 29 2.6888245716691017e-02</internalNodes>
          <leafValues>
            -2.7949929237365723e-01 8.3650553226470947e-01</leafValues></_></weakClassifiers></_>
    <!-- stage 6 -->
    <_>
      <maxWeakCount>9</maxWeakCount>
      <stageThreshold>-8.6729139089584351e-01</stageThreshold>
      <weakClassifiers>
        <_>
          <internalNodes>
            0 -1 69 1.1574404314160347e-02</internalNodes>
          <leafValues>
            -3.8596490025520325e-01 4.4736841320991516e-01</leafValues></_>
        <_>
          <internalNodes>
            0 -1 11 -4.0325140580534935e-03</internalNodes>
          <leafValues>
            -8.4216427803039551e-01 2.1277399361133575e-01</leafValues></_>
        <_>
          <internalNodes>
            0 -1 85 -1.7506573349237442e-03</internalNodes>
          <leafValues>
            -7.3079860210418701e-01 2.6741382479667664e-01</leafValues></_>
        <_>
          <internalNodes>
            0 -1 41 -2.1776109933853149e-01</internalNodes>
          <leafValues>
            8.5758608579635620e-01 -2.7700337767601013e-01</leafValues></_>
        <_>
          <internalNodes>
            0 -1 38 2.9624801129102707e-02</internalNodes>
          <leafValues>
            -2.3582361638545990e-01 7.8440630435943604e-01</leafValues></_>
        <_>
          <internalNodes>
            0 -1 20 3.2188151031732559e-02</internalNodes>
          <leafValues>
            -1.8136289715766907e-01 7.6305615901947021e-01</leafValues></_>
        <_>
          <internalNodes>
            0 -1 178 -4.7019682824611664e-03</internalNodes>
          <leafValues>
            6.8481385707855225e-01 -2.1343889832496643e-01</leafValues></_>
        <_>
          <internalNodes>
            0 -1 25 -1.3139052316546440e-03</internalNodes>
          <leafValues>
            5.4103416204452515e-01 -3.0241876840591431e-01</leafValues></_>
        <_>
          <internalNodes>
            0 -1 96 -9.1764973476529121e-03</internalNodes>
          <leafValues>
            -8.5461813211441040e-01 2.4853324890136719e-01</leafValues></_></weakClassifiers></_>
    <!-- stage 7 -->
    <_>
      <maxWeakCount>11</maxWeakCount>
      <stageThreshold>-8.7459927797317505e-01</stageThreshold>
      <weakClassifiers>
        <_>
          <internalNodes>
            0 -1 3 -3.5498432815074921e-02</internalNodes>
          <leafValues>
            5.6896549463272095e-01 -3.2575756311416626e-01</leafValues></_>
        <_>
          <internalNodes>
            0 -1 84 -4.0679670870304108e-02</internalNodes>
          <leafValues>
            8.7290263175964355e-01 -1.9926403462886810e-01</leafValues></_>
        <_>
          <internalNodes>
            0 -1 177 1.3290809467434883e-02</internalNodes>
          <leafValues>
            -2.4307462573051453e-01 5.8009374141693115e-01</leafValues></_>
        <_>
          <internalNodes>
            0 -1 174 -8.3493301644921303e-03</internalNodes>
          <leafValues>
            7.0240408182144165e-01 -2.2141677141189575e-01</leafValues></_>
        <_>
          <internalNodes>
            0 -1 148 -3.9180954918265343e-03</internalNodes>
          <leafValues>
            -8.5484951734542847e-01 1.8080434203147888e-01</leafValues></_>
        <_>
          <internalNodes>
            0 -1 66 -2.0445082336664200e-03</internalNodes>
          <leafValues>
            -8.0153381824493408e-01 1.8310819566249847e-01</leafValues></_>
        <_>
          <internalNodes>
            0 -1 147 -1.2738903751596808e-03</internalNodes>
          <leafValues>
            -5.5655062198638916e-01 2.9764220118522644e-01</leafValues></_>
        <_>
          <internalNodes>
            0 -1 105 -3.0965786427259445e-02</internalNodes>
          <leafValues>
            5.1539373397827148e-01 -3.4327885508537292e-01</leafValues></_>
        <_>
          <internalNodes>
            0 -1 56 -1.0529907885938883e-03</internalNodes>
          <leafValues>
            6.9589120149612427e-01 -2.1737927198410034e-01</leafValues></_>
        <_>
          <internalNodes>
            0 -1 90 -1.0284637100994587e-03</internalNodes>
          <leafValues>
            4.1037821769714355e-01 -3.9819359779357910e-01</leafValues></_>
        <_>
          <internalNodes>
            0 -1 19 -1.2750638648867607e-02</internalNodes>
          <leafValues>
            5.1956391334533691e-01 -3.1520691514015198e-01</leafValues></_></weakClassifiers></_>
    <!-- stage 8 -->
    <_>
      <maxWeakCount>9</maxWeakCount>
      <stageThreshold>-5.9635853767395020e-01</stageThreshold>
      <weakClassifiers>
        <_>
          <internalNodes>
            0 -1 60 -1.9436998292803764e-02</internalNodes>
          <leafValues>
            8.3050847053527832e-01 -2.1495327353477478e-01</leafValues></_>
        <_>
          <internalNodes>
            0 -1 162 3.5688266158103943e-02</internalNodes>
          <leafValues>
            -1.7609977722167969e-01 6.9080537557601929e-01</leafValues></_>
        <_>
          <internalNodes>
            0 -1 14 -4.8417020589113235e-03</internalNodes>
          <leafValues>
            -9.1772902011871338e-01 1.6441951692104340e-01</leafValues></_>
        <_>
          <internalNodes>
            0 -1 12 -1.4441525563597679e-02</internalNodes>
          <leafValues>
            4.8059290647506714e-01 -2.9618790745735168e-01</leafValues></_>
        <_>
          <internalNodes>
            0 -1 186 1.7136076930910349e-03</internalNodes>
          <leafValues>
            1.9324326515197754e-01 -7.3924040794372559e-01</leafValues></_>
        <_>
          <internalNodes>
            0 -1 101 -6.0461922548711300e-03</internalNodes>
          <leafValues>
            5.2400380373001099e-01 -3.1117531657218933e-01</leafValues></_>
        <_>
          <internalNodes>
            0 -1 99 -3.4475095570087433e-02</internalNodes>
          <leafValues>
            -7.5801384449005127e-01 2.1355736255645752e-01</leafValues></_>
        <_>
          <internalNodes>
            0 -1 46 3.8016058970242739e-03</internalNodes>
          <leafValues>
            -1.8754364550113678e-01 7.9336643218994141e-01</leafValues></_>
        <_>
          <internalNodes>
            0 -1 106 -2.8063105419278145e-03</internalNodes>
          <leafValues>
            -7.1322339773178101e-01 2.1317166090011597e-01</leafValues></_></weakClassifiers></_>
    <!-- stage 9 -->
    <_>
      <maxWeakCount>10</maxWeakCount>
      <stageThreshold>-5.4018658399581909e-01</stageThreshold>
      <weakClassifiers>
        <_>
          <internalNodes>
            0 -1 74 9.3526151031255722e-03</internalNodes>
          <leafValues>
            -3.0232557654380798e-01 4.7540983557701111e-01</leafValues></_>
        <_>
          <internalNodes>
            0 -1 44 2.6447825133800507e-02</internalNodes>
          <leafValues>
            -2.2393704950809479e-01 6.9793093204498291e-01</leafValues></_>
        <_>
          <internalNodes>
            0 -1 94 -5.2963336929678917e-03</internalNodes>
          <leafValues>
            -1. 1.5849009156227112e-01</leafValues></_>
        <_>
          <internalNodes>
            0 -1 119 -2.0968182943761349e-03</internalNodes>
          <leafValues>
            -7.3276752233505249e-01 1.6439248621463776e-01</leafValues></_>
        <_>
          <internalNodes>
            0 -1 182 8.4988642483949661e-03</internalNodes>
          <leafValues>
            -2.3693357408046722e-01 5.9355944395065308e-01</leafValues></_>
        <_>
          <internalNodes>
            0 -1 184 -3.2737662550061941e-03</internalNodes>
          <leafValues>
            -8.8842993974685669e-01 1.7338666319847107e-01</leafValues></_>
        <_>
          <internalNodes>
            0 -1 154 -2.2715409286320210e-03</internalNodes>
          <leafValues>
            3.8900649547576904e-01 -3.3909502625465393e-01</leafValues></_>
        <_>
          <internalNodes>
            0 -1 125 -1.0514659807085991e-02</internalNodes>
          <leafValues>
            5.9450572729110718e-01 -2.4156768620014191e-01</leafValues></_>
        <_>
          <internalNodes>
            0 -1 95 -2.4325024336576462e-02</internalNodes>
          <leafValues>
            7.2258889675140381e-01 -2.1924187242984772e-01</leafValues></_>
        <_>
          <internalNodes>
            0 -1 151 -1.9305611029267311e-02</internalNodes>
          <leafValues>
            6.1139905452728271e-01 -2.0145659148693085e-01</leafValues></_></weakClassifiers></_>
    <!-- stage 10 -->
    <_>
      <maxWeakCount>11</maxWeakCount>
      <stageThreshold>-9.3940794467926025e-01</stageThreshold>
      <weakClassifiers>
        <_>
          <internalNodes>
            0 -1 91 -1.7037503421306610e-02</internalNodes>
          <leafValues>
            3.6912751197814941e-01 -3.2467532157897949e-01</leafValues></_>
        <_>
          <internalNodes>
            0 -1 180 -1.3066539540886879e-02</internalNodes>
          <leafValues>
            6.2782531976699829e-01 -1.8643473088741302e-01</leafValues></_>
        <_>
          <internalNodes>
            0 -1 24 -2.3126572370529175e-02</internalNodes>
          <leafValues>
            -9.5917320251464844e-01 1.0455365478992462e-01</leafValues></_>
        <_>
          <internalNodes>
            0 -1 103 -9.4980616122484207e-03</internalNodes>
          <leafValues>
            5.3025573492050171e-01 -2.4148730933666229e-01</leafValues></_>
        <_>
          <internalNodes>
            0 -1 36 7.8187212347984314e-02</internalNodes>
          <leafValues>
            -1.9318139553070068e-01 6.6000586748123169e-01</leafValues></_>
        <_>
          <internalNodes>
            0 -1 77 -4.4010661542415619e-02</internalNodes>
          <leafValues>
            4.6685606241226196e-01 -2.9630219936370850e-01</leafValues></_>
        <_>
          <internalNodes>
            0 -1 27 -1.1251033842563629e-01</internalNodes>
          <leafValues>
            5.3541845083236694e-01 -2.4801786243915558e-01</leafValues></_>
        <_>
          <internalNodes>
            0 -1 1 -3.5253143869340420e-03</internalNodes>
          <leafValues>
            -7.6219147443771362e-01 1.7961415648460388e-01</leafValues></_>
        <_>
          <internalNodes>
            0 -1 155 1.1173724196851254e-02</internalNodes>
          <leafValues>
            -2.4510771036148071e-01 5.2159506082534790e-01</leafValues></_>
        <_>
          <internalNodes>
            0 -1 130 -3.6861936096101999e-03</internalNodes>
          <leafValues>
            -9.8167049884796143e-01 1.0961616039276123e-01</leafValues></_>
        <_>
          <internalNodes>
            0 -1 175 -1.0187858715653419e-02</internalNodes>
          <leafValues>
            7.5749766826629639e-01 -2.1135914325714111e-01</leafValues></_></weakClassifiers></_>
    <!-- stage 11 -->
    <_>
      <maxWeakCount>14</maxWeakCount>
      <stageThreshold>-8.1148380041122437e-01</stageThreshold>
      <weakClassifiers>
        <_>
          <internalNodes>
            0 -1 145 9.3821398913860321e-03</internalNodes>
          <leafValues>
            -3.2432430982589722e-01 3.2911393046379089e-01</leafValues></_>
        <_>
          <internalNodes>
            0 -1 9 -3.3438369631767273e-02</internalNodes>
          <leafValues>
            4.2173892259597778e-01 -2.5861784815788269e-01</leafValues></_>
        <_>
          <internalNodes>
            0 -1 65 -8.9952806010842323e-03</internalNodes>
          <leafValues>
            5.0465834140777588e-01 -2.7978467941284180e-01</leafValues></_>
        <_>
          <internalNodes>
            0 -1 102 -4.4472222216427326e-03</internalNodes>
          <leafValues>
            -8.9444220066070557e-01 1.7677447199821472e-01</leafValues></_>
        <_>
          <internalNodes>
            0 -1 113 -5.5124750360846519e-03</internalNodes>
          <leafValues>
            4.6428364515304565e-01 -2.3773005604743958e-01</leafValues></_>
        <_>
          <internalNodes>
            0 -1 63 -5.1039429381489754e-03</internalNodes>
          <leafValues>
            6.4478009939193726e-01 -2.4187485873699188e-01</leafValues></_>
        <_>
          <internalNodes>
            0 -1 137 3.5106143914163113e-03</internalNodes>
          <leafValues>
            2.2425459325313568e-01 -6.7755806446075439e-01</leafValues></_>
        <_>
          <internalNodes>
            0 -1 160 -2.0531792193651199e-02</internalNodes>
          <leafValues>
            6.4352273941040039e-01 -2.2347071766853333e-01</leafValues></_>
        <_>
          <internalNodes>
            0 -1 22 -3.2506142742931843e-03</internalNodes>
          <leafValues>
            -6.7268830537796021e-01 2.1354949474334717e-01</leafValues></_>
        <_>
          <internalNodes>
            0 -1 109 3.5574786365032196e-02</internalNodes>
          <leafValues>
            -2.9938170313835144e-01 4.1600078344345093e-01</leafValues></_>
        <_>
          <internalNodes>
            0 -1 97 -2.6239836588501930e-03</internalNodes>
          <leafValues>
            -7.7413088083267212e-01 1.5278038382530212e-01</leafValues></_>
        <_>
          <internalNodes>
            0 -1 169 1.8732737516984344e-03</internalNodes>
          <leafValues>
            -2.4550189077854156e-01 5.9880584478378296e-01</leafValues></_>
        <_>
          <internalNodes>
            0 -1 136 -4.7468370757997036e-03</internalNodes>
          <leafValues>
            -8.2813525199890137e-01 1.5994223952293396e-01</leafValues></_>
        <_>
          <internalNodes>
            0 -1 57 -1.8244102597236633e-02</internalNodes>
          <leafValues>
            -9.3151378631591797e-01 9.2952542006969452e-02</leafValues></_></weakClassifiers></_>
    <!-- stage 12 -->
    <_>
      <maxWeakCount>13</maxWeakCount>
      <stageThreshold>-6.6302853822708130e-01</stageThreshold>
      <weakClassifiers>
        <_>
          <internalNodes>
            0 -1 158 7.6278741471469402e-03</internalNodes>
          <leafValues>
            -2.3529411852359772e-01 7.0270270109176636e-01</leafValues></_>
        <_>
          <internalNodes>
            0 -1 111 -5.4359422065317631e-03</internalNodes>
          <leafValues>
            4.8776021599769592e-01 -2.3111028969287872e-01</leafValues></_>
        <_>
          <internalNodes>
            0 -1 48 -2.3480370640754700e-02</internalNodes>
          <leafValues>
            6.1377710103988647e-01 -1.9935216009616852e-01</leafValues></_>
        <_>
          <internalNodes>
            0 -1 88 -1.4453676994889975e-03</internalNodes>
          <leafValues>
            -7.8352737426757812e-01 1.5787227451801300e-01</leafValues></_>
        <_>
          <internalNodes>
            0 -1 110 3.4402026794850826e-03</internalNodes>
          <leafValues>
            -1.5473872423171997e-01 7.1368187665939331e-01</leafValues></_>
        <_>
          <internalNodes>
            0 -1 79 -7.6633389107882977e-03</internalNodes>
          <leafValues>
            2.3006546497344971e-01 -5.3324753046035767e-01</leafValues></_>
        <_>
          <internalNodes>
            0 -1 50 6.7018209956586361e-03</internalNodes>
          <leafValues>
            -2.0094759762287140e-01 5.8595716953277588e-01</leafValues></_>
        <_>
          <internalNodes>
            0 -1 18 -3.0829668045043945e-02</internalNodes>
          <leafValues>
            7.9923713207244873e-01 -1.6096031665802002e-01</leafValues></_>
        <_>
          <internalNodes>
            0 -1 112 -9.1430647298693657e-03</internalNodes>
          <leafValues>
            7.3291957378387451e-01 -1.6663637757301331e-01</leafValues></_>
        <_>
          <internalNodes>
            0 -1 150 -5.8846604079008102e-03</internalNodes>
          <leafValues>
            7.1657729148864746e-01 -1.4330174028873444e-01</leafValues></_>
        <_>
          <internalNodes>
            0 -1 132 6.0437410138547421e-03</internalNodes>
          <leafValues>
            1.8567530810832977e-01 -9.2619812488555908e-01</leafValues></_>
        <_>
          <internalNodes>
            0 -1 47 7.9009793698787689e-03</internalNodes>
          <leafValues>
            -2.7938023209571838e-01 5.2472060918807983e-01</leafValues></_>
        <_>
          <internalNodes>
            0 -1 70 -6.0136541724205017e-03</internalNodes>
          <leafValues>
            7.5251877307891846e-01 -1.8379051983356476e-01</leafValues></_></weakClassifiers></_>
    <!-- stage 13 -->
    <_>
      <maxWeakCount>11</maxWeakCount>
      <stageThreshold>-6.5717911720275879e-01</stageThreshold>
      <weakClassifiers>
        <_>
          <internalNodes>
            0 -1 59 -1.1041982099413872e-02</internalNodes>
          <leafValues>
            4.5901638269424438e-01 -2.9457363486289978e-01</leafValues></_>
        <_>
          <internalNodes>
            0 -1 82 -4.0430380031466484e-03</internalNodes>
          <leafValues>
            -8.8690984249114990e-01 1.3355341553688049e-01</leafValues></_>
        <_>
          <internalNodes>
            0 -1 185 4.8733912408351898e-03</internalNodes>
          <leafValues>
            -2.7110624313354492e-01 5.3604209423065186e-01</leafValues></_>
        <_>
          <internalNodes>
            0 -1 92 1.7435122281312943e-02</internalNodes>
          <leafValues>
            -2.3489966988563538e-01 5.3087830543518066e-01</leafValues></_>
        <_>
          <internalNodes>
            0 -1 171 -5.2069528028368950e-03</internalNodes>
          <leafValues>
            7.3730748891830444e-01 -1.6512164473533630e-01</leafValues></_>
        <_>
          <internalNodes>
            0 -1 179 -2.9959185048937798e-03</internalNodes>
          <leafValues>
            6.3454324007034302e-01 -1.9975841045379639e-01</leafValues></_>
        <_>
          <internalNodes>
            0 -1 4 -4.1948750615119934e-02</internalNodes>
          <leafValues>
            4.3724477291107178e-01 -3.2023856043815613e-01</leafValues></_>
        <_>
          <internalNodes>
            0 -1 49 -1.4870118349790573e-02</internalNodes>
          <leafValues>
            4.4988849759101868e-01 -2.9651713371276855e-01</leafValues></_>
        <_>
          <internalNodes>
            0 -1 107 -3.1050718389451504e-03</internalNodes>
          <leafValues>
            4.8299008607864380e-01 -2.6949664950370789e-01</leafValues></_>
        <_>
          <internalNodes>
            0 -1 176 2.2917720489203930e-03</internalNodes>
          <leafValues>
            -2.2850085794925690e-01 6.6007119417190552e-01</leafValues></_>
        <_>
          <internalNodes>
            0 -1 0 7.5410574208945036e-04</internalNodes>
          <leafValues>
            2.0279954373836517e-01 -6.5608376264572144e-01</leafValues></_></weakClassifiers></_>
    <!-- stage 14 -->
    <_>
      <maxWeakCount>13</maxWeakCount>
      <stageThreshold>-5.8839678764343262e-01</stageThreshold>
      <weakClassifiers>
        <_>
          <internalNodes>
            0 -1 131 -1.9536186009645462e-02</internalNodes>
          <leafValues>
            5.4347825050354004e-01 -2.4305555224418640e-01</leafValues></_>
        <_>
          <internalNodes>
            0 -1 16 -2.8717848472297192e-03</internalNodes>
          <leafValues>
            -7.0240277051925659e-01 1.9464640319347382e-01</leafValues></_>
        <_>
          <internalNodes>
            0 -1 129 1.9338190555572510e-02</internalNodes>
          <leafValues>
            -2.7515542507171631e-01 4.8206931352615356e-01</leafValues></_>
        <_>
          <internalNodes>
            0 -1 146 4.1314149275422096e-03</internalNodes>
          <leafValues>
            2.2820924222469330e-01 -7.2460889816284180e-01</leafValues></_>
        <_>
          <internalNodes>
            0 -1 127 2.6165465824306011e-03</internalNodes>
          <leafValues>
            -3.3342590928077698e-01 3.7063607573509216e-01</leafValues></_>
        <_>
          <internalNodes>
            0 -1 81 4.6275244094431400e-03</internalNodes>
          <leafValues>
            2.0768271386623383e-01 -6.2925016880035400e-01</leafValues></_>
        <_>
          <internalNodes>
            0 -1 143 3.3713996410369873e-02</internalNodes>
          <leafValues>
            -2.1279649436473846e-01 8.0593848228454590e-01</leafValues></_>
        <_>
          <internalNodes>
            0 -1 134 1.8828796455636621e-03</internalNodes>
          <leafValues>
            -3.5353803634643555e-01 3.9216199517250061e-01</leafValues></_>
        <_>
          <internalNodes>
            0 -1 89 -4.1708396747708321e-03</internalNodes>
          <leafValues>
            6.2442857027053833e-01 -2.2901429235935211e-01</leafValues></_>
        <_>
          <internalNodes>
            0 -1 181 4.5540602877736092e-03</internalNodes>
          <leafValues>
            1.4338082075119019e-01 -8.1923538446426392e-01</leafValues></_>
        <_>
          <internalNodes>
            0 -1 52 2.7520153671503067e-02</internalNodes>
          <leafValues>
            -1.9601759314537048e-01 6.6163861751556396e-01</leafValues></_>
        <_>
          <internalNodes>
            0 -1 51 1.6141468659043312e-03</internalNodes>
          <leafValues>
            -4.9736666679382324e-01 2.8209060430526733e-01</leafValues></_>
        <_>
          <internalNodes>
            0 -1 187 8.5267506074160337e-04</internalNodes>
          <leafValues>
            -2.6626560091972351e-01 5.2413415908813477e-01</leafValues></_></weakClassifiers></_>
    <!-- stage 15 -->
    <_>
      <maxWeakCount>9</maxWeakCount>
      <stageThreshold>-5.4993247985839844e-01</stageThreshold>
      <weakClassifiers>
        <_>
          <internalNodes>
            0 -1 149 4.8190420493483543e-03</internalNodes>
          <leafValues>
            1.4285714924335480e-01 -7.9746836423873901e-01</leafValues></_>
        <_>
          <internalNodes>
            0 -1 188 -1.6512880101799965e-03</internalNodes>
          <leafValues>
            -7.4436104297637939e-01 1.4267681539058685e-01</leafValues></_>
        <_>
          <internalNodes>
            0 -1 121 1.2374201323837042e-03</internalNodes>
          <leafValues>
            -2.8022497892379761e-01 5.0241863727569580e-01</leafValues></_>
        <_>
          <internalNodes>
            0 -1 7 1.8214585725218058e-03</internalNodes>
          <leafValues>
            -3.1207683682441711e-01 4.3187999725341797e-01</leafValues></_>
        <_>
          <internalNodes>
            0 -1 117 -6.2538897618651390e-03</internalNodes>
          <leafValues>
            -8.4688514471054077e-01 2.1502707898616791e-01</leafValues></_>
        <_>
          <internalNodes>
            0 -1 35 3.3172946423292160e-03</internalNodes>
          <leafValues>
            -3.5206076502799988e-01 5.2103155851364136e-01</leafValues></_>
        <_>
          <internalNodes>
            0 -1 23 -5.2387220785021782e-03</internalNodes>
          <leafValues>
            -7.7326333522796631e-01 2.3630794882774353e-01</leafValues></_>
        <_>
          <internalNodes>
            0 -1 6 -2.6186466217041016e-02</internalNodes>
          <leafValues>
            8.6065089702606201e-01 -2.2471061348915100e-01</leafValues></_>
        <_>
          <internalNodes>
            0 -1 55 6.2944302335381508e-03</internalNodes>
          <leafValues>
            2.0022709667682648e-01 -9.7249627113342285e-01</leafValues></_></weakClassifiers></_>
    <!-- stage 16 -->
    <_>
      <maxWeakCount>11</maxWeakCount>
      <stageThreshold>-5.3790771961212158e-01</stageThreshold>
      <weakClassifiers>
        <_>
          <internalNodes>
            0 -1 120 -1.0878758504986763e-02</internalNodes>
          <leafValues>
            6.9863015413284302e-01 -2.3127035796642303e-01</leafValues></_>
        <_>
          <internalNodes>
            0 -1 75 -3.5811364650726318e-03</internalNodes>
          <leafValues>
            -7.2168117761611938e-01 2.3179653286933899e-01</leafValues></_>
        <_>
          <internalNodes>
            0 -1 83 1.3761059381067753e-02</internalNodes>
          <leafValues>
            -2.4798351526260376e-01 6.0147476196289062e-01</leafValues></_>
        <_>
          <internalNodes>
            0 -1 86 2.5597980129532516e-04</internalNodes>
          <leafValues>
            -2.8031155467033386e-01 5.5279541015625000e-01</leafValues></_>
        <_>
          <internalNodes>
            0 -1 37 -2.9070641845464706e-02</internalNodes>
          <leafValues>
            8.7588763236999512e-01 -1.1339447647333145e-01</leafValues></_>
        <_>
          <internalNodes>
            0 -1 100 -6.5847793594002724e-03</internalNodes>
          <leafValues>
            6.7330223321914673e-01 -2.3223796486854553e-01</leafValues></_>
        <_>
          <internalNodes>
            0 -1 58 -5.3633814677596092e-03</internalNodes>
          <leafValues>
            4.0860477089881897e-01 -3.3948585391044617e-01</leafValues></_>
        <_>
          <internalNodes>
            0 -1 142 2.6856837794184685e-03</internalNodes>
          <leafValues>
            2.2405466437339783e-01 -6.5608066320419312e-01</leafValues></_>
        <_>
          <internalNodes>
            0 -1 15 2.4327193386852741e-03</internalNodes>
          <leafValues>
            2.9199925065040588e-01 -4.7776922583580017e-01</leafValues></_>
        <_>
          <internalNodes>
            0 -1 64 -3.8764530327171087e-03</internalNodes>
          <leafValues>
            5.5794531106948853e-01 -3.6408096551895142e-01</leafValues></_>
        <_>
          <internalNodes>
            0 -1 114 -5.6848283857107162e-03</internalNodes>
          <leafValues>
            6.4337724447250366e-01 -2.0945261418819427e-01</leafValues></_></weakClassifiers></_>
    <!-- stage 17 -->
    <_>
      <maxWeakCount>14</maxWeakCount>
      <stageThreshold>-4.6276509761810303e-01</stageThreshold>
      <weakClassifiers>
        <_>
          <internalNodes>
            0 -1 141 -2.4916180409491062e-03</internalNodes>
          <leafValues>
            -5.6097561120986938e-01 1.9066147506237030e-01</leafValues></_>
        <_>
          <internalNodes>
            0 -1 128 3.5630865022540092e-03</internalNodes>
          <leafValues>
            -3.3420020341873169e-01 3.7029364705085754e-01</leafValues></_>
        <_>
          <internalNodes>
            0 -1 168 -2.6206653565168381e-02</internalNodes>
          <leafValues>
            7.9967039823532104e-01 -1.4399100840091705e-01</leafValues></_>
        <_>
          <internalNodes>
            0 -1 80 4.6223670244216919e-02</internalNodes>
          <leafValues>
            1.5848904848098755e-01 -8.5789215564727783e-01</leafValues></_>
        <_>
          <internalNodes>
            0 -1 152 1.2935393024235964e-03</internalNodes>
          <leafValues>
            -3.2526710629463196e-01 4.0382632613182068e-01</leafValues></_>
        <_>
          <internalNodes>
            0 -1 21 -1.7029097303748131e-02</internalNodes>
          <leafValues>
            5.7458329200744629e-01 -2.5171637535095215e-01</leafValues></_>
        <_>
          <internalNodes>
            0 -1 190 -3.1109903939068317e-03</internalNodes>
          <leafValues>
            -4.4576847553253174e-01 2.9893210530281067e-01</leafValues></_>
        <_>
          <internalNodes>
            0 -1 156 -4.3171667493879795e-04</internalNodes>
          <leafValues>
            3.3489578962326050e-01 -4.0749546885490417e-01</leafValues></_>
        <_>
          <internalNodes>
            0 -1 124 1.4183130860328674e-01</internalNodes>
          <leafValues>
            -1.6386187076568604e-01 8.1002509593963623e-01</leafValues></_>
        <_>
          <internalNodes>
            0 -1 116 -1.7646464984863997e-03</internalNodes>
          <leafValues>
            6.7327886819839478e-01 -1.8222546577453613e-01</leafValues></_>
        <_>
          <internalNodes>
            0 -1 98 6.7066925112158060e-04</internalNodes>
          <leafValues>
            2.7680286765098572e-01 -4.7970059514045715e-01</leafValues></_>
        <_>
          <internalNodes>
            0 -1 5 4.6425061300396919e-03</internalNodes>
          <leafValues>
            1.3752552866935730e-01 -8.7374937534332275e-01</leafValues></_>
        <_>
          <internalNodes>
            0 -1 72 -2.3493459448218346e-03</internalNodes>
          <leafValues>
            5.9187680482864380e-01 -2.6083275675773621e-01</leafValues></_>
        <_>
          <internalNodes>
            0 -1 40 6.9755716249346733e-03</internalNodes>
          <leafValues>
            -1.7543348670005798e-01 6.5926164388656616e-01</leafValues></_></weakClassifiers></_>
    <!-- stage 18 -->
    <_>
      <maxWeakCount>10</maxWeakCount>
      <stageThreshold>-7.6743322610855103e-01</stageThreshold>
      <weakClassifiers>
        <_>
          <internalNodes>
            0 -1 144 -5.5927999317646027e-02</internalNodes>
          <leafValues>
            9.0322577953338623e-01 -2.3899370431900024e-01</leafValues></_>
        <_>
          <internalNodes>
            0 -1 135 -1.9653055351227522e-03</internalNodes>
          <leafValues>
            7.2711122035980225e-01 -2.1022337675094604e-01</leafValues></_>
        <_>
          <internalNodes>
            0 -1 76 6.3961632549762726e-03</internalNodes>
          <leafValues>
            2.8537133336067200e-01 -6.9098252058029175e-01</leafValues></_>
        <_>
          <internalNodes>
            0 -1 104 -1.8872750224545598e-03</internalNodes>
          <leafValues>
            -6.2155508995056152e-01 2.7312564849853516e-01</leafValues></_>
        <_>
          <internalNodes>
            0 -1 157 7.2151040658354759e-03</internalNodes>
          <leafValues>
            2.2093509137630463e-01 -8.8920366764068604e-01</leafValues></_>
        <_>
          <internalNodes>
            0 -1 133 -5.6042717769742012e-03</internalNodes>
          <leafValues>
            9.4084376096725464e-01 -2.2630248963832855e-01</leafValues></_>
        <_>
          <internalNodes>
            0 -1 17 -3.1718277023173869e-04</internalNodes>
          <leafValues>
            -4.1037154197692871e-01 4.3755143880844116e-01</leafValues></_>
        <_>
          <internalNodes>
            0 -1 183 2.8926231898367405e-03</internalNodes>
          <leafValues>
            -3.2010230422019958e-01 7.5566184520721436e-01</leafValues></_>
        <_>
          <internalNodes>
            0 -1 153 -6.0663837939500809e-03</internalNodes>
          <leafValues>
            -9.0083670616149902e-01 2.7560648322105408e-01</leafValues></_>
        <_>
          <internalNodes>
            0 -1 39 -1.4111320488154888e-03</internalNodes>
          <leafValues>
            5.5987554788589478e-01 -3.7171661853790283e-01</leafValues></_></weakClassifiers></_>
    <!-- stage 19 -->
    <_>
      <maxWeakCount>5</maxWeakCount>
      <stageThreshold>-4.4242477416992188e-01</stageThreshold>
      <weakClassifiers>
        <_>
          <internalNodes>
            0 -1 10 6.8302201107144356e-03</internalNodes>
          <leafValues>
            8.4827584028244019e-01 -6.0851061344146729e-01</leafValues></_>
        <_>
          <internalNodes>
            0 -1 42 1.3071686029434204e-01</internalNodes>
          <leafValues>
            4.3037548661231995e-01 -8.6740785837173462e-01</leafValues></_>
        <_>
          <internalNodes>
            0 -1 30 5.6923967786133289e-03</internalNodes>
          <leafValues>
            9.1984826326370239e-01 -4.6357539296150208e-01</leafValues></_>
        <_>
          <internalNodes>
            0 -1 73 2.5514568551443517e-04</internalNodes>
          <leafValues>
            -4.8263043165206909e-01 7.9672664403915405e-01</leafValues></_>
        <_>
          <internalNodes>
            0 -1 163 -3.5700546577572823e-03</internalNodes>
          <leafValues>
            6.8191623687744141e-01 -5.7020765542984009e-01</leafValues></_></weakClassifiers></_></stages>
  <features>
    <_>
      <rects>
        <_>
          0 0 1 3 -1.</_>
        <_>
          0 1 1 1 3.</_></rects>
      <tilted>0</tilted></_>
    <_>
      <rects>
        <_>
          0 0 6 2 -1.</_>
        <_>
          0 1 6 1 2.</_></rects>
      <tilted>0</tilted></_>
    <_>
      <rects>
        <_>
          0 4 6 10 -1.</_>
        <_>
          3 4 3 10 2.</_></rects>
      <tilted>0</tilted></_>
    <_>
      <rects>
        <_>
          0 5 4 11 -1.</_>
        <_>
          2 5 2 11 2.</_></rects>
      <tilted>0</tilted></_>
    <_>
      <rects>
        <_>
          0 5 6 8 -1.</_>
        <_>
          3 5 3 8 2.</_></rects>
      <tilted>0</tilted></_>
    <_>
      <rects>
        <_>
          0 5 5 3 -1.</_>
        <_>
          0 6 5 1 3.</_></rects>
      <tilted>0</tilted></_>
    <_>
      <rects>
        <_>
          0 6 4 8 -1.</_>
        <_>
          0 6 2 4 2.</_>
        <_>
          2 10 2 4 2.</_></rects>
      <tilted>0</tilted></_>
    <_>
      <rects>
        <_>
          0 6 3 4 -1.</_>
        <_>
          0 8 3 2 2.</_></rects>
      <tilted>0</tilted></_>
    <_>
      <rects>
        <_>
          0 7 6 9 -1.</_>
        <_>
          2 7 2 9 3.</_></rects>
      <tilted>0</tilted></_>
    <_>
      <rects>
        <_>
          0 7 6 7 -1.</_>
        <_>
          3 7 3 7 2.</_></rects>
      <tilted>0</tilted></_>
    <_>
      <rects>
        <_>
          0 8 4 6 -1.</_>
        <_>
          0 10 4 2 3.</_></rects>
      <tilted>0</tilted></_>
    <_>
      <rects>
        <_>
          0 8 6 3 -1.</_>
        <_>
          0 9 6 1 3.</_></rects>
      <tilted>0</tilted></_>
    <_>
      <rects>
        <_>
          0 9 6 3 -1.</_>
        <_>
          2 9 2 3 3.</_></rects>
      <tilted>0</tilted></_>
    <_>
      <rects>
        <_>
          0 9 5 3 -1.</_>
        <_>
          0 10 5 1 3.</_></rects>
      <tilted>0</tilted></_>
    <_>
      <rects>
        <_>
          0 10 6 3 -1.</_>
        <_>
          0 11 6 1 3.</_></rects>
      <tilted>0</tilted></_>
    <_>
      <rects>
        <_>
          0 10 9 3 -1.</_>
        <_>
          0 11 9 1 3.</_></rects>
      <tilted>0</tilted></_>
    <_>
      <rects>
        <_>
          0 11 7 3 -1.</_>
        <_>
          0 12 7 1 3.</_></rects>
      <tilted>0</tilted></_>
    <_>
      <rects>
        <_>
          0 12 2 2 -1.</_>
        <_>
          0 12 1 1 2.</_>
        <_>
          1 13 1 1 2.</_></rects>
      <tilted>0</tilted></_>
    <_>
      <rects>
        <_>
          0 12 4 4 -1.</_>
        <_>
          2 12 2 4 2.</_></rects>
      <tilted>0</tilted></_>
    <_>
      <rects>
        <_>
          0 12 9 2 -1.</_>
        <_>
          3 12 3 2 3.</_></rects>
      <tilted>0</tilted></_>
    <_>
      <rects>
        <_>
          0 12 8 8 -1.</_>
        <_>
          0 12 4 4 2.</_>
        <_>
          4 16 4 4 2.</_></rects>
      <tilted>0</tilted></_>
    <_>
      <rects>
        <_>
          0 12 15 4 -1.</_>
        <_>
          5 12 5 4 3.</_></rects>
      <tilted>0</tilted></_>
    <_>
      <rects>
        <_>
          0 12 6 3 -1.</_>
        <_>
          0 13 6 1 3.</_></rects>
      <tilted>0</tilted></_>
    <_>
      <rects>
        <_>
          0 13 1 6 -1.</_>
        <_>
          0 15 1 2 3.</_></rects>
      <tilted>0</tilted></_>
    <_>
      <rects>
        <_>
          0 14 4 6 -1.</_>
        <_>
          0 16 4 2 3.</_></rects>
      <tilted>0</tilted></_>
    <_>
      <rects>
        <_>
          0 16 4 1 -1.</_>
        <_>
          2 16 2 1 2.</_></rects>
      <tilted>0</tilted></_>
    <_>
      <rects>
        <_>
          1 0 19 9 -1.</_>
        <_>
          1 3 19 3 3.</_></rects>
      <tilted>0</tilted></_>
    <_>
      <rects>
        <_>
          1 1 16 10 -1.</_>
        <_>
          1 6 16 5 2.</_></rects>
      <tilted>0</tilted></_>
    <_>
      <rects>
        <_>
          1 3 2 4 -1.</_>
        <_>
          2 3 1 4 2.</_></rects>
      <tilted>0</tilted></_>
    <_>
      <rects>
        <_>
          1 4 4 10 -1.</_>
        <_>
          3 4 2 10 2.</_></rects>
      <tilted>0</tilted></_>
    <_>
      <rects>
        <_>
          1 8 4 6 -1.</_>
        <_>
          1 10 4 2 3.</_></rects>
      <tilted>0</tilted></_>
    <_>
      <rects>
        <_>
          1 9 4 3 -1.</_>
        <_>
          3 9 2 3 2.</_></rects>
      <tilted>0</tilted></_>
    <_>
      <rects>
        <_>
          1 9 5 3 -1.</_>
        <_>
          1 10 5 1 3.</_></rects>
      <tilted>0</tilted></_>
    <_>
      <rects>
        <_>
          1 11 6 3 -1.</_>
        <_>
          1 12 6 1 3.</_></rects>
      <tilted>0</tilted></_>
    <_>
      <rects>
        <_>
          1 11 14 6 -1.</_>
        <_>
          1 13 14 2 3.</_></rects>
      <tilted>0</tilted></_>
    <_>
      <rects>
        <_>
          1 12 4 4 -1.</_>
        <_>
          3 12 2 4 2.</_></rects>
      <tilted>0</tilted></_>
    <_>
      <rects>
        <_>
          1 14 18 3 -1.</_>
        <_>
          7 14 6 3 3.</_></rects>
      <tilted>0</tilted></_>
    <_>
      <rects>
        <_>
          2 0 14 6 -1.</_>
        <_>
          2 2 14 2 3.</_></rects>
      <tilted>0</tilted></_>
    <_>
      <rects>
        <_>
          2 1 4 12 -1.</_>
        <_>
          2 1 2 6 2.</_>
        <_>
          4 7 2 6 2.</_></rects>
      <tilted>0</tilted></_>
    <_>
      <rects>
        <_>
          2 3 8 2 -1.</_>
        <_>
          2 3 4 1 2.</_>
        <_>
          6 4 4 1 2.</_></rects>
      <tilted>0</tilted></_>
    <_>
      <rects>
        <_>
          2 6 2 8 -1.</_>
        <_>
          2 6 1 4 2.</_>
        <_>
          3 10 1 4 2.</_></rects>
      <tilted>0</tilted></_>
    <_>
      <rects>
        <_>
          2 6 18 13 -1.</_>
        <_>
          8 6 6 13 3.</_></rects>
      <tilted>0</tilted></_>
    <_>
      <rects>
        <_>
          2 6 16 9 -1.</_>
        <_>
          10 6 8 9 2.</_></rects>
      <tilted>0</tilted></_>
    <_>
      <rects>
        <_>
          2 8 2 7 -1.</_>
        <_>
          3 8 1 7 2.</_></rects>
      <tilted>0</tilted></_>
    <_>
      <rects>
        <_>
          2 9 4 5 -1.</_>
        <_>
          4 9 2 5 2.</_></rects>
      <tilted>0</tilted></_>
    <_>
      <rects>
        <_>
          2 9 9 3 -1.</_>
        <_>
          5 9 3 3 3.</_></rects>
      <tilted>0</tilted></_>
    <_>
      <rects>
        <_>
          2 10 3 2 -1.</_>
        <_>
          3 10 1 2 3.</_></rects>
      <tilted>0</tilted></_>
    <_>
      <rects>
        <_>
          2 12 6 2 -1.</_>
        <_>
          4 12 2 2 3.</_></rects>
      <tilted>0</tilted></_>
    <_>
      <rects>
        <_>
          2 12 6 6 -1.</_>
        <_>
          2 12 3 3 2.</_>
        <_>
          5 15 3 3 2.</_></rects>
      <tilted>0</tilted></_>
    <_>
      <rects>
        <_>
          3 1 4 9 -1.</_>
        <_>
          3 4 4 3 3.</_></rects>
      <tilted>0</tilted></_>
    <_>
      <rects>
        <_>
          3 3 6 4 -1.</_>
        <_>
          3 3 3 2 2.</_>
        <_>
          6 5 3 2 2.</_></rects>
      <tilted>0</tilted></_>
    <_>
      <rects>
        <_>
          3 4 6 16 -1.</_>
        <_>
          5 4 2 16 3.</_></rects>
      <tilted>0</tilted></_>
    <_>
      <rects>
        <_>
          3 4 10 6 -1.</_>
        <_>
          3 4 5 3 2.</_>
        <_>
          8 7 5 3 2.</_></rects>
      <tilted>0</tilted></_>
    <_>
      <rects>
        <_>
          3 5 6 15 -1.</_>
        <_>
          5 5 2 15 3.</_></rects>
      <tilted>0</tilted></_>
    <_>
      <rects>
        <_>
          3 9 6 6 -1.</_>
        <_>
          6 9 3 6 2.</_></rects>
      <tilted>0</tilted></_>
    <_>
      <rects>
        <_>
          3 11 3 3 -1.</_>
        <_>
          3 12 3 1 3.</_></rects>
      <tilted>0</tilted></_>
    <_>
      <rects>
        <_>
          3 12 2 1 -1.</_>
        <_>
          4 12 1 1 2.</_></rects>
      <tilted>0</tilted></_>
    <_>
      <rects>
        <_>
          3 14 6 6 -1.</_>
        <_>
          5 14 2 6 3.</_></rects>
      <tilted>0</tilted></_>
    <_>
      <rects>
        <_>
          3 14 4 6 -1.</_>
        <_>
          3 16 4 2 3.</_></rects>
      <tilted>0</tilted></_>
    <_>
      <rects>
        <_>
          3 14 8 4 -1.</_>
        <_>
          3 14 4 2 2.</_>
        <_>
          7 16 4 2 2.</_></rects>
      <tilted>0</tilted></_>
    <_>
      <rects>
        <_>
          3 15 8 4 -1.</_>
        <_>
          3 15 4 2 2.</_>
        <_>
          7 17 4 2 2.</_></rects>
      <tilted>0</tilted></_>
    <_>
      <rects>
        <_>
          4 0 10 6 -1.</_>
        <_>
          4 3 10 3 2.</_></rects>
      <tilted>0</tilted></_>
    <_>
      <rects>
        <_>
          4 1 12 12 -1.</_>
        <_>
          4 7 12 6 2.</_></rects>
      <tilted>0</tilted></_>
    <_>
      <rects>
        <_>
          4 10 2 6 -1.</_>
        <_>
          4 10 1 3 2.</_>
        <_>
          5 13 1 3 2.</_></rects>
      <tilted>0</tilted></_>
    <_>
      <rects>
        <_>
          4 11 2 6 -1.</_>
        <_>
          4 11 1 3 2.</_>
        <_>
          5 14 1 3 2.</_></rects>
      <tilted>0</tilted></_>
    <_>
      <rects>
        <_>
          4 13 3 4 -1.</_>
        <_>
          4 15 3 2 2.</_></rects>
      <tilted>0</tilted></_>
    <_>
      <rects>
        <_>
          4 17 2 3 -1.</_>
        <_>
          5 17 1 3 2.</_></rects>
      <tilted>0</tilted></_>
    <_>
      <rects>
        <_>
          5 4 6 12 -1.</_>
        <_>
          8 4 3 12 2.</_></rects>
      <tilted>0</tilted></_>
    <_>
      <rects>
        <_>
          5 5 3 11 -1.</_>
        <_>
          6 5 1 11 3.</_></rects>
      <tilted>0</tilted></_>
    <_>
      <rects>
        <_>
          5 10 6 6 -1.</_>
        <_>
          5 10 3 3 2.</_>
        <_>
          8 13 3 3 2.</_></rects>
      <tilted>0</tilted></_>
    <_>
      <rects>
        <_>
          5 11 1 6 -1.</_>
        <_>
          5 13 1 2 3.</_></rects>
      <tilted>0</tilted></_>
    <_>
      <rects>
        <_>
          5 14 11 6 -1.</_>
        <_>
          5 17 11 3 2.</_></rects>
      <tilted>0</tilted></_>
    <_>
      <rects>
        <_>
          5 15 4 2 -1.</_>
        <_>
          5 15 2 1 2.</_>
        <_>
          7 16 2 1 2.</_></rects>
      <tilted>0</tilted></_>
    <_>
      <rects>
        <_>
          5 16 4 2 -1.</_>
        <_>
          7 16 2 2 2.</_></rects>
      <tilted>0</tilted></_>
    <_>
      <rects>
        <_>
          5 17 12 2 -1.</_>
        <_>
          5 18 12 1 2.</_></rects>
      <tilted>0</tilted></_>
    <_>
      <rects>
        <_>
          6 0 3 5 -1.</_>
        <_>
          7 0 1 5 3.</_></rects>
      <tilted>0</tilted></_>
    <_>
      <rects>
        <_>
          6 0 12 1 -1.</_>
        <_>
          12 0 6 1 2.</_></rects>
      <tilted>0</tilted></_>
    <_>
      <rects>
        <_>
          6 0 9 9 -1.</_>
        <_>
          6 3 9 3 3.</_></rects>
      <tilted>0</tilted></_>
    <_>
      <rects>
        <_>
          6 2 6 4 -1.</_>
        <_>
          6 4 6 2 2.</_></rects>
      <tilted>0</tilted></_>
    <_>
      <rects>
        <_>
          6 7 9 10 -1.</_>
        <_>
          9 7 3 10 3.</_></rects>
      <tilted>0</tilted></_>
    <_>
      <rects>
        <_>
          6 12 8 8 -1.</_>
        <_>
          10 12 4 8 2.</_></rects>
      <tilted>0</tilted></_>
    <_>
      <rects>
        <_>
          6 13 3 6 -1.</_>
        <_>
          7 13 1 6 3.</_></rects>
      <tilted>0</tilted></_>
    <_>
      <rects>
        <_>
          6 15 3 5 -1.</_>
        <_>
          7 15 1 5 3.</_></rects>
      <tilted>0</tilted></_>
    <_>
      <rects>
        <_>
          6 15 5 4 -1.</_>
        <_>
          6 17 5 2 2.</_></rects>
      <tilted>0</tilted></_>
    <_>
      <rects>
        <_>
          6 15 8 4 -1.</_>
        <_>
          6 17 8 2 2.</_></rects>
      <tilted>0</tilted></_>
    <_>
      <rects>
        <_>
          6 16 3 3 -1.</_>
        <_>
          7 16 1 3 3.</_></rects>
      <tilted>0</tilted></_>
    <_>
      <rects>
        <_>
          6 17 2 1 -1.</_>
        <_>
          7 17 1 1 2.</_></rects>
      <tilted>0</tilted></_>
    <_>
      <rects>
        <_>
          7 1 9 9 -1.</_>
        <_>
          7 4 9 3 3.</_></rects>
      <tilted>0</tilted></_>
    <_>
      <rects>
        <_>
          7 2 3 2 -1.</_>
        <_>
          8 2 1 2 3.</_></rects>
      <tilted>0</tilted></_>
    <_>
      <rects>
        <_>
          7 5 8 2 -1.</_>
        <_>
          7 5 4 1 2.</_>
        <_>
          11 6 4 1 2.</_></rects>
      <tilted>0</tilted></_>
    <_>
      <rects>
        <_>
          7 8 4 12 -1.</_>
        <_>
          9 8 2 12 2.</_></rects>
      <tilted>0</tilted></_>
    <_>
      <rects>
        <_>
          7 9 6 7 -1.</_>
        <_>
          9 9 2 7 3.</_></rects>
      <tilted>0</tilted></_>
    <_>
      <rects>
        <_>
          7 13 5 6 -1.</_>
        <_>
          7 15 5 2 3.</_></rects>
      <tilted>0</tilted></_>
    <_>
      <rects>
        <_>
          7 14 8 6 -1.</_>
        <_>
          7 16 8 2 3.</_></rects>
      <tilted>0</tilted></_>
    <_>
      <rects>
        <_>
          7 15 3 5 -1.</_>
        <_>
          8 15 1 5 3.</_></rects>
      <tilted>0</tilted></_>
    <_>
      <rects>
        <_>
          7 15 6 4 -1.</_>
        <_>
          7 17 6 2 2.</_></rects>
      <tilted>0</tilted></_>
    <_>
      <rects>
        <_>
          7 16 6 4 -1.</_>
        <_>
          9 16 2 4 3.</_></rects>
      <tilted>0</tilted></_>
    <_>
      <rects>
        <_>
          8 0 3 3 -1.</_>
        <_>
          9 0 1 3 3.</_></rects>
      <tilted>0</tilted></_>
    <_>
      <rects>
        <_>
          8 1 3 4 -1.</_>
        <_>
          9 1 1 4 3.</_></rects>
      <tilted>0</tilted></_>
    <_>
      <rects>
        <_>
          8 2 4 18 -1.</_>
        <_>
          8 11 4 9 2.</_></rects>
      <tilted>0</tilted></_>
    <_>
      <rects>
        <_>
          8 4 5 3 -1.</_>
        <_>
          8 5 5 1 3.</_></rects>
      <tilted>0</tilted></_>
    <_>
      <rects>
        <_>
          8 9 6 1 -1.</_>
        <_>
          10 9 2 1 3.</_></rects>
      <tilted>0</tilted></_>
    <_>
      <rects>
        <_>
          8 12 2 8 -1.</_>
        <_>
          8 12 1 4 2.</_>
        <_>
          9 16 1 4 2.</_></rects>
      <tilted>0</tilted></_>
    <_>
      <rects>
        <_>
          8 13 2 6 -1.</_>
        <_>
          8 15 2 2 3.</_></rects>
      <tilted>0</tilted></_>
    <_>
      <rects>
        <_>
          8 14 2 4 -1.</_>
        <_>
          9 14 1 4 2.</_></rects>
      <tilted>0</tilted></_>
    <_>
      <rects>
        <_>
          8 14 5 6 -1.</_>
        <_>
          8 16 5 2 3.</_></rects>
      <tilted>0</tilted></_>
    <_>
      <rects>
        <_>
          8 15 3 5 -1.</_>
        <_>
          9 15 1 5 3.</_></rects>
      <tilted>0</tilted></_>
    <_>
      <rects>
        <_>
          8 15 5 3 -1.</_>
        <_>
          8 16 5 1 3.</_></rects>
      <tilted>0</tilted></_>
    <_>
      <rects>
        <_>
          9 0 5 8 -1.</_>
        <_>
          9 4 5 4 2.</_></rects>
      <tilted>0</tilted></_>
    <_>
      <rects>
        <_>
          9 2 9 11 -1.</_>
        <_>
          12 2 3 11 3.</_></rects>
      <tilted>0</tilted></_>
    <_>
      <rects>
        <_>
          9 6 3 4 -1.</_>
        <_>
          10 6 1 4 3.</_></rects>
      <tilted>0</tilted></_>
    <_>
      <rects>
        <_>
          9 6 3 14 -1.</_>
        <_>
          10 6 1 14 3.</_></rects>
      <tilted>0</tilted></_>
    <_>
      <rects>
        <_>
          9 7 9 2 -1.</_>
        <_>
          12 7 3 2 3.</_></rects>
      <tilted>0</tilted></_>
    <_>
      <rects>
        <_>
          9 7 3 6 -1.</_>
        <_>
          9 9 3 2 3.</_></rects>
      <tilted>0</tilted></_>
    <_>
      <rects>
        <_>
          9 8 6 2 -1.</_>
        <_>
          11 8 2 2 3.</_></rects>
      <tilted>0</tilted></_>
    <_>
      <rects>
        <_>
          9 8 9 4 -1.</_>
        <_>
          12 8 3 4 3.</_></rects>
      <tilted>0</tilted></_>
    <_>
      <rects>
        <_>
          9 9 3 1 -1.</_>
        <_>
          10 9 1 1 3.</_></rects>
      <tilted>0</tilted></_>
    <_>
      <rects>
        <_>
          9 12 7 3 -1.</_>
        <_>
          9 13 7 1 3.</_></rects>
      <tilted>0</tilted></_>
    <_>
      <rects>
        <_>
          9 14 4 6 -1.</_>
        <_>
          9 16 4 2 3.</_></rects>
      <tilted>0</tilted></_>
    <_>
      <rects>
        <_>
          9 15 3 3 -1.</_>
        <_>
          10 15 1 3 3.</_></rects>
      <tilted>0</tilted></_>
    <_>
      <rects>
        <_>
          9 16 4 3 -1.</_>
        <_>
          9 17 4 1 3.</_></rects>
      <tilted>0</tilted></_>
    <_>
      <rects>
        <_>
          9 18 2 2 -1.</_>
        <_>
          9 19 2 1 2.</_></rects>
      <tilted>0</tilted></_>
    <_>
      <rects>
        <_>
          9 18 6 2 -1.</_>
        <_>
          11 18 2 2 3.</_></rects>
      <tilted>0</tilted></_>
    <_>
      <rects>
        <_>
          10 2 4 13 -1.</_>
        <_>
          12 2 2 13 2.</_></rects>
      <tilted>0</tilted></_>
    <_>
      <rects>
        <_>
          10 2 10 16 -1.</_>
        <_>
          15 2 5 16 2.</_></rects>
      <tilted>0</tilted></_>
    <_>
      <rects>
        <_>
          10 3 3 4 -1.</_>
        <_>
          10 5 3 2 2.</_></rects>
      <tilted>0</tilted></_>
    <_>
      <rects>
        <_>
          10 9 2 10 -1.</_>
        <_>
          10 14 2 5 2.</_></rects>
      <tilted>0</tilted></_>
    <_>
      <rects>
        <_>
          10 10 6 1 -1.</_>
        <_>
          12 10 2 1 3.</_></rects>
      <tilted>0</tilted></_>
    <_>
      <rects>
        <_>
          10 10 6 1 -1.</_>
        <_>
          13 10 3 1 2.</_></rects>
      <tilted>0</tilted></_>
    <_>
      <rects>
        <_>
          10 11 5 6 -1.</_>
        <_>
          10 13 5 2 3.</_></rects>
      <tilted>0</tilted></_>
    <_>
      <rects>
        <_>
          10 17 3 3 -1.</_>
        <_>
          11 17 1 3 3.</_></rects>
      <tilted>0</tilted></_>
    <_>
      <rects>
        <_>
          11 0 2 6 -1.</_>
        <_>
          11 3 2 3 2.</_></rects>
      <tilted>0</tilted></_>
    <_>
      <rects>
        <_>
          11 0 3 2 -1.</_>
        <_>
          11 1 3 1 2.</_></rects>
      <tilted>0</tilted></_>
    <_>
      <rects>
        <_>
          11 6 3 14 -1.</_>
        <_>
          12 6 1 14 3.</_></rects>
      <tilted>0</tilted></_>
    <_>
      <rects>
        <_>
          11 9 1 10 -1.</_>
        <_>
          11 14 1 5 2.</_></rects>
      <tilted>0</tilted></_>
    <_>
      <rects>
        <_>
          11 12 2 4 -1.</_>
        <_>
          11 12 1 2 2.</_>
        <_>
          12 14 1 2 2.</_></rects>
      <tilted>0</tilted></_>
    <_>
      <rects>
        <_>
          11 13 3 5 -1.</_>
        <_>
          12 13 1 5 3.</_></rects>
      <tilted>0</tilted></_>
    <_>
      <rects>
        <_>
          11 14 3 6 -1.</_>
        <_>
          12 14 1 6 3.</_></rects>
      <tilted>0</tilted></_>
    <_>
      <rects>
        <_>
          11 14 8 4 -1.</_>
        <_>
          11 14 4 2 2.</_>
        <_>
          15 16 4 2 2.</_></rects>
      <tilted>0</tilted></_>
    <_>
      <rects>
        <_>
          11 17 6 3 -1.</_>
        <_>
          13 17 2 3 3.</_></rects>
      <tilted>0</tilted></_>
    <_>
      <rects>
        <_>
          11 19 3 1 -1.</_>
        <_>
          12 19 1 1 3.</_></rects>
      <tilted>0</tilted></_>
    <_>
      <rects>
        <_>
          12 0 3 7 -1.</_>
        <_>
          13 0 1 7 3.</_></rects>
      <tilted>0</tilted></_>
    <_>
      <rects>
        <_>
          12 0 6 1 -1.</_>
        <_>
          14 0 2 1 3.</_></rects>
      <tilted>0</tilted></_>
    <_>
      <rects>
        <_>
          12 0 2 10 -1.</_>
        <_>
          12 5 2 5 2.</_></rects>
      <tilted>0</tilted></_>
    <_>
      <rects>
        <_>
          12 1 5 8 -1.</_>
        <_>
          12 5 5 4 2.</_></rects>
      <tilted>0</tilted></_>
    <_>
      <rects>
        <_>
          12 10 6 3 -1.</_>
        <_>
          14 10 2 3 3.</_></rects>
      <tilted>0</tilted></_>
    <_>
      <rects>
        <_>
          12 10 4 3 -1.</_>
        <_>
          12 11 4 1 3.</_></rects>
      <tilted>0</tilted></_>
    <_>
      <rects>
        <_>
          12 11 3 9 -1.</_>
        <_>
          13 11 1 9 3.</_></rects>
      <tilted>0</tilted></_>
    <_>
      <rects>
        <_>
          12 11 6 3 -1.</_>
        <_>
          12 12 6 1 3.</_></rects>
      <tilted>0</tilted></_>
    <_>
      <rects>
        <_>
          12 13 3 3 -1.</_>
        <_>
          13 13 1 3 3.</_></rects>
      <tilted>0</tilted></_>
    <_>
      <rects>
        <_>
          12 14 6 1 -1.</_>
        <_>
          14 14 2 1 3.</_></rects>
      <tilted>0</tilted></_>
    <_>
      <rects>
        <_>
          12 14 8 6 -1.</_>
        <_>
          12 14 4 3 2.</_>
        <_>
          16 17 4 3 2.</_></rects>
      <tilted>0</tilted></_>
    <_>
      <rects>
        <_>
          12 15 6 4 -1.</_>
        <_>
          12 15 3 2 2.</_>
        <_>
          15 17 3 2 2.</_></rects>
      <tilted>0</tilted></_>
    <_>
      <rects>
        <_>
          13 2 3 7 -1.</_>
        <_>
          14 2 1 7 3.</_></rects>
      <tilted>0</tilted></_>
    <_>
      <rects>
        <_>
          13 4 4 6 -1.</_>
        <_>
          13 4 2 3 2.</_>
        <_>
          15 7 2 3 2.</_></rects>
      <tilted>0</tilted></_>
    <_>
      <rects>
        <_>
          13 13 6 4 -1.</_>
        <_>
          13 13 3 2 2.</_>
        <_>
          16 15 3 2 2.</_></rects>
      <tilted>0</tilted></_>
    <_>
      <rects>
        <_>
          13 14 2 3 -1.</_>
        <_>
          14 14 1 3 2.</_></rects>
      <tilted>0</tilted></_>
    <_>
      <rects>
        <_>
          13 14 7 3 -1.</_>
        <_>
          13 15 7 1 3.</_></rects>
      <tilted>0</tilted></_>
    <_>
      <rects>
        <_>
          13 16 1 4 -1.</_>
        <_>
          13 18 1 2 2.</_></rects>
      <tilted>0</tilted></_>
    <_>
      <rects>
        <_>
          13 19 3 1 -1.</_>
        <_>
          14 19 1 1 3.</_></rects>
      <tilted>0</tilted></_>
    <_>
      <rects>
        <_>
          14 3 3 6 -1.</_>
        <_>
          14 6 3 3 2.</_></rects>
      <tilted>0</tilted></_>
    <_>
      <rects>
        <_>
          14 4 6 11 -1.</_>
        <_>
          16 4 2 11 3.</_></rects>
      <tilted>0</tilted></_>
    <_>
      <rects>
        <_>
          14 5 6 6 -1.</_>
        <_>
          17 5 3 6 2.</_></rects>
      <tilted>0</tilted></_>
    <_>
      <rects>
        <_>
          14 9 6 5 -1.</_>
        <_>
          16 9 2 5 3.</_></rects>
      <tilted>0</tilted></_>
    <_>
      <rects>
        <_>
          14 9 6 6 -1.</_>
        <_>
          16 9 2 6 3.</_></rects>
      <tilted>0</tilted></_>
    <_>
      <rects>
        <_>
          14 9 6 3 -1.</_>
        <_>
          14 10 6 1 3.</_></rects>
      <tilted>0</tilted></_>
    <_>
      <rects>
        <_>
          14 10 6 3 -1.</_>
        <_>
          14 11 6 1 3.</_></rects>
      <tilted>0</tilted></_>
    <_>
      <rects>
        <_>
          14 11 3 6 -1.</_>
        <_>
          14 14 3 3 2.</_></rects>
      <tilted>0</tilted></_>
    <_>
      <rects>
        <_>
          14 13 6 6 -1.</_>
        <_>
          14 13 3 3 2.</_>
        <_>
          17 16 3 3 2.</_></rects>
      <tilted>0</tilted></_>
    <_>
      <rects>
        <_>
          14 17 2 3 -1.</_>
        <_>
          14 18 2 1 3.</_></rects>
      <tilted>0</tilted></_>
    <_>
      <rects>
        <_>
          15 9 2 6 -1.</_>
        <_>
          16 9 1 6 2.</_></rects>
      <tilted>0</tilted></_>
    <_>
      <rects>
        <_>
          15 10 3 2 -1.</_>
        <_>
          16 10 1 2 3.</_></rects>
      <tilted>0</tilted></_>
    <_>
      <rects>
        <_>
          15 10 5 3 -1.</_>
        <_>
          15 11 5 1 3.</_></rects>
      <tilted>0</tilted></_>
    <_>
      <rects>
        <_>
          16 5 4 11 -1.</_>
        <_>
          18 5 2 11 2.</_></rects>
      <tilted>0</tilted></_>
    <_>
      <rects>
        <_>
          16 7 2 6 -1.</_>
        <_>
          17 7 1 6 2.</_></rects>
      <tilted>0</tilted></_>
    <_>
      <rects>
        <_>
          16 7 2 12 -1.</_>
        <_>
          16 7 1 6 2.</_>
        <_>
          17 13 1 6 2.</_></rects>
      <tilted>0</tilted></_>
    <_>
      <rects>
        <_>
          16 8 3 2 -1.</_>
        <_>
          17 8 1 2 3.</_></rects>
      <tilted>0</tilted></_>
    <_>
      <rects>
        <_>
          16 8 4 5 -1.</_>
        <_>
          18 8 2 5 2.</_></rects>
      <tilted>0</tilted></_>
    <_>
      <rects>
        <_>
          16 9 2 4 -1.</_>
        <_>
          17 9 1 4 2.</_></rects>
      <tilted>0</tilted></_>
    <_>
      <rects>
        <_>
          16 11 2 2 -1.</_>
        <_>
          17 11 1 2 2.</_></rects>
      <tilted>0</tilted></_>
    <_>
      <rects>
        <_>
          16 13 4 6 -1.</_>
        <_>
          16 13 2 3 2.</_>
        <_>
          18 16 2 3 2.</_></rects>
      <tilted>0</tilted></_>
    <_>
      <rects>
        <_>
          16 17 3 3 -1.</_>
        <_>
          16 18 3 1 3.</_></rects>
      <tilted>0</tilted></_>
    <_>
      <rects>
        <_>
          17 0 2 11 -1.</_>
        <_>
          18 0 1 11 2.</_></rects>
      <tilted>0</tilted></_>
    <_>
      <rects>
        <_>
          17 7 3 3 -1.</_>
        <_>
          18 7 1 3 3.</_></rects>
      <tilted>0</tilted></_>
    <_>
      <rects>
        <_>
          17 8 3 3 -1.</_>
        <_>
          17 9 3 1 3.</_></rects>
      <tilted>0</tilted></_>
    <_>
      <rects>
        <_>
          18 7 2 7 -1.</_>
        <_>
          19 7 1 7 2.</_></rects>
      <tilted>0</tilted></_>
    <_>
      <rects>
        <_>
          18 9 2 3 -1.</_>
        <_>
          18 10 2 1 3.</_></rects>
      <tilted>0</tilted></_>
    <_>
      <rects>
        <_>
          18 10 2 1 -1.</_>
        <_>
          19 10 1 1 2.</_></rects>
      <tilted>0</tilted></_>
    <_>
      <rects>
        <_>
          18 15 1 3 -1.</_>
        <_>
          18 16 1 1 3.</_></rects>
      <tilted>0</tilted></_>
    <_>
      <rects>
        <_>
          19 0 1 4 -1.</_>
        <_>
          19 2 1 2 2.</_></rects>
      <tilted>0</tilted></_>
    <_>
      <rects>
        <_>
          19 3 1 14 -1.</_>
        <_>
          19 10 1 7 2.</_></rects>
      <tilted>0</tilted></_></features></cascade>
</opencv_storage>
