<?xml version="1.0"?>
<opencv_storage>
<stage19>
  <maxWeakCount>5</maxWeakCount>
  <stageThreshold>-4.4242477416992188e-01</stageThreshold>
  <weakClassifiers>
    <_>
      <internalNodes>
        0 -1 4980 6.8302201107144356e-03</internalNodes>
      <leafValues>
        8.4827584028244019e-01 -6.0851061344146729e-01</leafValues></_>
    <_>
      <internalNodes>
        0 -1 18647 1.3071686029434204e-01</internalNodes>
      <leafValues>
        4.3037548661231995e-01 -8.6740785837173462e-01</leafValues></_>
    <_>
      <internalNodes>
        0 -1 12299 5.6923967786133289e-03</internalNodes>
      <leafValues>
        9.1984826326370239e-01 -4.6357539296150208e-01</leafValues></_>
    <_>
      <internalNodes>
        0 -1 39635 2.5514568551443517e-04</internalNodes>
      <leafValues>
        -4.8263043165206909e-01 7.9672664403915405e-01</leafValues></_>
    <_>
      <internalNodes>
        0 -1 72873 -3.5700546577572823e-03</internalNodes>
      <leafValues>
        6.8191623687744141e-01 -5.7020765542984009e-01</leafValues></_></weakClassifiers></stage19>
</opencv_storage>
