<?xml version="1.0"?>
<opencv_storage>
<stage10>
  <maxWeakCount>11</maxWeakCount>
  <stageThreshold>-9.3940794467926025e-01</stageThreshold>
  <weakClassifiers>
    <_>
      <internalNodes>
        0 -1 48563 -1.7037503421306610e-02</internalNodes>
      <leafValues>
        3.6912751197814941e-01 -3.2467532157897949e-01</leafValues></_>
    <_>
      <internalNodes>
        0 -1 76500 -1.3066539540886879e-02</internalNodes>
      <leafValues>
        6.2782531976699829e-01 -1.8643473088741302e-01</leafValues></_>
    <_>
      <internalNodes>
        0 -1 6982 -2.3126572370529175e-02</internalNodes>
      <leafValues>
        -9.5917320251464844e-01 1.0455365478992462e-01</leafValues></_>
    <_>
      <internalNodes>
        0 -1 54072 -9.4980616122484207e-03</internalNodes>
      <leafValues>
        5.3025573492050171e-01 -2.4148730933666229e-01</leafValues></_>
    <_>
      <internalNodes>
        0 -1 14217 7.8187212347984314e-02</internalNodes>
      <leafValues>
        -1.9318139553070068e-01 6.6000586748123169e-01</leafValues></_>
    <_>
      <internalNodes>
        0 -1 40278 -4.4010661542415619e-02</internalNodes>
      <leafValues>
        4.6685606241226196e-01 -2.9630219936370850e-01</leafValues></_>
    <_>
      <internalNodes>
        0 -1 8913 -1.1251033842563629e-01</internalNodes>
      <leafValues>
        5.3541845083236694e-01 -2.4801786243915558e-01</leafValues></_>
    <_>
      <internalNodes>
        0 -1 331 -3.5253143869340420e-03</internalNodes>
      <leafValues>
        -7.6219147443771362e-01 1.7961415648460388e-01</leafValues></_>
    <_>
      <internalNodes>
        0 -1 70939 1.1173724196851254e-02</internalNodes>
      <leafValues>
        -2.4510771036148071e-01 5.2159506082534790e-01</leafValues></_>
    <_>
      <internalNodes>
        0 -1 62325 -3.6861936096101999e-03</internalNodes>
      <leafValues>
        -9.8167049884796143e-01 1.0961616039276123e-01</leafValues></_>
    <_>
      <internalNodes>
        0 -1 76050 -1.0187858715653419e-02</internalNodes>
      <leafValues>
        7.5749766826629639e-01 -2.1135914325714111e-01</leafValues></_></weakClassifiers></stage10>
</opencv_storage>
