<?xml version="1.0"?>
<opencv_storage>
<stage8>
  <maxWeakCount>9</maxWeakCount>
  <stageThreshold>-5.9635853767395020e-01</stageThreshold>
  <weakClassifiers>
    <_>
      <internalNodes>
        0 -1 27709 -1.9436998292803764e-02</internalNodes>
      <leafValues>
        8.3050847053527832e-01 -2.1495327353477478e-01</leafValues></_>
    <_>
      <internalNodes>
        0 -1 72329 3.5688266158103943e-02</internalNodes>
      <leafValues>
        -1.7609977722167969e-01 6.9080537557601929e-01</leafValues></_>
    <_>
      <internalNodes>
        0 -1 5858 -4.8417020589113235e-03</internalNodes>
      <leafValues>
        -9.1772902011871338e-01 1.6441951692104340e-01</leafValues></_>
    <_>
      <internalNodes>
        0 -1 5351 -1.4441525563597679e-02</internalNodes>
      <leafValues>
        4.8059290647506714e-01 -2.9618790745735168e-01</leafValues></_>
    <_>
      <internalNodes>
        0 -1 78130 1.7136076930910349e-03</internalNodes>
      <leafValues>
        1.9324326515197754e-01 -7.3924040794372559e-01</leafValues></_>
    <_>
      <internalNodes>
        0 -1 53243 -6.0461922548711300e-03</internalNodes>
      <leafValues>
        5.2400380373001099e-01 -3.1117531657218933e-01</leafValues></_>
    <_>
      <internalNodes>
        0 -1 51061 -3.4475095570087433e-02</internalNodes>
      <leafValues>
        -7.5801384449005127e-01 2.1355736255645752e-01</leafValues></_>
    <_>
      <internalNodes>
        0 -1 19988 3.8016058970242739e-03</internalNodes>
      <leafValues>
        -1.8754364550113678e-01 7.9336643218994141e-01</leafValues></_>
    <_>
      <internalNodes>
        0 -1 54342 -2.8063105419278145e-03</internalNodes>
      <leafValues>
        -7.1322339773178101e-01 2.1317166090011597e-01</leafValues></_></weakClassifiers></stage8>
</opencv_storage>
