<?xml version="1.0"?>
<opencv_storage>
<cascade>
  <stageType>BOOST</stageType>
  <featureType>HAAR</featureType>
  <height>20</height>
  <width>20</width>
  <stageParams>
    <boostType>GAB</boostType>
    <minHitRate>9.9500000476837158e-01</minHitRate>
    <maxFalseAlarm>4.0000000596046448e-01</maxFalseAlarm>
    <weightTrimRate>9.4999999999999996e-01</weightTrimRate>
    <maxDepth>1</maxDepth>
    <maxWeakCount>100</maxWeakCount></stageParams>
  <featureParams>
    <maxCatCount>0</maxCatCount>
    <featSize>1</featSize>
    <mode>BASIC</mode></featureParams>
  <stageNum>20</stageNum>
  <stages>
    <!-- stage 0 -->
    <_>
      <maxWeakCount>8</maxWeakCount>
      <stageThreshold>-9.0716159343719482e-01</stageThreshold>
      <weakClassifiers>
        <_>
          <internalNodes>
            0 -1 51 -1.0637357831001282e-01</internalNodes>
          <leafValues>
            8.8148146867752075e-01 -5.6734693050384521e-01</leafValues></_>
        <_>
          <internalNodes>
            0 -1 96 -1.3829790055751801e-02</internalNodes>
          <leafValues>
            6.1247730255126953e-01 -4.5158198475837708e-01</leafValues></_>
        <_>
          <internalNodes>
            0 -1 199 -1.2912909733131528e-03</internalNodes>
          <leafValues>
            5.2594375610351562e-01 -3.8373628258705139e-01</leafValues></_>
        <_>
          <internalNodes>
            0 -1 193 3.9898669347167015e-03</internalNodes>
          <leafValues>
            -3.9492425322532654e-01 5.2218425273895264e-01</leafValues></_>
        <_>
          <internalNodes>
            0 -1 114 -1.0065069794654846e-01</internalNodes>
          <leafValues>
            7.4439030885696411e-01 -3.0130845308303833e-01</leafValues></_>
        <_>
          <internalNodes>
            0 -1 143 2.9199952259659767e-03</internalNodes>
          <leafValues>
            -3.0248549580574036e-01 5.7322531938552856e-01</leafValues></_>
        <_>
          <internalNodes>
            0 -1 8 1.1099087074398994e-02</internalNodes>
          <leafValues>
            2.6031506061553955e-01 -8.9599376916885376e-01</leafValues></_>
        <_>
          <internalNodes>
            0 -1 53 -9.2318607494235039e-03</internalNodes>
          <leafValues>
            3.5320559144020081e-01 -5.9288173913955688e-01</leafValues></_></weakClassifiers></_>
    <!-- stage 1 -->
    <_>
      <maxWeakCount>8</maxWeakCount>
      <stageThreshold>-7.0593363046646118e-01</stageThreshold>
      <weakClassifiers>
        <_>
          <internalNodes>
            0 -1 64 -1.0586402565240860e-01</internalNodes>
          <leafValues>
            7.3611110448837280e-01 -5.3389829397201538e-01</leafValues></_>
        <_>
          <internalNodes>
            0 -1 75 -2.8119249269366264e-02</internalNodes>
          <leafValues>
            6.0304731130599976e-01 -3.3132559061050415e-01</leafValues></_>
        <_>
          <internalNodes>
            0 -1 144 2.3745466023683548e-03</internalNodes>
          <leafValues>
            -4.6682789921760559e-01 3.6118313670158386e-01</leafValues></_>
        <_>
          <internalNodes>
            0 -1 164 5.2602514624595642e-03</internalNodes>
          <leafValues>
            2.0456610620021820e-01 -7.7917796373367310e-01</leafValues></_>
        <_>
          <internalNodes>
            0 -1 189 1.0593978222459555e-03</internalNodes>
          <leafValues>
            -3.7110111117362976e-01 4.4980892539024353e-01</leafValues></_>
        <_>
          <internalNodes>
            0 -1 142 1.6875142464414239e-03</internalNodes>
          <leafValues>
            -3.0035614967346191e-01 5.4667258262634277e-01</leafValues></_>
        <_>
          <internalNodes>
            0 -1 77 -4.3973708525300026e-03</internalNodes>
          <leafValues>
            -8.3929938077926636e-01 1.7598225176334381e-01</leafValues></_>
        <_>
          <internalNodes>
            0 -1 33 -1.3323940336704254e-02</internalNodes>
          <leafValues>
            -7.5201773643493652e-01 1.6992478072643280e-01</leafValues></_></weakClassifiers></_>
    <!-- stage 2 -->
    <_>
      <maxWeakCount>9</maxWeakCount>
      <stageThreshold>-6.3848310708999634e-01</stageThreshold>
      <weakClassifiers>
        <_>
          <internalNodes>
            0 -1 39 -2.3682123422622681e-01</internalNodes>
          <leafValues>
            7.0731705427169800e-01 -4.1634240746498108e-01</leafValues></_>
        <_>
          <internalNodes>
            0 -1 61 -1.6433164477348328e-02</internalNodes>
          <leafValues>
            6.0503357648849487e-01 -3.6541518568992615e-01</leafValues></_>
        <_>
          <internalNodes>
            0 -1 35 1.4767361804842949e-02</internalNodes>
          <leafValues>
            -2.9925116896629333e-01 5.8101958036422729e-01</leafValues></_>
        <_>
          <internalNodes>
            0 -1 202 -1.8054469255730510e-03</internalNodes>
          <leafValues>
            -7.3732089996337891e-01 2.5093322992324829e-01</leafValues></_>
        <_>
          <internalNodes>
            0 -1 65 -3.2115653157234192e-03</internalNodes>
          <leafValues>
            5.0438439846038818e-01 -3.5832071304321289e-01</leafValues></_>
        <_>
          <internalNodes>
            0 -1 185 -6.6243004985153675e-03</internalNodes>
          <leafValues>
            -9.1113585233688354e-01 2.2506268322467804e-01</leafValues></_>
        <_>
          <internalNodes>
            0 -1 109 4.3246424756944180e-03</internalNodes>
          <leafValues>
            -3.2711786031723022e-01 5.5605137348175049e-01</leafValues></_>
        <_>
          <internalNodes>
            0 -1 129 -9.5348909962922335e-04</internalNodes>
          <leafValues>
            -9.5858877897262573e-01 2.2151152789592743e-01</leafValues></_>
        <_>
          <internalNodes>
            0 -1 131 -7.7221794053912163e-03</internalNodes>
          <leafValues>
            6.2934136390686035e-01 -3.2426500320434570e-01</leafValues></_></weakClassifiers></_>
    <!-- stage 3 -->
    <_>
      <maxWeakCount>11</maxWeakCount>
      <stageThreshold>-1.1023075580596924e+00</stageThreshold>
      <weakClassifiers>
        <_>
          <internalNodes>
            0 -1 86 -8.2423195242881775e-02</internalNodes>
          <leafValues>
            6.3934427499771118e-01 -3.7984496355056763e-01</leafValues></_>
        <_>
          <internalNodes>
            0 -1 49 -9.9342949688434601e-03</internalNodes>
          <leafValues>
            6.4587843418121338e-01 -2.6686105132102966e-01</leafValues></_>
        <_>
          <internalNodes>
            0 -1 198 -5.3991256281733513e-03</internalNodes>
          <leafValues>
            4.4844928383827209e-01 -3.2979726791381836e-01</leafValues></_>
        <_>
          <internalNodes>
            0 -1 128 -4.6507515944540501e-03</internalNodes>
          <leafValues>
            -7.1516060829162598e-01 1.7275220155715942e-01</leafValues></_>
        <_>
          <internalNodes>
            0 -1 16 5.8397413231432438e-03</internalNodes>
          <leafValues>
            1.2462896853685379e-01 -9.7710740566253662e-01</leafValues></_>
        <_>
          <internalNodes>
            0 -1 209 -4.8199202865362167e-03</internalNodes>
          <leafValues>
            -8.6210429668426514e-01 1.3653114438056946e-01</leafValues></_>
        <_>
          <internalNodes>
            0 -1 57 3.5368329845368862e-03</internalNodes>
          <leafValues>
            -3.4519863128662109e-01 4.5000246167182922e-01</leafValues></_>
        <_>
          <internalNodes>
            0 -1 1 -6.6159531474113464e-02</internalNodes>
          <leafValues>
            7.8056281805038452e-01 -1.6767564415931702e-01</leafValues></_>
        <_>
          <internalNodes>
            0 -1 69 4.2980566620826721e-02</internalNodes>
          <leafValues>
            1.7712542414665222e-01 -9.4371634721755981e-01</leafValues></_>
        <_>
          <internalNodes>
            0 -1 173 2.0599880372174084e-04</internalNodes>
          <leafValues>
            -3.8740608096122742e-01 3.7550282478332520e-01</leafValues></_>
        <_>
          <internalNodes>
            0 -1 45 3.4089419059455395e-03</internalNodes>
          <leafValues>
            1.6343829035758972e-01 -7.7790260314941406e-01</leafValues></_></weakClassifiers></_>
    <!-- stage 4 -->
    <_>
      <maxWeakCount>9</maxWeakCount>
      <stageThreshold>-7.1346974372863770e-01</stageThreshold>
      <weakClassifiers>
        <_>
          <internalNodes>
            0 -1 141 1.6628699377179146e-02</internalNodes>
          <leafValues>
            -4.3103447556495667e-01 5.4054051637649536e-01</leafValues></_>
        <_>
          <internalNodes>
            0 -1 98 -5.5386379361152649e-02</internalNodes>
          <leafValues>
            6.4796841144561768e-01 -2.2211180627346039e-01</leafValues></_>
        <_>
          <internalNodes>
            0 -1 190 1.9769554492086172e-03</internalNodes>
          <leafValues>
            1.8224704265594482e-01 -9.0004640817642212e-01</leafValues></_>
        <_>
          <internalNodes>
            0 -1 187 5.1597296260297298e-03</internalNodes>
          <leafValues>
            1.4542338252067566e-01 -8.8455587625503540e-01</leafValues></_>
        <_>
          <internalNodes>
            0 -1 48 -6.5701449057087302e-04</internalNodes>
          <leafValues>
            3.5382181406021118e-01 -4.2052885890007019e-01</leafValues></_>
        <_>
          <internalNodes>
            0 -1 52 2.2585312835872173e-03</internalNodes>
          <leafValues>
            2.1785889565944672e-01 -7.1942150592803955e-01</leafValues></_>
        <_>
          <internalNodes>
            0 -1 116 -6.4341141842305660e-03</internalNodes>
          <leafValues>
            -6.7729151248931885e-01 1.7003422975540161e-01</leafValues></_>
        <_>
          <internalNodes>
            0 -1 154 -1.2252686545252800e-02</internalNodes>
          <leafValues>
            5.8018344640731812e-01 -2.7537420392036438e-01</leafValues></_>
        <_>
          <internalNodes>
            0 -1 15 -5.7936934754252434e-03</internalNodes>
          <leafValues>
            -8.8774752616882324e-01 1.5289013087749481e-01</leafValues></_></weakClassifiers></_>
    <!-- stage 5 -->
    <_>
      <maxWeakCount>8</maxWeakCount>
      <stageThreshold>-1.0827487707138062e+00</stageThreshold>
      <weakClassifiers>
        <_>
          <internalNodes>
            0 -1 67 -1.3008905574679375e-02</internalNodes>
          <leafValues>
            5.0000000000000000e-01 -5.7142859697341919e-01</leafValues></_>
        <_>
          <internalNodes>
            0 -1 133 -6.1475215479731560e-03</internalNodes>
          <leafValues>
            5.0854736566543579e-01 -3.2562127709388733e-01</leafValues></_>
        <_>
          <internalNodes>
            0 -1 12 -2.9388619586825371e-03</internalNodes>
          <leafValues>
            4.0952870249748230e-01 -4.2983597517013550e-01</leafValues></_>
        <_>
          <internalNodes>
            0 -1 127 5.8589926920831203e-03</internalNodes>
          <leafValues>
            -3.6462190747261047e-01 4.2302277684211731e-01</leafValues></_>
        <_>
          <internalNodes>
            0 -1 217 -7.1810889057815075e-03</internalNodes>
          <leafValues>
            -7.5716841220855713e-01 1.9730135798454285e-01</leafValues></_>
        <_>
          <internalNodes>
            0 -1 216 -1.7013434320688248e-02</internalNodes>
          <leafValues>
            -8.7744206190109253e-01 1.6943654417991638e-01</leafValues></_>
        <_>
          <internalNodes>
            0 -1 30 3.0930597335100174e-02</internalNodes>
          <leafValues>
            -2.5254610180854797e-01 6.4213269948959351e-01</leafValues></_>
        <_>
          <internalNodes>
            0 -1 10 -9.8775373771786690e-04</internalNodes>
          <leafValues>
            4.1141194105148315e-01 -3.6415144801139832e-01</leafValues></_></weakClassifiers></_>
    <!-- stage 6 -->
    <_>
      <maxWeakCount>11</maxWeakCount>
      <stageThreshold>-7.8144311904907227e-01</stageThreshold>
      <weakClassifiers>
        <_>
          <internalNodes>
            0 -1 139 -3.5775966942310333e-02</internalNodes>
          <leafValues>
            4.1040462255477905e-01 -4.3961352109909058e-01</leafValues></_>
        <_>
          <internalNodes>
            0 -1 7 4.9892589449882507e-03</internalNodes>
          <leafValues>
            1.6699884831905365e-01 -8.9678502082824707e-01</leafValues></_>
        <_>
          <internalNodes>
            0 -1 50 6.7445207387208939e-03</internalNodes>
          <leafValues>
            -3.7081187963485718e-01 4.4618409872055054e-01</leafValues></_>
        <_>
          <internalNodes>
            0 -1 111 3.2964290585368872e-03</internalNodes>
          <leafValues>
            -3.3851629495620728e-01 4.7776368260383606e-01</leafValues></_>
        <_>
          <internalNodes>
            0 -1 149 -9.8588801920413971e-03</internalNodes>
          <leafValues>
            5.4971587657928467e-01 -3.0220371484756470e-01</leafValues></_>
        <_>
          <internalNodes>
            0 -1 207 -9.5509774982929230e-03</internalNodes>
          <leafValues>
            -8.7088900804519653e-01 2.1245291829109192e-01</leafValues></_>
        <_>
          <internalNodes>
            0 -1 28 -6.1831865459680557e-03</internalNodes>
          <leafValues>
            -8.2499039173126221e-01 1.2348084151744843e-01</leafValues></_>
        <_>
          <internalNodes>
            0 -1 180 -1.1656332761049271e-02</internalNodes>
          <leafValues>
            4.6880495548248291e-01 -3.1566420197486877e-01</leafValues></_>
        <_>
          <internalNodes>
            0 -1 24 -1.3880012556910515e-02</internalNodes>
          <leafValues>
            -1. 1.2651184201240540e-01</leafValues></_>
        <_>
          <internalNodes>
            0 -1 179 -2.7618231251835823e-03</internalNodes>
          <leafValues>
            -9.1286641359329224e-01 1.1465008556842804e-01</leafValues></_>
        <_>
          <internalNodes>
            0 -1 177 7.5820120400749147e-05</internalNodes>
          <leafValues>
            -5.4070532321929932e-01 2.4127197265625000e-01</leafValues></_></weakClassifiers></_>
    <!-- stage 7 -->
    <_>
      <maxWeakCount>11</maxWeakCount>
      <stageThreshold>-8.1387656927108765e-01</stageThreshold>
      <weakClassifiers>
        <_>
          <internalNodes>
            0 -1 78 -8.1610970199108124e-02</internalNodes>
          <leafValues>
            5.8878505229949951e-01 -3.0402931571006775e-01</leafValues></_>
        <_>
          <internalNodes>
            0 -1 95 -1.0574550833553076e-03</internalNodes>
          <leafValues>
            -7.1463966369628906e-01 2.0130707323551178e-01</leafValues></_>
        <_>
          <internalNodes>
            0 -1 132 -9.1732665896415710e-03</internalNodes>
          <leafValues>
            3.7215685844421387e-01 -3.1931972503662109e-01</leafValues></_>
        <_>
          <internalNodes>
            0 -1 205 -3.7152715958654881e-03</internalNodes>
          <leafValues>
            -7.1464794874191284e-01 2.0686043798923492e-01</leafValues></_>
        <_>
          <internalNodes>
            0 -1 32 -3.1607646495103836e-02</internalNodes>
          <leafValues>
            6.4738959074020386e-01 -2.7686807513237000e-01</leafValues></_>
        <_>
          <internalNodes>
            0 -1 178 2.1351864561438560e-03</internalNodes>
          <leafValues>
            2.3989745974540710e-01 -8.0774044990539551e-01</leafValues></_>
        <_>
          <internalNodes>
            0 -1 170 -1.8038041889667511e-02</internalNodes>
          <leafValues>
            6.8215191364288330e-01 -2.2970794141292572e-01</leafValues></_>
        <_>
          <internalNodes>
            0 -1 84 9.4380078371614218e-04</internalNodes>
          <leafValues>
            -2.4514590203762054e-01 4.8162758350372314e-01</leafValues></_>
        <_>
          <internalNodes>
            0 -1 11 -8.2974638789892197e-03</internalNodes>
          <leafValues>
            -7.8696209192276001e-01 1.8574412167072296e-01</leafValues></_>
        <_>
          <internalNodes>
            0 -1 176 -2.6259983424097300e-03</internalNodes>
          <leafValues>
            -7.7152681350708008e-01 8.0718196928501129e-02</leafValues></_>
        <_>
          <internalNodes>
            0 -1 106 2.0165545865893364e-03</internalNodes>
          <leafValues>
            -2.7344104647636414e-01 4.2473712563514709e-01</leafValues></_></weakClassifiers></_>
    <!-- stage 8 -->
    <_>
      <maxWeakCount>12</maxWeakCount>
      <stageThreshold>-9.1373485326766968e-01</stageThreshold>
      <weakClassifiers>
        <_>
          <internalNodes>
            0 -1 160 4.7176880761981010e-03</internalNodes>
          <leafValues>
            -4.5454546809196472e-01 3.3678755164146423e-01</leafValues></_>
        <_>
          <internalNodes>
            0 -1 124 1.7241097521036863e-03</internalNodes>
          <leafValues>
            -3.9770454168319702e-01 3.3799129724502563e-01</leafValues></_>
        <_>
          <internalNodes>
            0 -1 192 9.8600925412029028e-04</internalNodes>
          <leafValues>
            -3.8691550493240356e-01 3.0872079730033875e-01</leafValues></_>
        <_>
          <internalNodes>
            0 -1 89 4.3684586882591248e-02</internalNodes>
          <leafValues>
            1.9847607612609863e-01 -8.0760973691940308e-01</leafValues></_>
        <_>
          <internalNodes>
            0 -1 212 -2.3574758321046829e-02</internalNodes>
          <leafValues>
            -7.5891828536987305e-01 7.8011848032474518e-02</leafValues></_>
        <_>
          <internalNodes>
            0 -1 14 2.3096609860658646e-02</internalNodes>
          <leafValues>
            1.1594904959201813e-01 -7.3286092281341553e-01</leafValues></_>
        <_>
          <internalNodes>
            0 -1 182 -8.5792411118745804e-03</internalNodes>
          <leafValues>
            4.1724374890327454e-01 -2.6039907336235046e-01</leafValues></_>
        <_>
          <internalNodes>
            0 -1 146 -3.9290438871830702e-04</internalNodes>
          <leafValues>
            4.8833772540092468e-01 -2.3011878132820129e-01</leafValues></_>
        <_>
          <internalNodes>
            0 -1 194 -2.7579134330153465e-03</internalNodes>
          <leafValues>
            -6.3007140159606934e-01 1.6223658621311188e-01</leafValues></_>
        <_>
          <internalNodes>
            0 -1 163 3.0721845105290413e-03</internalNodes>
          <leafValues>
            -2.4162597954273224e-01 4.9885943531990051e-01</leafValues></_>
        <_>
          <internalNodes>
            0 -1 191 -1.9098862539976835e-03</internalNodes>
          <leafValues>
            4.0421530604362488e-01 -3.1914937496185303e-01</leafValues></_>
        <_>
          <internalNodes>
            0 -1 201 8.0041000619530678e-03</internalNodes>
          <leafValues>
            1.3817706704139709e-01 -6.9499844312667847e-01</leafValues></_></weakClassifiers></_>
    <!-- stage 9 -->
    <_>
      <maxWeakCount>15</maxWeakCount>
      <stageThreshold>-1.1130123138427734e+00</stageThreshold>
      <weakClassifiers>
        <_>
          <internalNodes>
            0 -1 133 -1.0078214108943939e-02</internalNodes>
          <leafValues>
            4.9180328845977783e-01 -3.1007751822471619e-01</leafValues></_>
        <_>
          <internalNodes>
            0 -1 6 4.7667277976870537e-03</internalNodes>
          <leafValues>
            1.6500037908554077e-01 -7.6563555002212524e-01</leafValues></_>
        <_>
          <internalNodes>
            0 -1 40 -2.8206808492541313e-03</internalNodes>
          <leafValues>
            -6.7857646942138672e-01 2.0599991083145142e-01</leafValues></_>
        <_>
          <internalNodes>
            0 -1 153 5.4181730374693871e-03</internalNodes>
          <leafValues>
            -4.1069597005844116e-01 2.8228458762168884e-01</leafValues></_>
        <_>
          <internalNodes>
            0 -1 175 8.3562284708023071e-03</internalNodes>
          <leafValues>
            1.5985991060733795e-01 -9.2983388900756836e-01</leafValues></_>
        <_>
          <internalNodes>
            0 -1 135 1.1936315149068832e-01</internalNodes>
          <leafValues>
            -2.0085263252258301e-01 8.2855772972106934e-01</leafValues></_>
        <_>
          <internalNodes>
            0 -1 172 -1.1298859491944313e-02</internalNodes>
          <leafValues>
            6.4813232421875000e-01 -1.7977166175842285e-01</leafValues></_>
        <_>
          <internalNodes>
            0 -1 140 1.9611432217061520e-03</internalNodes>
          <leafValues>
            -2.4702484905719757e-01 4.6565240621566772e-01</leafValues></_>
        <_>
          <internalNodes>
            0 -1 197 3.2918532378971577e-03</internalNodes>
          <leafValues>
            2.3292046785354614e-01 -7.5125116109848022e-01</leafValues></_>
        <_>
          <internalNodes>
            0 -1 97 -3.5435713361948729e-03</internalNodes>
          <leafValues>
            5.2042740583419800e-01 -2.5565803050994873e-01</leafValues></_>
        <_>
          <internalNodes>
            0 -1 171 -1.3121383264660835e-02</internalNodes>
          <leafValues>
            8.1305950880050659e-01 -1.2341910600662231e-01</leafValues></_>
        <_>
          <internalNodes>
            0 -1 2 1.5675701200962067e-02</internalNodes>
          <leafValues>
            2.1226610243320465e-01 -6.3044184446334839e-01</leafValues></_>
        <_>
          <internalNodes>
            0 -1 200 7.8589899931102991e-04</internalNodes>
          <leafValues>
            -3.0398917198181152e-01 4.2634096741676331e-01</leafValues></_>
        <_>
          <internalNodes>
            0 -1 37 -5.0605665892362595e-03</internalNodes>
          <leafValues>
            5.6259721517562866e-01 -2.1812717616558075e-01</leafValues></_>
        <_>
          <internalNodes>
            0 -1 166 -5.4371268488466740e-03</internalNodes>
          <leafValues>
            -8.0072551965713501e-01 1.6055700182914734e-01</leafValues></_></weakClassifiers></_>
    <!-- stage 10 -->
    <_>
      <maxWeakCount>12</maxWeakCount>
      <stageThreshold>-7.6733636856079102e-01</stageThreshold>
      <weakClassifiers>
        <_>
          <internalNodes>
            0 -1 13 -3.6581031978130341e-02</internalNodes>
          <leafValues>
            4.2222222685813904e-01 -3.1428572535514832e-01</leafValues></_>
        <_>
          <internalNodes>
            0 -1 85 4.7456459142267704e-03</internalNodes>
          <leafValues>
            -3.6470890045166016e-01 3.5544234514236450e-01</leafValues></_>
        <_>
          <internalNodes>
            0 -1 151 3.6060854792594910e-02</internalNodes>
          <leafValues>
            -1.6798700392246246e-01 6.6406297683715820e-01</leafValues></_>
        <_>
          <internalNodes>
            0 -1 112 4.0353965014219284e-03</internalNodes>
          <leafValues>
            1.5017142891883850e-01 -7.9567945003509521e-01</leafValues></_>
        <_>
          <internalNodes>
            0 -1 161 7.4292009230703115e-04</internalNodes>
          <leafValues>
            -3.6287689208984375e-01 3.2985132932662964e-01</leafValues></_>
        <_>
          <internalNodes>
            0 -1 196 -2.8319894336163998e-03</internalNodes>
          <leafValues>
            -7.8527748584747314e-01 1.1260082572698593e-01</leafValues></_>
        <_>
          <internalNodes>
            0 -1 169 -1.7086325213313103e-02</internalNodes>
          <leafValues>
            7.1487331390380859e-01 -2.3186238110065460e-01</leafValues></_>
        <_>
          <internalNodes>
            0 -1 73 -2.9310408979654312e-02</internalNodes>
          <leafValues>
            -7.8365516662597656e-01 2.1681517362594604e-01</leafValues></_>
        <_>
          <internalNodes>
            0 -1 155 -2.2137682884931564e-02</internalNodes>
          <leafValues>
            5.7877928018569946e-01 -2.5155624747276306e-01</leafValues></_>
        <_>
          <internalNodes>
            0 -1 87 -3.2899961806833744e-03</internalNodes>
          <leafValues>
            -8.1417673826217651e-01 1.5634807944297791e-01</leafValues></_>
        <_>
          <internalNodes>
            0 -1 150 6.2055536545813084e-03</internalNodes>
          <leafValues>
            1.0987711697816849e-01 -8.8097715377807617e-01</leafValues></_>
        <_>
          <internalNodes>
            0 -1 99 -1.1512720957398415e-02</internalNodes>
          <leafValues>
            5.9403520822525024e-01 -2.4863764643669128e-01</leafValues></_></weakClassifiers></_>
    <!-- stage 11 -->
    <_>
      <maxWeakCount>10</maxWeakCount>
      <stageThreshold>-5.3744208812713623e-01</stageThreshold>
      <weakClassifiers>
        <_>
          <internalNodes>
            0 -1 22 2.2504575550556183e-02</internalNodes>
          <leafValues>
            -3.0952382087707520e-01 4.5312500000000000e-01</leafValues></_>
        <_>
          <internalNodes>
            0 -1 58 -4.1016852483153343e-03</internalNodes>
          <leafValues>
            -6.8759727478027344e-01 1.8326871097087860e-01</leafValues></_>
        <_>
          <internalNodes>
            0 -1 62 -1.9624412059783936e-02</internalNodes>
          <leafValues>
            7.9429435729980469e-01 -1.2192162126302719e-01</leafValues></_>
        <_>
          <internalNodes>
            0 -1 70 -2.3672431707382202e-03</internalNodes>
          <leafValues>
            -8.5284507274627686e-01 8.8962584733963013e-02</leafValues></_>
        <_>
          <internalNodes>
            0 -1 102 4.3499851599335670e-03</internalNodes>
          <leafValues>
            -1.6795848309993744e-01 7.3441880941390991e-01</leafValues></_>
        <_>
          <internalNodes>
            0 -1 137 2.3333726450800896e-02</internalNodes>
          <leafValues>
            -2.7575883269309998e-01 4.0119993686676025e-01</leafValues></_>
        <_>
          <internalNodes>
            0 -1 56 1.9025407964363694e-03</internalNodes>
          <leafValues>
            1.7864745855331421e-01 -8.8336622714996338e-01</leafValues></_>
        <_>
          <internalNodes>
            0 -1 107 -6.7884735763072968e-03</internalNodes>
          <leafValues>
            3.2819935679435730e-01 -3.6892664432525635e-01</leafValues></_>
        <_>
          <internalNodes>
            0 -1 186 -6.5720197744667530e-03</internalNodes>
          <leafValues>
            3.8853567838668823e-01 -3.1111371517181396e-01</leafValues></_>
        <_>
          <internalNodes>
            0 -1 25 5.8578685857355595e-03</internalNodes>
          <leafValues>
            1.6912113130092621e-01 -7.3256039619445801e-01</leafValues></_></weakClassifiers></_>
    <!-- stage 12 -->
    <_>
      <maxWeakCount>12</maxWeakCount>
      <stageThreshold>-7.5570458173751831e-01</stageThreshold>
      <weakClassifiers>
        <_>
          <internalNodes>
            0 -1 38 -2.8439146280288696e-01</internalNodes>
          <leafValues>
            6.5432101488113403e-01 -2.4414715170860291e-01</leafValues></_>
        <_>
          <internalNodes>
            0 -1 181 -1.1239763349294662e-02</internalNodes>
          <leafValues>
            6.8641901016235352e-01 -1.2534293532371521e-01</leafValues></_>
        <_>
          <internalNodes>
            0 -1 159 4.7457693144679070e-03</internalNodes>
          <leafValues>
            -3.2936993241310120e-01 4.3399509787559509e-01</leafValues></_>
        <_>
          <internalNodes>
            0 -1 71 5.6057516485452652e-03</internalNodes>
          <leafValues>
            1.8166001141071320e-01 -6.5950566530227661e-01</leafValues></_>
        <_>
          <internalNodes>
            0 -1 136 -1.9193675369024277e-02</internalNodes>
          <leafValues>
            7.9100793600082397e-01 -1.4728058874607086e-01</leafValues></_>
        <_>
          <internalNodes>
            0 -1 168 -6.0403468087315559e-03</internalNodes>
          <leafValues>
            6.0616362094879150e-01 -2.0945365726947784e-01</leafValues></_>
        <_>
          <internalNodes>
            0 -1 126 -2.7715377509593964e-03</internalNodes>
          <leafValues>
            3.5222536325454712e-01 -3.1843543052673340e-01</leafValues></_>
        <_>
          <internalNodes>
            0 -1 210 -8.5790473967790604e-03</internalNodes>
          <leafValues>
            -8.1576544046401978e-01 1.4657141268253326e-01</leafValues></_>
        <_>
          <internalNodes>
            0 -1 157 3.8109528832137585e-03</internalNodes>
          <leafValues>
            -2.2573426365852356e-01 5.6654357910156250e-01</leafValues></_>
        <_>
          <internalNodes>
            0 -1 211 3.5195886157453060e-03</internalNodes>
          <leafValues>
            2.1099124848842621e-01 -7.2672665119171143e-01</leafValues></_>
        <_>
          <internalNodes>
            0 -1 113 2.7579921879805624e-04</internalNodes>
          <leafValues>
            -3.4939786791801453e-01 3.3936914801597595e-01</leafValues></_>
        <_>
          <internalNodes>
            0 -1 147 -6.8359266151674092e-05</internalNodes>
          <leafValues>
            -5.4360914230346680e-01 2.3252469301223755e-01</leafValues></_></weakClassifiers></_>
    <!-- stage 13 -->
    <_>
      <maxWeakCount>16</maxWeakCount>
      <stageThreshold>-9.1172164678573608e-01</stageThreshold>
      <weakClassifiers>
        <_>
          <internalNodes>
            0 -1 63 -1.3830863172188401e-03</internalNodes>
          <leafValues>
            3.8129496574401855e-01 -3.0290457606315613e-01</leafValues></_>
        <_>
          <internalNodes>
            0 -1 79 3.9765164256095886e-03</internalNodes>
          <leafValues>
            1.7822714149951935e-01 -5.7884061336517334e-01</leafValues></_>
        <_>
          <internalNodes>
            0 -1 5 7.0760414004325867e-02</internalNodes>
          <leafValues>
            1.5003545582294464e-01 -6.3076680898666382e-01</leafValues></_>
        <_>
          <internalNodes>
            0 -1 204 7.3322671232745051e-04</internalNodes>
          <leafValues>
            1.4915570616722107e-01 -7.2960984706878662e-01</leafValues></_>
        <_>
          <internalNodes>
            0 -1 158 -3.8190060877241194e-04</internalNodes>
          <leafValues>
            3.6483150720596313e-01 -2.5885304808616638e-01</leafValues></_>
        <_>
          <internalNodes>
            0 -1 60 -5.6934710592031479e-03</internalNodes>
          <leafValues>
            6.7123574018478394e-01 -1.7149284482002258e-01</leafValues></_>
        <_>
          <internalNodes>
            0 -1 17 2.3271203041076660e-02</internalNodes>
          <leafValues>
            -1.7439331114292145e-01 5.7462757825851440e-01</leafValues></_>
        <_>
          <internalNodes>
            0 -1 215 -9.2397658154368401e-03</internalNodes>
          <leafValues>
            -8.8353699445724487e-01 1.5293276309967041e-01</leafValues></_>
        <_>
          <internalNodes>
            0 -1 55 -2.8153706341981888e-02</internalNodes>
          <leafValues>
            7.2613954544067383e-01 -1.9454205036163330e-01</leafValues></_>
        <_>
          <internalNodes>
            0 -1 0 6.0954906046390533e-02</internalNodes>
          <leafValues>
            -1.2893462181091309e-01 6.6102975606918335e-01</leafValues></_>
        <_>
          <internalNodes>
            0 -1 4 -3.2274976372718811e-02</internalNodes>
          <leafValues>
            -7.1166092157363892e-01 1.4817218482494354e-01</leafValues></_>
        <_>
          <internalNodes>
            0 -1 81 -7.5446590781211853e-02</internalNodes>
          <leafValues>
            5.9662717580795288e-01 -2.5912305712699890e-01</leafValues></_>
        <_>
          <internalNodes>
            0 -1 103 2.1451492793858051e-03</internalNodes>
          <leafValues>
            -2.3452028632164001e-01 5.3507590293884277e-01</leafValues></_>
        <_>
          <internalNodes>
            0 -1 100 -2.0433988422155380e-02</internalNodes>
          <leafValues>
            6.5259951353073120e-01 -1.5515497326850891e-01</leafValues></_>
        <_>
          <internalNodes>
            0 -1 117 1.7552881035953760e-03</internalNodes>
          <leafValues>
            1.6774748265743256e-01 -6.9704544544219971e-01</leafValues></_>
        <_>
          <internalNodes>
            0 -1 105 -4.1015902534127235e-03</internalNodes>
          <leafValues>
            -6.4471483230590820e-01 1.5167103707790375e-01</leafValues></_></weakClassifiers></_>
    <!-- stage 14 -->
    <_>
      <maxWeakCount>12</maxWeakCount>
      <stageThreshold>-8.0084145069122314e-01</stageThreshold>
      <weakClassifiers>
        <_>
          <internalNodes>
            0 -1 148 7.7512435615062714e-02</internalNodes>
          <leafValues>
            7.2727270424365997e-02 -8.7999999523162842e-01</leafValues></_>
        <_>
          <internalNodes>
            0 -1 42 2.7546235360205173e-03</internalNodes>
          <leafValues>
            -4.2669957876205444e-01 2.7766487002372742e-01</leafValues></_>
        <_>
          <internalNodes>
            0 -1 123 8.7664373219013214e-02</internalNodes>
          <leafValues>
            -2.2129239141941071e-01 5.5087298154830933e-01</leafValues></_>
        <_>
          <internalNodes>
            0 -1 82 4.3449234217405319e-03</internalNodes>
          <leafValues>
            -1.7501389980316162e-01 6.0336905717849731e-01</leafValues></_>
        <_>
          <internalNodes>
            0 -1 119 -4.5090569183230400e-03</internalNodes>
          <leafValues>
            4.8959124088287354e-01 -1.9507987797260284e-01</leafValues></_>
        <_>
          <internalNodes>
            0 -1 134 4.1981292888522148e-03</internalNodes>
          <leafValues>
            -2.0577260851860046e-01 5.9357452392578125e-01</leafValues></_>
        <_>
          <internalNodes>
            0 -1 174 7.2654755786061287e-03</internalNodes>
          <leafValues>
            1.3238877058029175e-01 -9.6793907880783081e-01</leafValues></_>
        <_>
          <internalNodes>
            0 -1 94 -8.2212928682565689e-03</internalNodes>
          <leafValues>
            -7.9499280452728271e-01 1.0114984959363937e-01</leafValues></_>
        <_>
          <internalNodes>
            0 -1 90 -4.6527257654815912e-04</internalNodes>
          <leafValues>
            2.9964748024940491e-01 -3.5455670952796936e-01</leafValues></_>
        <_>
          <internalNodes>
            0 -1 93 -5.7935377117246389e-04</internalNodes>
          <leafValues>
            5.8030772209167480e-01 -1.7139141261577606e-01</leafValues></_>
        <_>
          <internalNodes>
            0 -1 74 4.6465992927551270e-03</internalNodes>
          <leafValues>
            1.7125140130519867e-01 -7.3194247484207153e-01</leafValues></_>
        <_>
          <internalNodes>
            0 -1 145 1.0452941991388798e-02</internalNodes>
          <leafValues>
            -2.0308843255043030e-01 6.7289757728576660e-01</leafValues></_></weakClassifiers></_>
    <!-- stage 15 -->
    <_>
      <maxWeakCount>9</maxWeakCount>
      <stageThreshold>-8.1699293851852417e-01</stageThreshold>
      <weakClassifiers>
        <_>
          <internalNodes>
            0 -1 43 -2.6000147685408592e-02</internalNodes>
          <leafValues>
            2.7184465527534485e-01 -4.3678161501884460e-01</leafValues></_>
        <_>
          <internalNodes>
            0 -1 20 -3.7171114236116409e-03</internalNodes>
          <leafValues>
            -8.9896911382675171e-01 1.1997459083795547e-01</leafValues></_>
        <_>
          <internalNodes>
            0 -1 195 -2.1674786694347858e-03</internalNodes>
          <leafValues>
            3.2666161656379700e-01 -3.5169574618339539e-01</leafValues></_>
        <_>
          <internalNodes>
            0 -1 80 -2.7564041316509247e-02</internalNodes>
          <leafValues>
            5.3145664930343628e-01 -1.9840317964553833e-01</leafValues></_>
        <_>
          <internalNodes>
            0 -1 122 1.1705575743690133e-03</internalNodes>
          <leafValues>
            -3.3096083998680115e-01 5.2299052476882935e-01</leafValues></_>
        <_>
          <internalNodes>
            0 -1 118 1.6047363169491291e-03</internalNodes>
          <leafValues>
            2.0094901323318481e-01 -8.8855063915252686e-01</leafValues></_>
        <_>
          <internalNodes>
            0 -1 31 1.1935033835470676e-03</internalNodes>
          <leafValues>
            -3.0122593045234680e-01 4.6508219838142395e-01</leafValues></_>
        <_>
          <internalNodes>
            0 -1 9 4.0635742247104645e-02</internalNodes>
          <leafValues>
            1.9231165945529938e-01 -7.0393753051757812e-01</leafValues></_>
        <_>
          <internalNodes>
            0 -1 88 2.2750468924641609e-03</internalNodes>
          <leafValues>
            -5.6511223316192627e-01 2.3079408705234528e-01</leafValues></_></weakClassifiers></_>
    <!-- stage 16 -->
    <_>
      <maxWeakCount>12</maxWeakCount>
      <stageThreshold>-9.9131202697753906e-01</stageThreshold>
      <weakClassifiers>
        <_>
          <internalNodes>
            0 -1 19 -1.2153007090091705e-02</internalNodes>
          <leafValues>
            3.1521740555763245e-01 -3.9795917272567749e-01</leafValues></_>
        <_>
          <internalNodes>
            0 -1 46 -1.3307247310876846e-02</internalNodes>
          <leafValues>
            -6.8277364969253540e-01 1.5881115198135376e-01</leafValues></_>
        <_>
          <internalNodes>
            0 -1 21 -5.8195352554321289e-02</internalNodes>
          <leafValues>
            -5.6126320362091064e-01 2.2792293131351471e-01</leafValues></_>
        <_>
          <internalNodes>
            0 -1 41 -1.3250105548650026e-03</internalNodes>
          <leafValues>
            -5.5712050199508667e-01 2.2432032227516174e-01</leafValues></_>
        <_>
          <internalNodes>
            0 -1 120 2.7158616576343775e-03</internalNodes>
          <leafValues>
            -2.0840352773666382e-01 8.1139904260635376e-01</leafValues></_>
        <_>
          <internalNodes>
            0 -1 115 -1.5326788648962975e-02</internalNodes>
          <leafValues>
            3.1367504596710205e-01 -4.3270727992057800e-01</leafValues></_>
        <_>
          <internalNodes>
            0 -1 23 -3.7523801438510418e-03</internalNodes>
          <leafValues>
            -7.5801271200180054e-01 1.9694600999355316e-01</leafValues></_>
        <_>
          <internalNodes>
            0 -1 27 -1.8838199321180582e-03</internalNodes>
          <leafValues>
            3.3661875128746033e-01 -3.5208386182785034e-01</leafValues></_>
        <_>
          <internalNodes>
            0 -1 121 2.7412855997681618e-03</internalNodes>
          <leafValues>
            -2.5737494230270386e-01 5.7232069969177246e-01</leafValues></_>
        <_>
          <internalNodes>
            0 -1 26 -6.2331082299351692e-03</internalNodes>
          <leafValues>
            -8.2235717773437500e-01 2.4248780310153961e-01</leafValues></_>
        <_>
          <internalNodes>
            0 -1 59 2.6237454731017351e-03</internalNodes>
          <leafValues>
            1.4287216961383820e-01 -6.3918817043304443e-01</leafValues></_>
        <_>
          <internalNodes>
            0 -1 218 4.9639120697975159e-03</internalNodes>
          <leafValues>
            1.1683937907218933e-01 -8.5977560281753540e-01</leafValues></_></weakClassifiers></_>
    <!-- stage 17 -->
    <_>
      <maxWeakCount>11</maxWeakCount>
      <stageThreshold>-7.3306649923324585e-01</stageThreshold>
      <weakClassifiers>
        <_>
          <internalNodes>
            0 -1 184 -8.5633405251428485e-04</internalNodes>
          <leafValues>
            5.4347825050354004e-01 -2.4305555224418640e-01</leafValues></_>
        <_>
          <internalNodes>
            0 -1 213 1.4788917265832424e-02</internalNodes>
          <leafValues>
            1.7053639888763428e-01 -6.9974207878112793e-01</leafValues></_>
        <_>
          <internalNodes>
            0 -1 44 -2.8123771771788597e-03</internalNodes>
          <leafValues>
            7.0796531438827515e-01 -2.0139013230800629e-01</leafValues></_>
        <_>
          <internalNodes>
            0 -1 203 1.7327041132375598e-04</internalNodes>
          <leafValues>
            -3.1228032708168030e-01 3.6650717258453369e-01</leafValues></_>
        <_>
          <internalNodes>
            0 -1 188 -2.3512560874223709e-03</internalNodes>
          <leafValues>
            -8.2684731483459473e-01 1.9130857288837433e-01</leafValues></_>
        <_>
          <internalNodes>
            0 -1 72 -2.5401872699148953e-04</internalNodes>
          <leafValues>
            -5.2681022882461548e-01 2.1215796470642090e-01</leafValues></_>
        <_>
          <internalNodes>
            0 -1 18 3.7499092286452651e-04</internalNodes>
          <leafValues>
            -3.2866853475570679e-01 4.3685999512672424e-01</leafValues></_>
        <_>
          <internalNodes>
            0 -1 76 -2.8513027355074883e-03</internalNodes>
          <leafValues>
            -7.0064216852188110e-01 2.0150622725486755e-01</leafValues></_>
        <_>
          <internalNodes>
            0 -1 108 -1.2034896761178970e-02</internalNodes>
          <leafValues>
            1. -1.6294851899147034e-01</leafValues></_>
        <_>
          <internalNodes>
            0 -1 92 1.8535844981670380e-02</internalNodes>
          <leafValues>
            -3.0062693357467651e-01 5.5890506505966187e-01</leafValues></_>
        <_>
          <internalNodes>
            0 -1 34 -5.3563192486763000e-02</internalNodes>
          <leafValues>
            -6.3154369592666626e-01 2.6375526189804077e-01</leafValues></_></weakClassifiers></_>
    <!-- stage 18 -->
    <_>
      <maxWeakCount>13</maxWeakCount>
      <stageThreshold>-9.9205845594406128e-01</stageThreshold>
      <weakClassifiers>
        <_>
          <internalNodes>
            0 -1 167 -1.7050784081220627e-02</internalNodes>
          <leafValues>
            6.2162160873413086e-01 -2.1568627655506134e-01</leafValues></_>
        <_>
          <internalNodes>
            0 -1 208 -2.5163883343338966e-02</internalNodes>
          <leafValues>
            -9.6742099523544312e-01 1.1423300951719284e-01</leafValues></_>
        <_>
          <internalNodes>
            0 -1 162 3.9487559115514159e-04</internalNodes>
          <leafValues>
            -2.7290037274360657e-01 4.0389189124107361e-01</leafValues></_>
        <_>
          <internalNodes>
            0 -1 110 -6.7316135391592979e-03</internalNodes>
          <leafValues>
            6.2410396337509155e-01 -2.4084693193435669e-01</leafValues></_>
        <_>
          <internalNodes>
            0 -1 36 -3.9107748307287693e-03</internalNodes>
          <leafValues>
            3.9454123377799988e-01 -2.9098466038703918e-01</leafValues></_>
        <_>
          <internalNodes>
            0 -1 138 -2.9182340949773788e-02</internalNodes>
          <leafValues>
            8.3872836828231812e-01 -1.7445018887519836e-01</leafValues></_>
        <_>
          <internalNodes>
            0 -1 156 -9.8854424431920052e-03</internalNodes>
          <leafValues>
            4.4442290067672729e-01 -2.9571956396102905e-01</leafValues></_>
        <_>
          <internalNodes>
            0 -1 91 -5.5775307118892670e-03</internalNodes>
          <leafValues>
            -9.0873146057128906e-01 1.4223030209541321e-01</leafValues></_>
        <_>
          <internalNodes>
            0 -1 29 -4.0574915707111359e-02</internalNodes>
          <leafValues>
            -6.5022224187850952e-01 1.5641550719738007e-01</leafValues></_>
        <_>
          <internalNodes>
            0 -1 101 8.4572685882449150e-03</internalNodes>
          <leafValues>
            -1.7931631207466125e-01 7.1650874614715576e-01</leafValues></_>
        <_>
          <internalNodes>
            0 -1 214 1.8420933047309518e-03</internalNodes>
          <leafValues>
            -1.7139692604541779e-01 6.5166217088699341e-01</leafValues></_>
        <_>
          <internalNodes>
            0 -1 152 -3.0454271472990513e-04</internalNodes>
          <leafValues>
            -4.4994330406188965e-01 2.8958776593208313e-01</leafValues></_>
        <_>
          <internalNodes>
            0 -1 206 -1.1316342279314995e-03</internalNodes>
          <leafValues>
            -7.4702477455139160e-01 1.4616481959819794e-01</leafValues></_></weakClassifiers></_>
    <!-- stage 19 -->
    <_>
      <maxWeakCount>12</maxWeakCount>
      <stageThreshold>-6.6713196039199829e-01</stageThreshold>
      <weakClassifiers>
        <_>
          <internalNodes>
            0 -1 165 -1.0112011805176735e-03</internalNodes>
          <leafValues>
            3.7662336230278015e-01 -3.4513273835182190e-01</leafValues></_>
        <_>
          <internalNodes>
            0 -1 54 -9.6613878849893808e-04</internalNodes>
          <leafValues>
            -6.9900536537170410e-01 1.6566802561283112e-01</leafValues></_>
        <_>
          <internalNodes>
            0 -1 130 -3.0039190314710140e-03</internalNodes>
          <leafValues>
            5.2755421400070190e-01 -2.1338893473148346e-01</leafValues></_>
        <_>
          <internalNodes>
            0 -1 47 -5.4819707293063402e-04</internalNodes>
          <leafValues>
            2.6379364728927612e-01 -4.2070305347442627e-01</leafValues></_>
        <_>
          <internalNodes>
            0 -1 104 8.8323652744293213e-04</internalNodes>
          <leafValues>
            -3.8489559292793274e-01 2.8535780310630798e-01</leafValues></_>
        <_>
          <internalNodes>
            0 -1 83 4.2144935578107834e-03</internalNodes>
          <leafValues>
            -1.1688997596502304e-01 8.3783566951751709e-01</leafValues></_>
        <_>
          <internalNodes>
            0 -1 68 2.0010361447930336e-02</internalNodes>
          <leafValues>
            1.4293238520622253e-01 -8.8989627361297607e-01</leafValues></_>
        <_>
          <internalNodes>
            0 -1 3 1.3716381788253784e-01</internalNodes>
          <leafValues>
            -2.1439799666404724e-01 5.3004479408264160e-01</leafValues></_>
        <_>
          <internalNodes>
            0 -1 66 -6.4681004732847214e-03</internalNodes>
          <leafValues>
            4.7155115008354187e-01 -2.6715868711471558e-01</leafValues></_>
        <_>
          <internalNodes>
            0 -1 125 -1.4747750014066696e-02</internalNodes>
          <leafValues>
            -8.7451237440109253e-01 1.9564752280712128e-01</leafValues></_>
        <_>
          <internalNodes>
            0 -1 65 8.3394888788461685e-03</internalNodes>
          <leafValues>
            -2.0917171239852905e-01 7.7294552326202393e-01</leafValues></_>
        <_>
          <internalNodes>
            0 -1 183 -8.4515567868947983e-04</internalNodes>
          <leafValues>
            5.6493008136749268e-01 -2.1147401630878448e-01</leafValues></_></weakClassifiers></_></stages>
  <features>
    <_>
      <rects>
        <_>
          0 0 9 6 -1.</_>
        <_>
          3 0 3 6 3.</_></rects>
      <tilted>0</tilted></_>
    <_>
      <rects>
        <_>
          0 0 15 9 -1.</_>
        <_>
          0 3 15 3 3.</_></rects>
      <tilted>0</tilted></_>
    <_>
      <rects>
        <_>
          0 1 20 4 -1.</_>
        <_>
          0 1 10 2 2.</_>
        <_>
          10 3 10 2 2.</_></rects>
      <tilted>0</tilted></_>
    <_>
      <rects>
        <_>
          0 2 13 14 -1.</_>
        <_>
          0 9 13 7 2.</_></rects>
      <tilted>0</tilted></_>
    <_>
      <rects>
        <_>
          0 3 6 9 -1.</_>
        <_>
          0 6 6 3 3.</_></rects>
      <tilted>0</tilted></_>
    <_>
      <rects>
        <_>
          0 3 20 10 -1.</_>
        <_>
          0 3 10 5 2.</_>
        <_>
          10 8 10 5 2.</_></rects>
      <tilted>0</tilted></_>
    <_>
      <rects>
        <_>
          0 7 4 4 -1.</_>
        <_>
          0 7 2 2 2.</_>
        <_>
          2 9 2 2 2.</_></rects>
      <tilted>0</tilted></_>
    <_>
      <rects>
        <_>
          0 9 3 4 -1.</_>
        <_>
          1 9 1 4 3.</_></rects>
      <tilted>0</tilted></_>
    <_>
      <rects>
        <_>
          0 11 6 3 -1.</_>
        <_>
          2 11 2 3 3.</_></rects>
      <tilted>0</tilted></_>
    <_>
      <rects>
        <_>
          0 13 20 6 -1.</_>
        <_>
          0 13 10 3 2.</_>
        <_>
          10 16 10 3 2.</_></rects>
      <tilted>0</tilted></_>
    <_>
      <rects>
        <_>
          1 0 4 3 -1.</_>
        <_>
          3 0 2 3 2.</_></rects>
      <tilted>0</tilted></_>
    <_>
      <rects>
        <_>
          1 2 18 2 -1.</_>
        <_>
          1 2 9 1 2.</_>
        <_>
          10 3 9 1 2.</_></rects>
      <tilted>0</tilted></_>
    <_>
      <rects>
        <_>
          1 3 12 1 -1.</_>
        <_>
          5 3 4 1 3.</_></rects>
      <tilted>0</tilted></_>
    <_>
      <rects>
        <_>
          1 3 12 4 -1.</_>
        <_>
          5 3 4 4 3.</_></rects>
      <tilted>0</tilted></_>
    <_>
      <rects>
        <_>
          1 5 3 9 -1.</_>
        <_>
          1 8 3 3 3.</_></rects>
      <tilted>0</tilted></_>
    <_>
      <rects>
        <_>
          1 12 3 8 -1.</_>
        <_>
          2 12 1 8 3.</_></rects>
      <tilted>0</tilted></_>
    <_>
      <rects>
        <_>
          1 12 6 1 -1.</_>
        <_>
          3 12 2 1 3.</_></rects>
      <tilted>0</tilted></_>
    <_>
      <rects>
        <_>
          1 13 14 6 -1.</_>
        <_>
          1 15 14 2 3.</_></rects>
      <tilted>0</tilted></_>
    <_>
      <rects>
        <_>
          1 14 2 4 -1.</_>
        <_>
          1 14 1 2 2.</_>
        <_>
          2 16 1 2 2.</_></rects>
      <tilted>0</tilted></_>
    <_>
      <rects>
        <_>
          2 0 8 6 -1.</_>
        <_>
          2 0 4 3 2.</_>
        <_>
          6 3 4 3 2.</_></rects>
      <tilted>0</tilted></_>
    <_>
      <rects>
        <_>
          2 1 2 3 -1.</_>
        <_>
          2 2 2 1 3.</_></rects>
      <tilted>0</tilted></_>
    <_>
      <rects>
        <_>
          2 1 18 10 -1.</_>
        <_>
          2 1 9 5 2.</_>
        <_>
          11 6 9 5 2.</_></rects>
      <tilted>0</tilted></_>
    <_>
      <rects>
        <_>
          2 2 6 8 -1.</_>
        <_>
          4 2 2 8 3.</_></rects>
      <tilted>0</tilted></_>
    <_>
      <rects>
        <_>
          2 6 5 2 -1.</_>
        <_>
          2 7 5 1 2.</_></rects>
      <tilted>0</tilted></_>
    <_>
      <rects>
        <_>
          2 8 5 6 -1.</_>
        <_>
          2 10 5 2 3.</_></rects>
      <tilted>0</tilted></_>
    <_>
      <rects>
        <_>
          2 9 3 11 -1.</_>
        <_>
          3 9 1 11 3.</_></rects>
      <tilted>0</tilted></_>
    <_>
      <rects>
        <_>
          2 10 1 6 -1.</_>
        <_>
          2 12 1 2 3.</_></rects>
      <tilted>0</tilted></_>
    <_>
      <rects>
        <_>
          2 11 5 9 -1.</_>
        <_>
          2 14 5 3 3.</_></rects>
      <tilted>0</tilted></_>
    <_>
      <rects>
        <_>
          2 12 3 8 -1.</_>
        <_>
          3 12 1 8 3.</_></rects>
      <tilted>0</tilted></_>
    <_>
      <rects>
        <_>
          2 12 16 8 -1.</_>
        <_>
          2 12 8 4 2.</_>
        <_>
          10 16 8 4 2.</_></rects>
      <tilted>0</tilted></_>
    <_>
      <rects>
        <_>
          2 13 13 6 -1.</_>
        <_>
          2 15 13 2 3.</_></rects>
      <tilted>0</tilted></_>
    <_>
      <rects>
        <_>
          2 16 6 2 -1.</_>
        <_>
          2 16 3 1 2.</_>
        <_>
          5 17 3 1 2.</_></rects>
      <tilted>0</tilted></_>
    <_>
      <rects>
        <_>
          3 1 6 5 -1.</_>
        <_>
          5 1 2 5 3.</_></rects>
      <tilted>0</tilted></_>
    <_>
      <rects>
        <_>
          3 1 4 6 -1.</_>
        <_>
          3 3 4 2 3.</_></rects>
      <tilted>0</tilted></_>
    <_>
      <rects>
        <_>
          3 2 16 10 -1.</_>
        <_>
          3 2 8 5 2.</_>
        <_>
          11 7 8 5 2.</_></rects>
      <tilted>0</tilted></_>
    <_>
      <rects>
        <_>
          3 3 6 10 -1.</_>
        <_>
          3 3 3 5 2.</_>
        <_>
          6 8 3 5 2.</_></rects>
      <tilted>0</tilted></_>
    <_>
      <rects>
        <_>
          3 4 4 2 -1.</_>
        <_>
          5 4 2 2 2.</_></rects>
      <tilted>0</tilted></_>
    <_>
      <rects>
        <_>
          3 5 6 1 -1.</_>
        <_>
          5 5 2 1 3.</_></rects>
      <tilted>0</tilted></_>
    <_>
      <rects>
        <_>
          3 5 15 8 -1.</_>
        <_>
          8 5 5 8 3.</_></rects>
      <tilted>0</tilted></_>
    <_>
      <rects>
        <_>
          3 5 15 10 -1.</_>
        <_>
          8 5 5 10 3.</_></rects>
      <tilted>0</tilted></_>
    <_>
      <rects>
        <_>
          3 7 1 6 -1.</_>
        <_>
          3 9 1 2 3.</_></rects>
      <tilted>0</tilted></_>
    <_>
      <rects>
        <_>
          3 7 2 4 -1.</_>
        <_>
          4 7 1 4 2.</_></rects>
      <tilted>0</tilted></_>
    <_>
      <rects>
        <_>
          3 10 9 1 -1.</_>
        <_>
          6 10 3 1 3.</_></rects>
      <tilted>0</tilted></_>
    <_>
      <rects>
        <_>
          3 12 15 4 -1.</_>
        <_>
          8 12 5 4 3.</_></rects>
      <tilted>0</tilted></_>
    <_>
      <rects>
        <_>
          3 13 1 4 -1.</_>
        <_>
          3 15 1 2 2.</_></rects>
      <tilted>0</tilted></_>
    <_>
      <rects>
        <_>
          3 13 4 1 -1.</_>
        <_>
          5 13 2 1 2.</_></rects>
      <tilted>0</tilted></_>
    <_>
      <rects>
        <_>
          3 14 6 6 -1.</_>
        <_>
          5 14 2 6 3.</_></rects>
      <tilted>0</tilted></_>
    <_>
      <rects>
        <_>
          4 2 2 3 -1.</_>
        <_>
          5 2 1 3 2.</_></rects>
      <tilted>0</tilted></_>
    <_>
      <rects>
        <_>
          4 3 2 2 -1.</_>
        <_>
          5 3 1 2 2.</_></rects>
      <tilted>0</tilted></_>
    <_>
      <rects>
        <_>
          4 4 4 3 -1.</_>
        <_>
          6 4 2 3 2.</_></rects>
      <tilted>0</tilted></_>
    <_>
      <rects>
        <_>
          4 5 4 12 -1.</_>
        <_>
          4 5 2 6 2.</_>
        <_>
          6 11 2 6 2.</_></rects>
      <tilted>0</tilted></_>
    <_>
      <rects>
        <_>
          4 6 12 7 -1.</_>
        <_>
          8 6 4 7 3.</_></rects>
      <tilted>0</tilted></_>
    <_>
      <rects>
        <_>
          4 9 2 6 -1.</_>
        <_>
          4 9 1 3 2.</_>
        <_>
          5 12 1 3 2.</_></rects>
      <tilted>0</tilted></_>
    <_>
      <rects>
        <_>
          4 11 15 3 -1.</_>
        <_>
          9 11 5 3 3.</_></rects>
      <tilted>0</tilted></_>
    <_>
      <rects>
        <_>
          4 13 2 1 -1.</_>
        <_>
          5 13 1 1 2.</_></rects>
      <tilted>0</tilted></_>
    <_>
      <rects>
        <_>
          4 13 9 6 -1.</_>
        <_>
          4 15 9 2 3.</_></rects>
      <tilted>0</tilted></_>
    <_>
      <rects>
        <_>
          4 14 3 1 -1.</_>
        <_>
          5 14 1 1 3.</_></rects>
      <tilted>0</tilted></_>
    <_>
      <rects>
        <_>
          5 0 6 2 -1.</_>
        <_>
          8 0 3 2 2.</_></rects>
      <tilted>0</tilted></_>
    <_>
      <rects>
        <_>
          5 0 5 3 -1.</_>
        <_>
          5 1 5 1 3.</_></rects>
      <tilted>0</tilted></_>
    <_>
      <rects>
        <_>
          5 0 10 2 -1.</_>
        <_>
          5 0 5 1 2.</_>
        <_>
          10 1 5 1 2.</_></rects>
      <tilted>0</tilted></_>
    <_>
      <rects>
        <_>
          5 2 2 10 -1.</_>
        <_>
          5 2 1 5 2.</_>
        <_>
          6 7 1 5 2.</_></rects>
      <tilted>0</tilted></_>
    <_>
      <rects>
        <_>
          5 3 6 6 -1.</_>
        <_>
          5 3 3 3 2.</_>
        <_>
          8 6 3 3 2.</_></rects>
      <tilted>0</tilted></_>
    <_>
      <rects>
        <_>
          5 4 4 6 -1.</_>
        <_>
          5 4 2 3 2.</_>
        <_>
          7 7 2 3 2.</_></rects>
      <tilted>0</tilted></_>
    <_>
      <rects>
        <_>
          5 5 2 1 -1.</_>
        <_>
          6 5 1 1 2.</_></rects>
      <tilted>0</tilted></_>
    <_>
      <rects>
        <_>
          5 6 12 7 -1.</_>
        <_>
          9 6 4 7 3.</_></rects>
      <tilted>0</tilted></_>
    <_>
      <rects>
        <_>
          5 6 14 3 -1.</_>
        <_>
          5 7 14 1 3.</_></rects>
      <tilted>0</tilted></_>
    <_>
      <rects>
        <_>
          5 7 1 8 -1.</_>
        <_>
          5 11 1 4 2.</_></rects>
      <tilted>0</tilted></_>
    <_>
      <rects>
        <_>
          5 7 6 3 -1.</_>
        <_>
          8 7 3 3 2.</_></rects>
      <tilted>0</tilted></_>
    <_>
      <rects>
        <_>
          5 9 3 6 -1.</_>
        <_>
          5 11 3 2 3.</_></rects>
      <tilted>0</tilted></_>
    <_>
      <rects>
        <_>
          5 9 10 4 -1.</_>
        <_>
          10 9 5 4 2.</_></rects>
      <tilted>0</tilted></_>
    <_>
      <rects>
        <_>
          5 10 3 3 -1.</_>
        <_>
          6 10 1 3 3.</_></rects>
      <tilted>0</tilted></_>
    <_>
      <rects>
        <_>
          5 10 3 6 -1.</_>
        <_>
          6 10 1 6 3.</_></rects>
      <tilted>0</tilted></_>
    <_>
      <rects>
        <_>
          5 12 3 2 -1.</_>
        <_>
          6 12 1 2 3.</_></rects>
      <tilted>0</tilted></_>
    <_>
      <rects>
        <_>
          5 13 10 2 -1.</_>
        <_>
          10 13 5 2 2.</_></rects>
      <tilted>0</tilted></_>
    <_>
      <rects>
        <_>
          5 18 6 1 -1.</_>
        <_>
          7 18 2 1 3.</_></rects>
      <tilted>0</tilted></_>
    <_>
      <rects>
        <_>
          6 0 4 12 -1.</_>
        <_>
          6 0 2 6 2.</_>
        <_>
          8 6 2 6 2.</_></rects>
      <tilted>0</tilted></_>
    <_>
      <rects>
        <_>
          6 0 8 2 -1.</_>
        <_>
          6 0 4 1 2.</_>
        <_>
          10 1 4 1 2.</_></rects>
      <tilted>0</tilted></_>
    <_>
      <rects>
        <_>
          6 0 10 2 -1.</_>
        <_>
          6 0 5 1 2.</_>
        <_>
          11 1 5 1 2.</_></rects>
      <tilted>0</tilted></_>
    <_>
      <rects>
        <_>
          6 0 7 12 -1.</_>
        <_>
          6 4 7 4 3.</_></rects>
      <tilted>0</tilted></_>
    <_>
      <rects>
        <_>
          6 1 10 2 -1.</_>
        <_>
          6 1 5 1 2.</_>
        <_>
          11 2 5 1 2.</_></rects>
      <tilted>0</tilted></_>
    <_>
      <rects>
        <_>
          6 3 4 8 -1.</_>
        <_>
          6 3 2 4 2.</_>
        <_>
          8 7 2 4 2.</_></rects>
      <tilted>0</tilted></_>
    <_>
      <rects>
        <_>
          6 3 14 9 -1.</_>
        <_>
          6 6 14 3 3.</_></rects>
      <tilted>0</tilted></_>
    <_>
      <rects>
        <_>
          6 5 5 2 -1.</_>
        <_>
          6 6 5 1 2.</_></rects>
      <tilted>0</tilted></_>
    <_>
      <rects>
        <_>
          6 7 9 1 -1.</_>
        <_>
          9 7 3 1 3.</_></rects>
      <tilted>0</tilted></_>
    <_>
      <rects>
        <_>
          6 7 3 3 -1.</_>
        <_>
          6 8 3 1 3.</_></rects>
      <tilted>0</tilted></_>
    <_>
      <rects>
        <_>
          6 7 3 6 -1.</_>
        <_>
          6 9 3 2 3.</_></rects>
      <tilted>0</tilted></_>
    <_>
      <rects>
        <_>
          6 8 9 5 -1.</_>
        <_>
          9 8 3 5 3.</_></rects>
      <tilted>0</tilted></_>
    <_>
      <rects>
        <_>
          6 10 3 4 -1.</_>
        <_>
          7 10 1 4 3.</_></rects>
      <tilted>0</tilted></_>
    <_>
      <rects>
        <_>
          6 10 4 8 -1.</_>
        <_>
          6 10 2 4 2.</_>
        <_>
          8 14 2 4 2.</_></rects>
      <tilted>0</tilted></_>
    <_>
      <rects>
        <_>
          6 10 8 9 -1.</_>
        <_>
          10 10 4 9 2.</_></rects>
      <tilted>0</tilted></_>
    <_>
      <rects>
        <_>
          6 13 2 2 -1.</_>
        <_>
          7 13 1 2 2.</_></rects>
      <tilted>0</tilted></_>
    <_>
      <rects>
        <_>
          6 13 2 2 -1.</_>
        <_>
          6 14 2 1 2.</_></rects>
      <tilted>0</tilted></_>
    <_>
      <rects>
        <_>
          6 14 9 6 -1.</_>
        <_>
          6 16 9 2 3.</_></rects>
      <tilted>0</tilted></_>
    <_>
      <rects>
        <_>
          6 16 2 2 -1.</_>
        <_>
          6 16 1 1 2.</_>
        <_>
          7 17 1 1 2.</_></rects>
      <tilted>0</tilted></_>
    <_>
      <rects>
        <_>
          6 17 6 3 -1.</_>
        <_>
          8 17 2 3 3.</_></rects>
      <tilted>0</tilted></_>
    <_>
      <rects>
        <_>
          6 18 3 1 -1.</_>
        <_>
          7 18 1 1 3.</_></rects>
      <tilted>0</tilted></_>
    <_>
      <rects>
        <_>
          7 0 4 12 -1.</_>
        <_>
          7 0 2 6 2.</_>
        <_>
          9 6 2 6 2.</_></rects>
      <tilted>0</tilted></_>
    <_>
      <rects>
        <_>
          7 1 2 6 -1.</_>
        <_>
          7 1 1 3 2.</_>
        <_>
          8 4 1 3 2.</_></rects>
      <tilted>0</tilted></_>
    <_>
      <rects>
        <_>
          7 2 7 9 -1.</_>
        <_>
          7 5 7 3 3.</_></rects>
      <tilted>0</tilted></_>
    <_>
      <rects>
        <_>
          7 3 2 6 -1.</_>
        <_>
          7 5 2 2 3.</_></rects>
      <tilted>0</tilted></_>
    <_>
      <rects>
        <_>
          7 3 2 12 -1.</_>
        <_>
          7 7 2 4 3.</_></rects>
      <tilted>0</tilted></_>
    <_>
      <rects>
        <_>
          7 3 6 4 -1.</_>
        <_>
          7 5 6 2 2.</_></rects>
      <tilted>0</tilted></_>
    <_>
      <rects>
        <_>
          7 5 2 6 -1.</_>
        <_>
          7 5 1 3 2.</_>
        <_>
          8 8 1 3 2.</_></rects>
      <tilted>0</tilted></_>
    <_>
      <rects>
        <_>
          7 5 7 2 -1.</_>
        <_>
          7 6 7 1 2.</_></rects>
      <tilted>0</tilted></_>
    <_>
      <rects>
        <_>
          7 8 3 8 -1.</_>
        <_>
          8 8 1 8 3.</_></rects>
      <tilted>0</tilted></_>
    <_>
      <rects>
        <_>
          7 9 3 11 -1.</_>
        <_>
          8 9 1 11 3.</_></rects>
      <tilted>0</tilted></_>
    <_>
      <rects>
        <_>
          7 10 7 3 -1.</_>
        <_>
          7 11 7 1 3.</_></rects>
      <tilted>0</tilted></_>
    <_>
      <rects>
        <_>
          7 12 6 2 -1.</_>
        <_>
          9 12 2 2 3.</_></rects>
      <tilted>0</tilted></_>
    <_>
      <rects>
        <_>
          7 14 6 6 -1.</_>
        <_>
          7 16 6 2 3.</_></rects>
      <tilted>0</tilted></_>
    <_>
      <rects>
        <_>
          7 15 7 2 -1.</_>
        <_>
          7 16 7 1 2.</_></rects>
      <tilted>0</tilted></_>
    <_>
      <rects>
        <_>
          7 16 3 4 -1.</_>
        <_>
          7 18 3 2 2.</_></rects>
      <tilted>0</tilted></_>
    <_>
      <rects>
        <_>
          7 16 6 4 -1.</_>
        <_>
          7 18 6 2 2.</_></rects>
      <tilted>0</tilted></_>
    <_>
      <rects>
        <_>
          7 19 6 1 -1.</_>
        <_>
          9 19 2 1 3.</_></rects>
      <tilted>0</tilted></_>
    <_>
      <rects>
        <_>
          8 0 2 2 -1.</_>
        <_>
          9 0 1 2 2.</_></rects>
      <tilted>0</tilted></_>
    <_>
      <rects>
        <_>
          8 0 5 18 -1.</_>
        <_>
          8 6 5 6 3.</_></rects>
      <tilted>0</tilted></_>
    <_>
      <rects>
        <_>
          8 1 2 12 -1.</_>
        <_>
          8 5 2 4 3.</_></rects>
      <tilted>0</tilted></_>
    <_>
      <rects>
        <_>
          8 1 6 4 -1.</_>
        <_>
          8 1 3 2 2.</_>
        <_>
          11 3 3 2 2.</_></rects>
      <tilted>0</tilted></_>
    <_>
      <rects>
        <_>
          8 2 3 1 -1.</_>
        <_>
          9 2 1 1 3.</_></rects>
      <tilted>0</tilted></_>
    <_>
      <rects>
        <_>
          8 2 2 2 -1.</_>
        <_>
          8 2 1 1 2.</_>
        <_>
          9 3 1 1 2.</_></rects>
      <tilted>0</tilted></_>
    <_>
      <rects>
        <_>
          8 3 1 6 -1.</_>
        <_>
          8 6 1 3 2.</_></rects>
      <tilted>0</tilted></_>
    <_>
      <rects>
        <_>
          8 4 1 6 -1.</_>
        <_>
          8 6 1 2 3.</_></rects>
      <tilted>0</tilted></_>
    <_>
      <rects>
        <_>
          8 7 3 9 -1.</_>
        <_>
          9 7 1 9 3.</_></rects>
      <tilted>0</tilted></_>
    <_>
      <rects>
        <_>
          8 9 3 6 -1.</_>
        <_>
          9 9 1 6 3.</_></rects>
      <tilted>0</tilted></_>
    <_>
      <rects>
        <_>
          8 9 12 5 -1.</_>
        <_>
          14 9 6 5 2.</_></rects>
      <tilted>0</tilted></_>
    <_>
      <rects>
        <_>
          8 10 2 6 -1.</_>
        <_>
          8 10 1 3 2.</_>
        <_>
          9 13 1 3 2.</_></rects>
      <tilted>0</tilted></_>
    <_>
      <rects>
        <_>
          8 11 12 2 -1.</_>
        <_>
          8 12 12 1 2.</_></rects>
      <tilted>0</tilted></_>
    <_>
      <rects>
        <_>
          8 14 9 2 -1.</_>
        <_>
          11 14 3 2 3.</_></rects>
      <tilted>0</tilted></_>
    <_>
      <rects>
        <_>
          8 14 5 4 -1.</_>
        <_>
          8 16 5 2 2.</_></rects>
      <tilted>0</tilted></_>
    <_>
      <rects>
        <_>
          8 17 6 2 -1.</_>
        <_>
          10 17 2 2 3.</_></rects>
      <tilted>0</tilted></_>
    <_>
      <rects>
        <_>
          8 18 2 2 -1.</_>
        <_>
          8 18 1 1 2.</_>
        <_>
          9 19 1 1 2.</_></rects>
      <tilted>0</tilted></_>
    <_>
      <rects>
        <_>
          9 2 6 1 -1.</_>
        <_>
          12 2 3 1 2.</_></rects>
      <tilted>0</tilted></_>
    <_>
      <rects>
        <_>
          9 4 9 1 -1.</_>
        <_>
          12 4 3 1 3.</_></rects>
      <tilted>0</tilted></_>
    <_>
      <rects>
        <_>
          9 8 3 7 -1.</_>
        <_>
          10 8 1 7 3.</_></rects>
      <tilted>0</tilted></_>
    <_>
      <rects>
        <_>
          9 9 3 5 -1.</_>
        <_>
          10 9 1 5 3.</_></rects>
      <tilted>0</tilted></_>
    <_>
      <rects>
        <_>
          9 13 4 2 -1.</_>
        <_>
          9 14 4 1 2.</_></rects>
      <tilted>0</tilted></_>
    <_>
      <rects>
        <_>
          10 0 8 14 -1.</_>
        <_>
          10 0 4 7 2.</_>
        <_>
          14 7 4 7 2.</_></rects>
      <tilted>0</tilted></_>
    <_>
      <rects>
        <_>
          10 2 6 3 -1.</_>
        <_>
          12 2 2 3 3.</_></rects>
      <tilted>0</tilted></_>
    <_>
      <rects>
        <_>
          10 2 10 6 -1.</_>
        <_>
          10 2 5 3 2.</_>
        <_>
          15 5 5 3 2.</_></rects>
      <tilted>0</tilted></_>
    <_>
      <rects>
        <_>
          10 3 6 12 -1.</_>
        <_>
          10 3 3 6 2.</_>
        <_>
          13 9 3 6 2.</_></rects>
      <tilted>0</tilted></_>
    <_>
      <rects>
        <_>
          10 6 8 12 -1.</_>
        <_>
          10 6 4 6 2.</_>
        <_>
          14 12 4 6 2.</_></rects>
      <tilted>0</tilted></_>
    <_>
      <rects>
        <_>
          10 7 3 6 -1.</_>
        <_>
          11 7 1 6 3.</_></rects>
      <tilted>0</tilted></_>
    <_>
      <rects>
        <_>
          10 8 4 4 -1.</_>
        <_>
          12 8 2 4 2.</_></rects>
      <tilted>0</tilted></_>
    <_>
      <rects>
        <_>
          10 9 3 3 -1.</_>
        <_>
          11 9 1 3 3.</_></rects>
      <tilted>0</tilted></_>
    <_>
      <rects>
        <_>
          10 9 2 5 -1.</_>
        <_>
          11 9 1 5 2.</_></rects>
      <tilted>0</tilted></_>
    <_>
      <rects>
        <_>
          10 10 4 3 -1.</_>
        <_>
          12 10 2 3 2.</_></rects>
      <tilted>0</tilted></_>
    <_>
      <rects>
        <_>
          10 10 3 6 -1.</_>
        <_>
          10 12 3 2 3.</_></rects>
      <tilted>0</tilted></_>
    <_>
      <rects>
        <_>
          10 11 1 2 -1.</_>
        <_>
          10 12 1 1 2.</_></rects>
      <tilted>0</tilted></_>
    <_>
      <rects>
        <_>
          10 11 6 1 -1.</_>
        <_>
          12 11 2 1 3.</_></rects>
      <tilted>0</tilted></_>
    <_>
      <rects>
        <_>
          11 0 6 19 -1.</_>
        <_>
          13 0 2 19 3.</_></rects>
      <tilted>0</tilted></_>
    <_>
      <rects>
        <_>
          11 0 9 2 -1.</_>
        <_>
          14 0 3 2 3.</_></rects>
      <tilted>0</tilted></_>
    <_>
      <rects>
        <_>
          11 0 5 3 -1.</_>
        <_>
          11 1 5 1 3.</_></rects>
      <tilted>0</tilted></_>
    <_>
      <rects>
        <_>
          11 1 4 10 -1.</_>
        <_>
          11 1 2 5 2.</_>
        <_>
          13 6 2 5 2.</_></rects>
      <tilted>0</tilted></_>
    <_>
      <rects>
        <_>
          11 2 1 3 -1.</_>
        <_>
          11 3 1 1 3.</_></rects>
      <tilted>0</tilted></_>
    <_>
      <rects>
        <_>
          11 3 2 12 -1.</_>
        <_>
          12 3 1 12 2.</_></rects>
      <tilted>0</tilted></_>
    <_>
      <rects>
        <_>
          11 4 6 3 -1.</_>
        <_>
          13 4 2 3 3.</_></rects>
      <tilted>0</tilted></_>
    <_>
      <rects>
        <_>
          11 4 2 12 -1.</_>
        <_>
          11 8 2 4 3.</_></rects>
      <tilted>0</tilted></_>
    <_>
      <rects>
        <_>
          11 4 3 9 -1.</_>
        <_>
          11 7 3 3 3.</_></rects>
      <tilted>0</tilted></_>
    <_>
      <rects>
        <_>
          11 5 4 2 -1.</_>
        <_>
          11 6 4 1 2.</_></rects>
      <tilted>0</tilted></_>
    <_>
      <rects>
        <_>
          11 7 4 2 -1.</_>
        <_>
          11 7 2 1 2.</_>
        <_>
          13 8 2 1 2.</_></rects>
      <tilted>0</tilted></_>
    <_>
      <rects>
        <_>
          11 7 3 6 -1.</_>
        <_>
          11 9 3 2 3.</_></rects>
      <tilted>0</tilted></_>
    <_>
      <rects>
        <_>
          11 8 2 12 -1.</_>
        <_>
          12 8 1 12 2.</_></rects>
      <tilted>0</tilted></_>
    <_>
      <rects>
        <_>
          11 14 1 4 -1.</_>
        <_>
          11 16 1 2 2.</_></rects>
      <tilted>0</tilted></_>
    <_>
      <rects>
        <_>
          11 16 1 2 -1.</_>
        <_>
          11 17 1 1 2.</_></rects>
      <tilted>0</tilted></_>
    <_>
      <rects>
        <_>
          11 16 6 4 -1.</_>
        <_>
          11 16 3 2 2.</_>
        <_>
          14 18 3 2 2.</_></rects>
      <tilted>0</tilted></_>
    <_>
      <rects>
        <_>
          12 0 6 2 -1.</_>
        <_>
          12 1 6 1 2.</_></rects>
      <tilted>0</tilted></_>
    <_>
      <rects>
        <_>
          12 1 1 4 -1.</_>
        <_>
          12 3 1 2 2.</_></rects>
      <tilted>0</tilted></_>
    <_>
      <rects>
        <_>
          12 1 8 3 -1.</_>
        <_>
          12 2 8 1 3.</_></rects>
      <tilted>0</tilted></_>
    <_>
      <rects>
        <_>
          12 2 1 9 -1.</_>
        <_>
          12 5 1 3 3.</_></rects>
      <tilted>0</tilted></_>
    <_>
      <rects>
        <_>
          12 2 4 3 -1.</_>
        <_>
          14 2 2 3 2.</_></rects>
      <tilted>0</tilted></_>
    <_>
      <rects>
        <_>
          12 3 4 8 -1.</_>
        <_>
          12 3 2 4 2.</_>
        <_>
          14 7 2 4 2.</_></rects>
      <tilted>0</tilted></_>
    <_>
      <rects>
        <_>
          12 4 6 4 -1.</_>
        <_>
          14 4 2 4 3.</_></rects>
      <tilted>0</tilted></_>
    <_>
      <rects>
        <_>
          12 5 6 2 -1.</_>
        <_>
          14 5 2 2 3.</_></rects>
      <tilted>0</tilted></_>
    <_>
      <rects>
        <_>
          12 5 6 4 -1.</_>
        <_>
          12 5 3 2 2.</_>
        <_>
          15 7 3 2 2.</_></rects>
      <tilted>0</tilted></_>
    <_>
      <rects>
        <_>
          12 10 2 3 -1.</_>
        <_>
          12 11 2 1 3.</_></rects>
      <tilted>0</tilted></_>
    <_>
      <rects>
        <_>
          12 11 3 3 -1.</_>
        <_>
          13 11 1 3 3.</_></rects>
      <tilted>0</tilted></_>
    <_>
      <rects>
        <_>
          12 11 3 5 -1.</_>
        <_>
          13 11 1 5 3.</_></rects>
      <tilted>0</tilted></_>
    <_>
      <rects>
        <_>
          12 11 3 7 -1.</_>
        <_>
          13 11 1 7 3.</_></rects>
      <tilted>0</tilted></_>
    <_>
      <rects>
        <_>
          12 13 4 1 -1.</_>
        <_>
          14 13 2 1 2.</_></rects>
      <tilted>0</tilted></_>
    <_>
      <rects>
        <_>
          12 18 3 2 -1.</_>
        <_>
          13 18 1 2 3.</_></rects>
      <tilted>0</tilted></_>
    <_>
      <rects>
        <_>
          13 0 5 2 -1.</_>
        <_>
          13 1 5 1 2.</_></rects>
      <tilted>0</tilted></_>
    <_>
      <rects>
        <_>
          13 3 6 8 -1.</_>
        <_>
          13 3 3 4 2.</_>
        <_>
          16 7 3 4 2.</_></rects>
      <tilted>0</tilted></_>
    <_>
      <rects>
        <_>
          13 4 1 9 -1.</_>
        <_>
          13 7 1 3 3.</_></rects>
      <tilted>0</tilted></_>
    <_>
      <rects>
        <_>
          13 4 4 10 -1.</_>
        <_>
          13 4 2 5 2.</_>
        <_>
          15 9 2 5 2.</_></rects>
      <tilted>0</tilted></_>
    <_>
      <rects>
        <_>
          13 5 1 2 -1.</_>
        <_>
          13 6 1 1 2.</_></rects>
      <tilted>0</tilted></_>
    <_>
      <rects>
        <_>
          13 6 2 2 -1.</_>
        <_>
          13 6 1 1 2.</_>
        <_>
          14 7 1 1 2.</_></rects>
      <tilted>0</tilted></_>
    <_>
      <rects>
        <_>
          13 8 3 11 -1.</_>
        <_>
          14 8 1 11 3.</_></rects>
      <tilted>0</tilted></_>
    <_>
      <rects>
        <_>
          13 8 7 9 -1.</_>
        <_>
          13 11 7 3 3.</_></rects>
      <tilted>0</tilted></_>
    <_>
      <rects>
        <_>
          13 12 3 7 -1.</_>
        <_>
          14 12 1 7 3.</_></rects>
      <tilted>0</tilted></_>
    <_>
      <rects>
        <_>
          13 13 3 2 -1.</_>
        <_>
          14 13 1 2 3.</_></rects>
      <tilted>0</tilted></_>
    <_>
      <rects>
        <_>
          13 14 1 6 -1.</_>
        <_>
          13 16 1 2 3.</_></rects>
      <tilted>0</tilted></_>
    <_>
      <rects>
        <_>
          13 14 2 4 -1.</_>
        <_>
          13 14 1 2 2.</_>
        <_>
          14 16 1 2 2.</_></rects>
      <tilted>0</tilted></_>
    <_>
      <rects>
        <_>
          13 14 4 6 -1.</_>
        <_>
          13 14 2 3 2.</_>
        <_>
          15 17 2 3 2.</_></rects>
      <tilted>0</tilted></_>
    <_>
      <rects>
        <_>
          14 0 6 3 -1.</_>
        <_>
          17 0 3 3 2.</_></rects>
      <tilted>0</tilted></_>
    <_>
      <rects>
        <_>
          14 2 6 2 -1.</_>
        <_>
          17 2 3 2 2.</_></rects>
      <tilted>0</tilted></_>
    <_>
      <rects>
        <_>
          14 2 5 3 -1.</_>
        <_>
          14 3 5 1 3.</_></rects>
      <tilted>0</tilted></_>
    <_>
      <rects>
        <_>
          14 9 1 6 -1.</_>
        <_>
          14 12 1 3 2.</_></rects>
      <tilted>0</tilted></_>
    <_>
      <rects>
        <_>
          14 9 3 3 -1.</_>
        <_>
          15 9 1 3 3.</_></rects>
      <tilted>0</tilted></_>
    <_>
      <rects>
        <_>
          14 9 2 10 -1.</_>
        <_>
          14 9 1 5 2.</_>
        <_>
          15 14 1 5 2.</_></rects>
      <tilted>0</tilted></_>
    <_>
      <rects>
        <_>
          14 9 2 6 -1.</_>
        <_>
          14 12 2 3 2.</_></rects>
      <tilted>0</tilted></_>
    <_>
      <rects>
        <_>
          14 11 2 4 -1.</_>
        <_>
          14 13 2 2 2.</_></rects>
      <tilted>0</tilted></_>
    <_>
      <rects>
        <_>
          14 11 3 3 -1.</_>
        <_>
          14 12 3 1 3.</_></rects>
      <tilted>0</tilted></_>
    <_>
      <rects>
        <_>
          14 13 6 5 -1.</_>
        <_>
          16 13 2 5 3.</_></rects>
      <tilted>0</tilted></_>
    <_>
      <rects>
        <_>
          14 15 3 3 -1.</_>
        <_>
          15 15 1 3 3.</_></rects>
      <tilted>0</tilted></_>
    <_>
      <rects>
        <_>
          14 15 4 1 -1.</_>
        <_>
          16 15 2 1 2.</_></rects>
      <tilted>0</tilted></_>
    <_>
      <rects>
        <_>
          15 11 1 2 -1.</_>
        <_>
          15 12 1 1 2.</_></rects>
      <tilted>0</tilted></_>
    <_>
      <rects>
        <_>
          15 13 3 6 -1.</_>
        <_>
          16 13 1 6 3.</_></rects>
      <tilted>0</tilted></_>
    <_>
      <rects>
        <_>
          16 1 1 3 -1.</_>
        <_>
          16 2 1 1 3.</_></rects>
      <tilted>0</tilted></_>
    <_>
      <rects>
        <_>
          16 6 3 6 -1.</_>
        <_>
          16 8 3 2 3.</_></rects>
      <tilted>0</tilted></_>
    <_>
      <rects>
        <_>
          16 11 4 8 -1.</_>
        <_>
          18 11 2 8 2.</_></rects>
      <tilted>0</tilted></_>
    <_>
      <rects>
        <_>
          17 9 2 10 -1.</_>
        <_>
          17 9 1 5 2.</_>
        <_>
          18 14 1 5 2.</_></rects>
      <tilted>0</tilted></_>
    <_>
      <rects>
        <_>
          17 9 3 10 -1.</_>
        <_>
          18 9 1 10 3.</_></rects>
      <tilted>0</tilted></_>
    <_>
      <rects>
        <_>
          17 10 3 7 -1.</_>
        <_>
          18 10 1 7 3.</_></rects>
      <tilted>0</tilted></_>
    <_>
      <rects>
        <_>
          18 1 2 15 -1.</_>
        <_>
          18 6 2 5 3.</_></rects>
      <tilted>0</tilted></_>
    <_>
      <rects>
        <_>
          18 4 2 9 -1.</_>
        <_>
          18 7 2 3 3.</_></rects>
      <tilted>0</tilted></_>
    <_>
      <rects>
        <_>
          18 8 2 3 -1.</_>
        <_>
          18 9 2 1 3.</_></rects>
      <tilted>0</tilted></_>
    <_>
      <rects>
        <_>
          18 9 2 4 -1.</_>
        <_>
          18 11 2 2 2.</_></rects>
      <tilted>0</tilted></_>
    <_>
      <rects>
        <_>
          18 10 2 9 -1.</_>
        <_>
          18 13 2 3 3.</_></rects>
      <tilted>0</tilted></_>
    <_>
      <rects>
        <_>
          19 3 1 12 -1.</_>
        <_>
          19 7 1 4 3.</_></rects>
      <tilted>0</tilted></_>
    <_>
      <rects>
        <_>
          19 8 1 6 -1.</_>
        <_>
          19 10 1 2 3.</_></rects>
      <tilted>0</tilted></_></features></cascade>
</opencv_storage>
