<?xml version="1.0"?>
<opencv_storage>
<cascade>
  <stageType>BOOST</stageType>
  <featureType>HAAR</featureType>
  <height>40</height>
  <width>40</width>
  <stageParams>
    <boostType>GAB</boostType>
    <minHitRate>9.9500000476837158e-01</minHitRate>
    <maxFalseAlarm>4.0000000596046448e-01</maxFalseAlarm>
    <weightTrimRate>9.4999999999999996e-01</weightTrimRate>
    <maxDepth>1</maxDepth>
    <maxWeakCount>100</maxWeakCount></stageParams>
  <featureParams>
    <maxCatCount>0</maxCatCount>
    <featSize>1</featSize>
    <mode>BASIC</mode></featureParams>
  <stageNum>17</stageNum>
  <stages>
    <!-- stage 0 -->
    <_>
      <maxWeakCount>7</maxWeakCount>
      <stageThreshold>-7.4932038784027100e-01</stageThreshold>
      <weakClassifiers>
        <_>
          <internalNodes>
            0 -1 0 -3.5789199173450470e-02</internalNodes>
          <leafValues>
            9.1596639156341553e-01 -4.9425286054611206e-01</leafValues></_>
        <_>
          <internalNodes>
            0 -1 54 4.8730862326920033e-03</internalNodes>
          <leafValues>
            6.1176258325576782e-01 -7.1187353134155273e-01</leafValues></_>
        <_>
          <internalNodes>
            0 -1 2 -1.4362024143338203e-02</internalNodes>
          <leafValues>
            6.3598227500915527e-01 -5.2376848459243774e-01</leafValues></_>
        <_>
          <internalNodes>
            0 -1 94 4.5886971056461334e-02</internalNodes>
          <leafValues>
            -3.7054446339607239e-01 8.7391698360443115e-01</leafValues></_>
        <_>
          <internalNodes>
            0 -1 119 1.5953440219163895e-02</internalNodes>
          <leafValues>
            -3.1016558408737183e-01 8.3031845092773438e-01</leafValues></_>
        <_>
          <internalNodes>
            0 -1 116 -2.3551729973405600e-03</internalNodes>
          <leafValues>
            6.4754807949066162e-01 -4.3125200271606445e-01</leafValues></_>
        <_>
          <internalNodes>
            0 -1 18 -3.1229402869939804e-02</internalNodes>
          <leafValues>
            9.5205253362655640e-01 -2.7616584300994873e-01</leafValues></_></weakClassifiers></_>
    <!-- stage 1 -->
    <_>
      <maxWeakCount>7</maxWeakCount>
      <stageThreshold>-1.0113675594329834e+00</stageThreshold>
      <weakClassifiers>
        <_>
          <internalNodes>
            0 -1 59 -3.5310056060552597e-02</internalNodes>
          <leafValues>
            5.5405408143997192e-01 -4.3965518474578857e-01</leafValues></_>
        <_>
          <internalNodes>
            0 -1 82 -3.9574645459651947e-02</internalNodes>
          <leafValues>
            6.9949656724929810e-01 -3.0205273628234863e-01</leafValues></_>
        <_>
          <internalNodes>
            0 -1 109 -1.1518815532326698e-02</internalNodes>
          <leafValues>
            6.3382160663604736e-01 -5.0729185342788696e-01</leafValues></_>
        <_>
          <internalNodes>
            0 -1 20 -2.1595422178506851e-02</internalNodes>
          <leafValues>
            6.9210517406463623e-01 -3.2746413350105286e-01</leafValues></_>
        <_>
          <internalNodes>
            0 -1 108 -2.9721804894506931e-03</internalNodes>
          <leafValues>
            -9.2690503597259521e-01 2.5923585891723633e-01</leafValues></_>
        <_>
          <internalNodes>
            0 -1 23 -2.4770962074398994e-02</internalNodes>
          <leafValues>
            7.3573881387710571e-01 -3.2987141609191895e-01</leafValues></_>
        <_>
          <internalNodes>
            0 -1 52 -7.7046561054885387e-03</internalNodes>
          <leafValues>
            6.5358692407608032e-01 -3.6581739783287048e-01</leafValues></_></weakClassifiers></_>
    <!-- stage 2 -->
    <_>
      <maxWeakCount>3</maxWeakCount>
      <stageThreshold>-3.5971564054489136e-01</stageThreshold>
      <weakClassifiers>
        <_>
          <internalNodes>
            0 -1 56 -8.3826491609215736e-03</internalNodes>
          <leafValues>
            7.0700639486312866e-01 -5.8744394779205322e-01</leafValues></_>
        <_>
          <internalNodes>
            0 -1 132 1.3831560499966145e-02</internalNodes>
          <leafValues>
            -4.1115933656692505e-01 7.0537328720092773e-01</leafValues></_>
        <_>
          <internalNodes>
            0 -1 32 2.6688668876886368e-02</internalNodes>
          <leafValues>
            -4.4731473922729492e-01 6.3888764381408691e-01</leafValues></_></weakClassifiers></_>
    <!-- stage 3 -->
    <_>
      <maxWeakCount>6</maxWeakCount>
      <stageThreshold>-8.0390405654907227e-01</stageThreshold>
      <weakClassifiers>
        <_>
          <internalNodes>
            0 -1 14 5.1625020569190383e-04</internalNodes>
          <leafValues>
            2.2857142984867096e-01 -8.3999997377395630e-01</leafValues></_>
        <_>
          <internalNodes>
            0 -1 115 -1.0558548383414745e-03</internalNodes>
          <leafValues>
            -9.3126708269119263e-01 1.7069916427135468e-01</leafValues></_>
        <_>
          <internalNodes>
            0 -1 83 7.3716165497899055e-03</internalNodes>
          <leafValues>
            -3.8540339469909668e-01 5.8512920141220093e-01</leafValues></_>
        <_>
          <internalNodes>
            0 -1 53 1.9999327138066292e-02</internalNodes>
          <leafValues>
            -2.4912193417549133e-01 8.7485712766647339e-01</leafValues></_>
        <_>
          <internalNodes>
            0 -1 68 -1.0831606341525912e-03</internalNodes>
          <leafValues>
            -8.3341091871261597e-01 3.1449982523918152e-01</leafValues></_>
        <_>
          <internalNodes>
            0 -1 92 -7.0385891012847424e-04</internalNodes>
          <leafValues>
            -9.4880390167236328e-01 2.1881711483001709e-01</leafValues></_></weakClassifiers></_>
    <!-- stage 4 -->
    <_>
      <maxWeakCount>8</maxWeakCount>
      <stageThreshold>-6.6888511180877686e-01</stageThreshold>
      <weakClassifiers>
        <_>
          <internalNodes>
            0 -1 65 -1.5401173382997513e-02</internalNodes>
          <leafValues>
            -6.8571430444717407e-01 3.1666666269302368e-01</leafValues></_>
        <_>
          <internalNodes>
            0 -1 61 2.2856464609503746e-02</internalNodes>
          <leafValues>
            -3.3806288242340088e-01 6.1135047674179077e-01</leafValues></_>
        <_>
          <internalNodes>
            0 -1 28 1.7201624810695648e-02</internalNodes>
          <leafValues>
            -2.6863983273506165e-01 7.6534378528594971e-01</leafValues></_>
        <_>
          <internalNodes>
            0 -1 123 -8.6955428123474121e-03</internalNodes>
          <leafValues>
            6.4225053787231445e-01 -2.8032448887825012e-01</leafValues></_>
        <_>
          <internalNodes>
            0 -1 84 5.0214659422636032e-03</internalNodes>
          <leafValues>
            -3.6968657374382019e-01 5.2656251192092896e-01</leafValues></_>
        <_>
          <internalNodes>
            0 -1 98 -8.0077501479536295e-04</internalNodes>
          <leafValues>
            6.8306189775466919e-01 -3.4256199002265930e-01</leafValues></_>
        <_>
          <internalNodes>
            0 -1 67 1.3507392723113298e-03</internalNodes>
          <leafValues>
            2.5697717070579529e-01 -8.9753150939941406e-01</leafValues></_>
        <_>
          <internalNodes>
            0 -1 31 -5.1859457045793533e-02</internalNodes>
          <leafValues>
            4.3655276298522949e-01 -4.7620216012001038e-01</leafValues></_></weakClassifiers></_>
    <!-- stage 5 -->
    <_>
      <maxWeakCount>7</maxWeakCount>
      <stageThreshold>-6.9843703508377075e-01</stageThreshold>
      <weakClassifiers>
        <_>
          <internalNodes>
            0 -1 4 -1.5094795264303684e-02</internalNodes>
          <leafValues>
            7.9166668653488159e-01 -3.3802816271781921e-01</leafValues></_>
        <_>
          <internalNodes>
            0 -1 44 -5.2584765944629908e-04</internalNodes>
          <leafValues>
            -8.7071102857589722e-01 2.6247748732566833e-01</leafValues></_>
        <_>
          <internalNodes>
            0 -1 114 1.2598415836691856e-02</internalNodes>
          <leafValues>
            -3.4567764401435852e-01 6.9668966531753540e-01</leafValues></_>
        <_>
          <internalNodes>
            0 -1 96 -8.7116309441626072e-04</internalNodes>
          <leafValues>
            -8.9580506086349487e-01 2.3123010993003845e-01</leafValues></_>
        <_>
          <internalNodes>
            0 -1 120 -4.9630727153271437e-04</internalNodes>
          <leafValues>
            -9.6163910627365112e-01 1.8173576891422272e-01</leafValues></_>
        <_>
          <internalNodes>
            0 -1 63 3.6446070298552513e-03</internalNodes>
          <leafValues>
            -3.9458462595939636e-01 5.1672172546386719e-01</leafValues></_>
        <_>
          <internalNodes>
            0 -1 130 6.7150047980248928e-03</internalNodes>
          <leafValues>
            -2.9558998346328735e-01 6.8428528308868408e-01</leafValues></_></weakClassifiers></_>
    <!-- stage 6 -->
    <_>
      <maxWeakCount>9</maxWeakCount>
      <stageThreshold>-3.9179566502571106e-01</stageThreshold>
      <weakClassifiers>
        <_>
          <internalNodes>
            0 -1 69 -1.3505999231711030e-03</internalNodes>
          <leafValues>
            3.4246575832366943e-01 -5.9006214141845703e-01</leafValues></_>
        <_>
          <internalNodes>
            0 -1 112 -2.3972345516085625e-02</internalNodes>
          <leafValues>
            5.7838761806488037e-01 -3.8615363836288452e-01</leafValues></_>
        <_>
          <internalNodes>
            0 -1 113 -7.8851921716704965e-04</internalNodes>
          <leafValues>
            -7.7888989448547363e-01 2.4304224550724030e-01</leafValues></_>
        <_>
          <internalNodes>
            0 -1 11 -2.5368467904627323e-03</internalNodes>
          <leafValues>
            -6.7708903551101685e-01 2.7676120400428772e-01</leafValues></_>
        <_>
          <internalNodes>
            0 -1 87 3.7996782921254635e-03</internalNodes>
          <leafValues>
            1.7508010566234589e-01 -9.5790535211563110e-01</leafValues></_>
        <_>
          <internalNodes>
            0 -1 22 1.0974332690238953e-02</internalNodes>
          <leafValues>
            -3.2345226407051086e-01 7.4068433046340942e-01</leafValues></_>
        <_>
          <internalNodes>
            0 -1 8 -1.7300587147474289e-02</internalNodes>
          <leafValues>
            7.1312969923019409e-01 -3.8190582394599915e-01</leafValues></_>
        <_>
          <internalNodes>
            0 -1 85 -8.6224591359496117e-04</internalNodes>
          <leafValues>
            -7.5876444578170776e-01 2.9354071617126465e-01</leafValues></_>
        <_>
          <internalNodes>
            0 -1 97 -5.7539343833923340e-03</internalNodes>
          <leafValues>
            4.2113116383552551e-01 -4.9300974607467651e-01</leafValues></_></weakClassifiers></_>
    <!-- stage 7 -->
    <_>
      <maxWeakCount>10</maxWeakCount>
      <stageThreshold>-7.5217247009277344e-01</stageThreshold>
      <weakClassifiers>
        <_>
          <internalNodes>
            0 -1 51 -2.7639089152216911e-02</internalNodes>
          <leafValues>
            6.9230771064758301e-01 -2.8719723224639893e-01</leafValues></_>
        <_>
          <internalNodes>
            0 -1 71 1.2622617185115814e-02</internalNodes>
          <leafValues>
            -3.1662842631340027e-01 5.7879340648651123e-01</leafValues></_>
        <_>
          <internalNodes>
            0 -1 29 1.1770897544920444e-03</internalNodes>
          <leafValues>
            2.0911261439323425e-01 -8.5380750894546509e-01</leafValues></_>
        <_>
          <internalNodes>
            0 -1 57 -3.0894270166754723e-03</internalNodes>
          <leafValues>
            4.7165077924728394e-01 -3.6843052506446838e-01</leafValues></_>
        <_>
          <internalNodes>
            0 -1 66 -4.1286416351795197e-02</internalNodes>
          <leafValues>
            6.6779381036758423e-01 -2.9628995060920715e-01</leafValues></_>
        <_>
          <internalNodes>
            0 -1 26 -3.0991830863058567e-04</internalNodes>
          <leafValues>
            -5.7754987478256226e-01 3.3557721972465515e-01</leafValues></_>
        <_>
          <internalNodes>
            0 -1 106 -1.1112554930150509e-03</internalNodes>
          <leafValues>
            -8.9257711172103882e-01 2.1213907003402710e-01</leafValues></_>
        <_>
          <internalNodes>
            0 -1 102 -9.0472158044576645e-03</internalNodes>
          <leafValues>
            6.7784953117370605e-01 -3.2334193587303162e-01</leafValues></_>
        <_>
          <internalNodes>
            0 -1 64 1.6624376177787781e-02</internalNodes>
          <leafValues>
            -2.0759466290473938e-01 9.1068643331527710e-01</leafValues></_>
        <_>
          <internalNodes>
            0 -1 36 8.3743870258331299e-02</internalNodes>
          <leafValues>
            3.6352711915969849e-01 -7.2333985567092896e-01</leafValues></_></weakClassifiers></_>
    <!-- stage 8 -->
    <_>
      <maxWeakCount>10</maxWeakCount>
      <stageThreshold>-5.9459263086318970e-01</stageThreshold>
      <weakClassifiers>
        <_>
          <internalNodes>
            0 -1 89 4.8803463578224182e-03</internalNodes>
          <leafValues>
            -3.7007874250411987e-01 5.8730161190032959e-01</leafValues></_>
        <_>
          <internalNodes>
            0 -1 125 1.5227112919092178e-02</internalNodes>
          <leafValues>
            -3.7737116217613220e-01 6.3104957342147827e-01</leafValues></_>
        <_>
          <internalNodes>
            0 -1 129 -7.4942479841411114e-03</internalNodes>
          <leafValues>
            7.9700934886932373e-01 -2.9840433597564697e-01</leafValues></_>
        <_>
          <internalNodes>
            0 -1 6 -1.1239550076425076e-03</internalNodes>
          <leafValues>
            -7.7036678791046143e-01 3.2241040468215942e-01</leafValues></_>
        <_>
          <internalNodes>
            0 -1 1 -1.2108578812330961e-03</internalNodes>
          <leafValues>
            -7.4029576778411865e-01 2.4798837304115295e-01</leafValues></_>
        <_>
          <internalNodes>
            0 -1 99 4.9083549529314041e-02</internalNodes>
          <leafValues>
            -3.6723765730857849e-01 6.9715732336044312e-01</leafValues></_>
        <_>
          <internalNodes>
            0 -1 27 4.2149856686592102e-02</internalNodes>
          <leafValues>
            -2.3823879659175873e-01 6.8209505081176758e-01</leafValues></_>
        <_>
          <internalNodes>
            0 -1 9 -7.3667056858539581e-04</internalNodes>
          <leafValues>
            -6.6811490058898926e-01 3.2404401898384094e-01</leafValues></_>
        <_>
          <internalNodes>
            0 -1 86 -5.2762823179364204e-03</internalNodes>
          <leafValues>
            6.2941682338714600e-01 -3.1073939800262451e-01</leafValues></_>
        <_>
          <internalNodes>
            0 -1 95 -6.1664758250117302e-03</internalNodes>
          <leafValues>
            5.0393843650817871e-01 -3.7254959344863892e-01</leafValues></_></weakClassifiers></_>
    <!-- stage 9 -->
    <_>
      <maxWeakCount>10</maxWeakCount>
      <stageThreshold>-5.2159655094146729e-01</stageThreshold>
      <weakClassifiers>
        <_>
          <internalNodes>
            0 -1 17 -1.6904015094041824e-02</internalNodes>
          <leafValues>
            6.1061948537826538e-01 -3.3333334326744080e-01</leafValues></_>
        <_>
          <internalNodes>
            0 -1 62 9.3957968056201935e-04</internalNodes>
          <leafValues>
            -2.3568892478942871e-01 6.4133119583129883e-01</leafValues></_>
        <_>
          <internalNodes>
            0 -1 133 9.8033843096345663e-04</internalNodes>
          <leafValues>
            1.6373969614505768e-01 -9.3844026327133179e-01</leafValues></_>
        <_>
          <internalNodes>
            0 -1 90 2.3583439178764820e-03</internalNodes>
          <leafValues>
            -4.0474259853363037e-01 3.4665063023567200e-01</leafValues></_>
        <_>
          <internalNodes>
            0 -1 45 -3.7402049638330936e-03</internalNodes>
          <leafValues>
            6.5881156921386719e-01 -2.3964050412178040e-01</leafValues></_>
        <_>
          <internalNodes>
            0 -1 100 -1.5027169138193130e-03</internalNodes>
          <leafValues>
            -9.6751177310943604e-01 1.4505490660667419e-01</leafValues></_>
        <_>
          <internalNodes>
            0 -1 47 -8.0111883580684662e-03</internalNodes>
          <leafValues>
            5.2425700426101685e-01 -3.1531476974487305e-01</leafValues></_>
        <_>
          <internalNodes>
            0 -1 127 5.6355574633926153e-04</internalNodes>
          <leafValues>
            -2.0841574668884277e-01 7.4186360836029053e-01</leafValues></_>
        <_>
          <internalNodes>
            0 -1 58 -5.1374989561736584e-03</internalNodes>
          <leafValues>
            4.3194222450256348e-01 -3.9005094766616821e-01</leafValues></_>
        <_>
          <internalNodes>
            0 -1 101 -6.4188754186034203e-03</internalNodes>
          <leafValues>
            6.3401484489440918e-01 -2.7659076452255249e-01</leafValues></_></weakClassifiers></_>
    <!-- stage 10 -->
    <_>
      <maxWeakCount>11</maxWeakCount>
      <stageThreshold>-5.1938712596893311e-01</stageThreshold>
      <weakClassifiers>
        <_>
          <internalNodes>
            0 -1 21 -1.8637157976627350e-02</internalNodes>
          <leafValues>
            6.8292683362960815e-01 -2.5503355264663696e-01</leafValues></_>
        <_>
          <internalNodes>
            0 -1 24 -2.4029407650232315e-03</internalNodes>
          <leafValues>
            -7.8058153390884399e-01 2.0674258470535278e-01</leafValues></_>
        <_>
          <internalNodes>
            0 -1 78 -5.7493487838655710e-04</internalNodes>
          <leafValues>
            -7.4325847625732422e-01 1.7984801530838013e-01</leafValues></_>
        <_>
          <internalNodes>
            0 -1 5 -2.1407469175755978e-03</internalNodes>
          <leafValues>
            -7.7086663246154785e-01 1.7395457625389099e-01</leafValues></_>
        <_>
          <internalNodes>
            0 -1 60 -3.6549866199493408e-03</internalNodes>
          <leafValues>
            4.0880987048149109e-01 -3.7291812896728516e-01</leafValues></_>
        <_>
          <internalNodes>
            0 -1 135 1.3555749319493771e-03</internalNodes>
          <leafValues>
            2.3613703250885010e-01 -6.2740951776504517e-01</leafValues></_>
        <_>
          <internalNodes>
            0 -1 76 -4.0753971552476287e-04</internalNodes>
          <leafValues>
            -7.0444792509078979e-01 2.2236739099025726e-01</leafValues></_>
        <_>
          <internalNodes>
            0 -1 3 -2.4211533367633820e-02</internalNodes>
          <leafValues>
            4.3524804711341858e-01 -3.5877916216850281e-01</leafValues></_>
        <_>
          <internalNodes>
            0 -1 105 -1.3553064782172441e-03</internalNodes>
          <leafValues>
            -8.7082767486572266e-01 1.7930330336093903e-01</leafValues></_>
        <_>
          <internalNodes>
            0 -1 72 -1.6481637954711914e-02</internalNodes>
          <leafValues>
            7.9756563901901245e-01 -2.4208346009254456e-01</leafValues></_>
        <_>
          <internalNodes>
            0 -1 46 6.1243258416652679e-02</internalNodes>
          <leafValues>
            -2.2052268683910370e-01 6.4936268329620361e-01</leafValues></_></weakClassifiers></_>
    <!-- stage 11 -->
    <_>
      <maxWeakCount>9</maxWeakCount>
      <stageThreshold>-6.6563814878463745e-01</stageThreshold>
      <weakClassifiers>
        <_>
          <internalNodes>
            0 -1 42 -7.0465147495269775e-02</internalNodes>
          <leafValues>
            6.3157892227172852e-01 -3.4586465358734131e-01</leafValues></_>
        <_>
          <internalNodes>
            0 -1 77 5.1925864070653915e-02</internalNodes>
          <leafValues>
            -2.1576771140098572e-01 7.1700108051300049e-01</leafValues></_>
        <_>
          <internalNodes>
            0 -1 39 -1.2336368858814240e-01</internalNodes>
          <leafValues>
            7.0656079053878784e-01 -2.2573396563529968e-01</leafValues></_>
        <_>
          <internalNodes>
            0 -1 48 3.2272762618958950e-03</internalNodes>
          <leafValues>
            -3.3845639228820801e-01 5.2488636970520020e-01</leafValues></_>
        <_>
          <internalNodes>
            0 -1 41 -3.1876407563686371e-02</internalNodes>
          <leafValues>
            -9.1043102741241455e-01 1.8479827046394348e-01</leafValues></_>
        <_>
          <internalNodes>
            0 -1 117 -8.2855811342597008e-04</internalNodes>
          <leafValues>
            -9.5668780803680420e-01 1.7234447598457336e-01</leafValues></_>
        <_>
          <internalNodes>
            0 -1 134 -3.8376319571398199e-04</internalNodes>
          <leafValues>
            -7.6987016201019287e-01 1.5128783881664276e-01</leafValues></_>
        <_>
          <internalNodes>
            0 -1 131 -7.1142641827464104e-03</internalNodes>
          <leafValues>
            7.1916991472244263e-01 -2.3187269270420074e-01</leafValues></_>
        <_>
          <internalNodes>
            0 -1 73 -2.7690771967172623e-03</internalNodes>
          <leafValues>
            -9.0382409095764160e-01 1.8362668156623840e-01</leafValues></_></weakClassifiers></_>
    <!-- stage 12 -->
    <_>
      <maxWeakCount>7</maxWeakCount>
      <stageThreshold>-6.9618159532546997e-01</stageThreshold>
      <weakClassifiers>
        <_>
          <internalNodes>
            0 -1 126 2.3615062236785889e-02</internalNodes>
          <leafValues>
            -3.1835207343101501e-01 5.7522124052047729e-01</leafValues></_>
        <_>
          <internalNodes>
            0 -1 103 1.4923845883458853e-03</internalNodes>
          <leafValues>
            -4.6210184693336487e-01 3.9681157469749451e-01</leafValues></_>
        <_>
          <internalNodes>
            0 -1 122 -1.0076296748593450e-03</internalNodes>
          <leafValues>
            -8.9707255363464355e-01 1.9963200390338898e-01</leafValues></_>
        <_>
          <internalNodes>
            0 -1 15 -2.0197806879878044e-03</internalNodes>
          <leafValues>
            -7.0558249950408936e-01 2.2990174591541290e-01</leafValues></_>
        <_>
          <internalNodes>
            0 -1 88 5.2737868390977383e-03</internalNodes>
          <leafValues>
            -2.2054933011531830e-01 8.5370171070098877e-01</leafValues></_>
        <_>
          <internalNodes>
            0 -1 74 -1.1732273735105991e-02</internalNodes>
          <leafValues>
            6.0020995140075684e-01 -3.1625038385391235e-01</leafValues></_>
        <_>
          <internalNodes>
            0 -1 19 8.2787999417632818e-04</internalNodes>
          <leafValues>
            2.3344923555850983e-01 -9.0441977977752686e-01</leafValues></_></weakClassifiers></_>
    <!-- stage 13 -->
    <_>
      <maxWeakCount>8</maxWeakCount>
      <stageThreshold>-8.9360177516937256e-01</stageThreshold>
      <weakClassifiers>
        <_>
          <internalNodes>
            0 -1 91 5.0424668006598949e-04</internalNodes>
          <leafValues>
            -4.4954127073287964e-01 4.8148149251937866e-01</leafValues></_>
        <_>
          <internalNodes>
            0 -1 80 1.0535787791013718e-02</internalNodes>
          <leafValues>
            -3.1849494576454163e-01 6.3908398151397705e-01</leafValues></_>
        <_>
          <internalNodes>
            0 -1 111 -6.6131120547652245e-03</internalNodes>
          <leafValues>
            5.4860109090805054e-01 -3.6548087000846863e-01</leafValues></_>
        <_>
          <internalNodes>
            0 -1 10 -1.0581124573945999e-02</internalNodes>
          <leafValues>
            6.4245504140853882e-01 -3.0481833219528198e-01</leafValues></_>
        <_>
          <internalNodes>
            0 -1 25 -2.1243609953671694e-03</internalNodes>
          <leafValues>
            6.8560552597045898e-01 -2.7662047743797302e-01</leafValues></_>
        <_>
          <internalNodes>
            0 -1 75 -7.2800577618181705e-04</internalNodes>
          <leafValues>
            -7.4878811836242676e-01 3.1763884425163269e-01</leafValues></_>
        <_>
          <internalNodes>
            0 -1 16 -4.2146611958742142e-03</internalNodes>
          <leafValues>
            -7.0498985052108765e-01 2.7568969130516052e-01</leafValues></_>
        <_>
          <internalNodes>
            0 -1 43 -2.8730783378705382e-04</internalNodes>
          <leafValues>
            -6.7989653348922729e-01 2.9352888464927673e-01</leafValues></_></weakClassifiers></_>
    <!-- stage 14 -->
    <_>
      <maxWeakCount>8</maxWeakCount>
      <stageThreshold>-4.6843293309211731e-01</stageThreshold>
      <weakClassifiers>
        <_>
          <internalNodes>
            0 -1 13 -5.2856840193271637e-04</internalNodes>
          <leafValues>
            -8.5321098566055298e-01 2.6937270164489746e-01</leafValues></_>
        <_>
          <internalNodes>
            0 -1 50 4.9955403665080667e-04</internalNodes>
          <leafValues>
            -3.8313743472099304e-01 5.6290668249130249e-01</leafValues></_>
        <_>
          <internalNodes>
            0 -1 12 2.2633735090494156e-02</internalNodes>
          <leafValues>
            -2.7664127945899963e-01 7.9944556951522827e-01</leafValues></_>
        <_>
          <internalNodes>
            0 -1 124 1.7548644682392478e-03</internalNodes>
          <leafValues>
            2.4631527066230774e-01 -9.0265035629272461e-01</leafValues></_>
        <_>
          <internalNodes>
            0 -1 79 7.1384180337190628e-03</internalNodes>
          <leafValues>
            -2.3431892693042755e-01 8.9980798959732056e-01</leafValues></_>
        <_>
          <internalNodes>
            0 -1 35 6.0448590666055679e-03</internalNodes>
          <leafValues>
            -2.1682336926460266e-01 7.7583938837051392e-01</leafValues></_>
        <_>
          <internalNodes>
            0 -1 93 -3.5664201714098454e-03</internalNodes>
          <leafValues>
            7.7865922451019287e-01 -2.3744894564151764e-01</leafValues></_>
        <_>
          <internalNodes>
            0 -1 107 -1.5154456195887178e-04</internalNodes>
          <leafValues>
            -5.6818491220474243e-01 3.6424902081489563e-01</leafValues></_></weakClassifiers></_>
    <!-- stage 15 -->
    <_>
      <maxWeakCount>7</maxWeakCount>
      <stageThreshold>-4.5611968636512756e-01</stageThreshold>
      <weakClassifiers>
        <_>
          <internalNodes>
            0 -1 81 8.3088707178831100e-03</internalNodes>
          <leafValues>
            -2.7777779102325439e-01 6.5217393636703491e-01</leafValues></_>
        <_>
          <internalNodes>
            0 -1 104 7.6752685708925128e-04</internalNodes>
          <leafValues>
            2.1130374073982239e-01 -7.6785129308700562e-01</leafValues></_>
        <_>
          <internalNodes>
            0 -1 38 1.6959016211330891e-03</internalNodes>
          <leafValues>
            -1.9732083380222321e-01 8.3893376588821411e-01</leafValues></_>
        <_>
          <internalNodes>
            0 -1 70 3.0423150747083127e-04</internalNodes>
          <leafValues>
            -3.8596305251121521e-01 4.1066426038742065e-01</leafValues></_>
        <_>
          <internalNodes>
            0 -1 121 5.1951815839856863e-04</internalNodes>
          <leafValues>
            -2.1216884255409241e-01 7.2266483306884766e-01</leafValues></_>
        <_>
          <internalNodes>
            0 -1 37 1.0099869221448898e-02</internalNodes>
          <leafValues>
            -2.0398609340190887e-01 8.6094844341278076e-01</leafValues></_>
        <_>
          <internalNodes>
            0 -1 40 9.0724844485521317e-03</internalNodes>
          <leafValues>
            -1.8683414161205292e-01 8.3378070592880249e-01</leafValues></_></weakClassifiers></_>
    <!-- stage 16 -->
    <_>
      <maxWeakCount>9</maxWeakCount>
      <stageThreshold>-4.8068875074386597e-01</stageThreshold>
      <weakClassifiers>
        <_>
          <internalNodes>
            0 -1 55 1.5491709113121033e-02</internalNodes>
          <leafValues>
            -4.0322580933570862e-01 6.0606062412261963e-01</leafValues></_>
        <_>
          <internalNodes>
            0 -1 118 2.4330515414476395e-02</internalNodes>
          <leafValues>
            -2.4447011947631836e-01 8.4721767902374268e-01</leafValues></_>
        <_>
          <internalNodes>
            0 -1 110 -3.4238805528730154e-04</internalNodes>
          <leafValues>
            -4.8998668789863586e-01 4.0573719143867493e-01</leafValues></_>
        <_>
          <internalNodes>
            0 -1 33 2.1459339186549187e-03</internalNodes>
          <leafValues>
            -3.1299337744712830e-01 6.3066697120666504e-01</leafValues></_>
        <_>
          <internalNodes>
            0 -1 34 -9.2563283396884799e-04</internalNodes>
          <leafValues>
            -9.3314880132675171e-01 2.3825189471244812e-01</leafValues></_>
        <_>
          <internalNodes>
            0 -1 128 -1.3292027870193124e-03</internalNodes>
          <leafValues>
            7.2083348035812378e-01 -3.5827466845512390e-01</leafValues></_>
        <_>
          <internalNodes>
            0 -1 49 1.6482564387843013e-04</internalNodes>
          <leafValues>
            -2.2428946197032928e-01 8.5031956434249878e-01</leafValues></_>
        <_>
          <internalNodes>
            0 -1 7 -1.2337829917669296e-02</internalNodes>
          <leafValues>
            7.9440814256668091e-01 -3.2532289624214172e-01</leafValues></_>
        <_>
          <internalNodes>
            0 -1 30 -6.1508798971772194e-03</internalNodes>
          <leafValues>
            9.5722538232803345e-01 -1.9976185262203217e-01</leafValues></_></weakClassifiers></_></stages>
  <features>
    <_>
      <rects>
        <_>
          0 0 35 14 -1.</_>
        <_>
          0 7 35 7 2.</_></rects>
      <tilted>0</tilted></_>
    <_>
      <rects>
        <_>
          0 1 29 3 -1.</_>
        <_>
          0 2 29 1 3.</_></rects>
      <tilted>0</tilted></_>
    <_>
      <rects>
        <_>
          0 5 12 31 -1.</_>
        <_>
          4 5 4 31 3.</_></rects>
      <tilted>0</tilted></_>
    <_>
      <rects>
        <_>
          0 15 12 13 -1.</_>
        <_>
          4 15 4 13 3.</_></rects>
      <tilted>0</tilted></_>
    <_>
      <rects>
        <_>
          0 18 10 6 -1.</_>
        <_>
          5 18 5 6 2.</_></rects>
      <tilted>0</tilted></_>
    <_>
      <rects>
        <_>
          0 18 6 6 -1.</_>
        <_>
          0 20 6 2 3.</_></rects>
      <tilted>0</tilted></_>
    <_>
      <rects>
        <_>
          0 21 3 6 -1.</_>
        <_>
          0 23 3 2 3.</_></rects>
      <tilted>0</tilted></_>
    <_>
      <rects>
        <_>
          0 21 8 13 -1.</_>
        <_>
          4 21 4 13 2.</_></rects>
      <tilted>0</tilted></_>
    <_>
      <rects>
        <_>
          0 21 10 9 -1.</_>
        <_>
          5 21 5 9 2.</_></rects>
      <tilted>0</tilted></_>
    <_>
      <rects>
        <_>
          0 21 12 2 -1.</_>
        <_>
          0 22 12 1 2.</_></rects>
      <tilted>0</tilted></_>
    <_>
      <rects>
        <_>
          0 22 16 7 -1.</_>
        <_>
          8 22 8 7 2.</_></rects>
      <tilted>0</tilted></_>
    <_>
      <rects>
        <_>
          0 22 17 6 -1.</_>
        <_>
          0 24 17 2 3.</_></rects>
      <tilted>0</tilted></_>
    <_>
      <rects>
        <_>
          0 26 18 14 -1.</_>
        <_>
          0 26 9 7 2.</_>
        <_>
          9 33 9 7 2.</_></rects>
      <tilted>0</tilted></_>
    <_>
      <rects>
        <_>
          0 36 1 4 -1.</_>
        <_>
          0 38 1 2 2.</_></rects>
      <tilted>0</tilted></_>
    <_>
      <rects>
        <_>
          0 36 2 4 -1.</_>
        <_>
          1 36 1 4 2.</_></rects>
      <tilted>0</tilted></_>
    <_>
      <rects>
        <_>
          0 38 31 2 -1.</_>
        <_>
          0 39 31 1 2.</_></rects>
      <tilted>0</tilted></_>
    <_>
      <rects>
        <_>
          1 1 33 1 -1.</_>
        <_>
          12 1 11 1 3.</_></rects>
      <tilted>0</tilted></_>
    <_>
      <rects>
        <_>
          1 9 6 21 -1.</_>
        <_>
          4 9 3 21 2.</_></rects>
      <tilted>0</tilted></_>
    <_>
      <rects>
        <_>
          1 10 10 16 -1.</_>
        <_>
          6 10 5 16 2.</_></rects>
      <tilted>0</tilted></_>
    <_>
      <rects>
        <_>
          1 12 9 3 -1.</_>
        <_>
          1 13 9 1 3.</_></rects>
      <tilted>0</tilted></_>
    <_>
      <rects>
        <_>
          1 15 12 16 -1.</_>
        <_>
          5 15 4 16 3.</_></rects>
      <tilted>0</tilted></_>
    <_>
      <rects>
        <_>
          1 17 8 7 -1.</_>
        <_>
          5 17 4 7 2.</_></rects>
      <tilted>0</tilted></_>
    <_>
      <rects>
        <_>
          2 4 8 20 -1.</_>
        <_>
          2 4 4 10 2.</_>
        <_>
          6 14 4 10 2.</_></rects>
      <tilted>0</tilted></_>
    <_>
      <rects>
        <_>
          2 13 8 14 -1.</_>
        <_>
          6 13 4 14 2.</_></rects>
      <tilted>0</tilted></_>
    <_>
      <rects>
        <_>
          2 16 9 6 -1.</_>
        <_>
          2 18 9 2 3.</_></rects>
      <tilted>0</tilted></_>
    <_>
      <rects>
        <_>
          2 20 6 14 -1.</_>
        <_>
          2 20 3 7 2.</_>
        <_>
          5 27 3 7 2.</_></rects>
      <tilted>0</tilted></_>
    <_>
      <rects>
        <_>
          2 20 10 3 -1.</_>
        <_>
          2 21 10 1 3.</_></rects>
      <tilted>0</tilted></_>
    <_>
      <rects>
        <_>
          2 20 22 17 -1.</_>
        <_>
          13 20 11 17 2.</_></rects>
      <tilted>0</tilted></_>
    <_>
      <rects>
        <_>
          4 15 8 9 -1.</_>
        <_>
          8 15 4 9 2.</_></rects>
      <tilted>0</tilted></_>
    <_>
      <rects>
        <_>
          4 23 8 3 -1.</_>
        <_>
          4 24 8 1 3.</_></rects>
      <tilted>0</tilted></_>
    <_>
      <rects>
        <_>
          4 32 12 6 -1.</_>
        <_>
          4 32 6 3 2.</_>
        <_>
          10 35 6 3 2.</_></rects>
      <tilted>0</tilted></_>
    <_>
      <rects>
        <_>
          5 0 31 21 -1.</_>
        <_>
          5 7 31 7 3.</_></rects>
      <tilted>0</tilted></_>
    <_>
      <rects>
        <_>
          5 5 18 23 -1.</_>
        <_>
          11 5 6 23 3.</_></rects>
      <tilted>0</tilted></_>
    <_>
      <rects>
        <_>
          5 13 4 18 -1.</_>
        <_>
          5 13 2 9 2.</_>
        <_>
          7 22 2 9 2.</_></rects>
      <tilted>0</tilted></_>
    <_>
      <rects>
        <_>
          5 16 6 3 -1.</_>
        <_>
          5 17 6 1 3.</_></rects>
      <tilted>0</tilted></_>
    <_>
      <rects>
        <_>
          6 3 22 8 -1.</_>
        <_>
          6 3 11 4 2.</_>
        <_>
          17 7 11 4 2.</_></rects>
      <tilted>0</tilted></_>
    <_>
      <rects>
        <_>
          6 11 30 22 -1.</_>
        <_>
          21 11 15 22 2.</_></rects>
      <tilted>0</tilted></_>
    <_>
      <rects>
        <_>
          6 14 4 12 -1.</_>
        <_>
          8 14 2 12 2.</_></rects>
      <tilted>0</tilted></_>
    <_>
      <rects>
        <_>
          6 26 4 6 -1.</_>
        <_>
          6 26 2 3 2.</_>
        <_>
          8 29 2 3 2.</_></rects>
      <tilted>0</tilted></_>
    <_>
      <rects>
        <_>
          7 7 33 24 -1.</_>
        <_>
          18 7 11 24 3.</_></rects>
      <tilted>0</tilted></_>
    <_>
      <rects>
        <_>
          7 11 14 8 -1.</_>
        <_>
          7 11 7 4 2.</_>
        <_>
          14 15 7 4 2.</_></rects>
      <tilted>0</tilted></_>
    <_>
      <rects>
        <_>
          7 17 28 4 -1.</_>
        <_>
          21 17 14 4 2.</_></rects>
      <tilted>0</tilted></_>
    <_>
      <rects>
        <_>
          8 0 22 14 -1.</_>
        <_>
          8 7 22 7 2.</_></rects>
      <tilted>0</tilted></_>
    <_>
      <rects>
        <_>
          8 14 4 3 -1.</_>
        <_>
          8 15 4 1 3.</_></rects>
      <tilted>0</tilted></_>
    <_>
      <rects>
        <_>
          8 15 4 3 -1.</_>
        <_>
          8 16 4 1 3.</_></rects>
      <tilted>0</tilted></_>
    <_>
      <rects>
        <_>
          8 19 6 12 -1.</_>
        <_>
          8 19 3 6 2.</_>
        <_>
          11 25 3 6 2.</_></rects>
      <tilted>0</tilted></_>
    <_>
      <rects>
        <_>
          8 23 26 16 -1.</_>
        <_>
          8 31 26 8 2.</_></rects>
      <tilted>0</tilted></_>
    <_>
      <rects>
        <_>
          8 29 14 10 -1.</_>
        <_>
          8 29 7 5 2.</_>
        <_>
          15 34 7 5 2.</_></rects>
      <tilted>0</tilted></_>
    <_>
      <rects>
        <_>
          9 12 3 15 -1.</_>
        <_>
          9 17 3 5 3.</_></rects>
      <tilted>0</tilted></_>
    <_>
      <rects>
        <_>
          9 23 3 2 -1.</_>
        <_>
          10 23 1 2 3.</_></rects>
      <tilted>0</tilted></_>
    <_>
      <rects>
        <_>
          9 32 18 2 -1.</_>
        <_>
          18 32 9 2 2.</_></rects>
      <tilted>0</tilted></_>
    <_>
      <rects>
        <_>
          10 26 20 12 -1.</_>
        <_>
          10 30 20 4 3.</_></rects>
      <tilted>0</tilted></_>
    <_>
      <rects>
        <_>
          10 31 21 9 -1.</_>
        <_>
          10 34 21 3 3.</_></rects>
      <tilted>0</tilted></_>
    <_>
      <rects>
        <_>
          10 31 22 6 -1.</_>
        <_>
          10 34 22 3 2.</_></rects>
      <tilted>0</tilted></_>
    <_>
      <rects>
        <_>
          11 0 29 4 -1.</_>
        <_>
          11 2 29 2 2.</_></rects>
      <tilted>0</tilted></_>
    <_>
      <rects>
        <_>
          11 11 14 26 -1.</_>
        <_>
          11 11 7 13 2.</_>
        <_>
          18 24 7 13 2.</_></rects>
      <tilted>0</tilted></_>
    <_>
      <rects>
        <_>
          11 17 18 5 -1.</_>
        <_>
          17 17 6 5 3.</_></rects>
      <tilted>0</tilted></_>
    <_>
      <rects>
        <_>
          11 20 8 5 -1.</_>
        <_>
          15 20 4 5 2.</_></rects>
      <tilted>0</tilted></_>
    <_>
      <rects>
        <_>
          11 22 12 4 -1.</_>
        <_>
          17 22 6 4 2.</_></rects>
      <tilted>0</tilted></_>
    <_>
      <rects>
        <_>
          12 0 19 18 -1.</_>
        <_>
          12 6 19 6 3.</_></rects>
      <tilted>0</tilted></_>
    <_>
      <rects>
        <_>
          12 24 10 5 -1.</_>
        <_>
          17 24 5 5 2.</_></rects>
      <tilted>0</tilted></_>
    <_>
      <rects>
        <_>
          12 32 27 8 -1.</_>
        <_>
          12 36 27 4 2.</_></rects>
      <tilted>0</tilted></_>
    <_>
      <rects>
        <_>
          13 8 1 6 -1.</_>
        <_>
          13 11 1 3 2.</_></rects>
      <tilted>0</tilted></_>
    <_>
      <rects>
        <_>
          13 23 5 12 -1.</_>
        <_>
          13 27 5 4 3.</_></rects>
      <tilted>0</tilted></_>
    <_>
      <rects>
        <_>
          13 29 16 6 -1.</_>
        <_>
          13 32 16 3 2.</_></rects>
      <tilted>0</tilted></_>
    <_>
      <rects>
        <_>
          14 7 12 28 -1.</_>
        <_>
          14 21 12 14 2.</_></rects>
      <tilted>0</tilted></_>
    <_>
      <rects>
        <_>
          14 22 17 18 -1.</_>
        <_>
          14 28 17 6 3.</_></rects>
      <tilted>0</tilted></_>
    <_>
      <rects>
        <_>
          14 23 3 16 -1.</_>
        <_>
          15 23 1 16 3.</_></rects>
      <tilted>0</tilted></_>
    <_>
      <rects>
        <_>
          14 24 3 14 -1.</_>
        <_>
          15 24 1 14 3.</_></rects>
      <tilted>0</tilted></_>
    <_>
      <rects>
        <_>
          15 21 12 10 -1.</_>
        <_>
          19 21 4 10 3.</_></rects>
      <tilted>0</tilted></_>
    <_>
      <rects>
        <_>
          15 26 5 6 -1.</_>
        <_>
          15 28 5 2 3.</_></rects>
      <tilted>0</tilted></_>
    <_>
      <rects>
        <_>
          15 26 9 12 -1.</_>
        <_>
          15 30 9 4 3.</_></rects>
      <tilted>0</tilted></_>
    <_>
      <rects>
        <_>
          15 30 9 6 -1.</_>
        <_>
          15 33 9 3 2.</_></rects>
      <tilted>0</tilted></_>
    <_>
      <rects>
        <_>
          16 2 6 8 -1.</_>
        <_>
          18 2 2 8 3.</_></rects>
      <tilted>0</tilted></_>
    <_>
      <rects>
        <_>
          16 4 7 12 -1.</_>
        <_>
          16 8 7 4 3.</_></rects>
      <tilted>0</tilted></_>
    <_>
      <rects>
        <_>
          16 5 3 9 -1.</_>
        <_>
          17 5 1 9 3.</_></rects>
      <tilted>0</tilted></_>
    <_>
      <rects>
        <_>
          16 30 3 5 -1.</_>
        <_>
          17 30 1 5 3.</_></rects>
      <tilted>0</tilted></_>
    <_>
      <rects>
        <_>
          17 14 21 8 -1.</_>
        <_>
          24 14 7 8 3.</_></rects>
      <tilted>0</tilted></_>
    <_>
      <rects>
        <_>
          17 32 2 8 -1.</_>
        <_>
          18 32 1 8 2.</_></rects>
      <tilted>0</tilted></_>
    <_>
      <rects>
        <_>
          17 32 18 4 -1.</_>
        <_>
          17 32 9 2 2.</_>
        <_>
          26 34 9 2 2.</_></rects>
      <tilted>0</tilted></_>
    <_>
      <rects>
        <_>
          17 32 11 8 -1.</_>
        <_>
          17 36 11 4 2.</_></rects>
      <tilted>0</tilted></_>
    <_>
      <rects>
        <_>
          17 34 8 6 -1.</_>
        <_>
          17 37 8 3 2.</_></rects>
      <tilted>0</tilted></_>
    <_>
      <rects>
        <_>
          18 0 8 16 -1.</_>
        <_>
          18 8 8 8 2.</_></rects>
      <tilted>0</tilted></_>
    <_>
      <rects>
        <_>
          18 30 22 6 -1.</_>
        <_>
          18 30 11 3 2.</_>
        <_>
          29 33 11 3 2.</_></rects>
      <tilted>0</tilted></_>
    <_>
      <rects>
        <_>
          19 18 3 18 -1.</_>
        <_>
          19 27 3 9 2.</_></rects>
      <tilted>0</tilted></_>
    <_>
      <rects>
        <_>
          19 25 3 8 -1.</_>
        <_>
          20 25 1 8 3.</_></rects>
      <tilted>0</tilted></_>
    <_>
      <rects>
        <_>
          19 27 3 12 -1.</_>
        <_>
          19 31 3 4 3.</_></rects>
      <tilted>0</tilted></_>
    <_>
      <rects>
        <_>
          19 30 6 9 -1.</_>
        <_>
          21 30 2 9 3.</_></rects>
      <tilted>0</tilted></_>
    <_>
      <rects>
        <_>
          20 5 9 9 -1.</_>
        <_>
          20 8 9 3 3.</_></rects>
      <tilted>0</tilted></_>
    <_>
      <rects>
        <_>
          20 17 8 4 -1.</_>
        <_>
          24 17 4 4 2.</_></rects>
      <tilted>0</tilted></_>
    <_>
      <rects>
        <_>
          20 17 14 4 -1.</_>
        <_>
          27 17 7 4 2.</_></rects>
      <tilted>0</tilted></_>
    <_>
      <rects>
        <_>
          20 27 16 6 -1.</_>
        <_>
          20 29 16 2 3.</_></rects>
      <tilted>0</tilted></_>
    <_>
      <rects>
        <_>
          20 29 3 8 -1.</_>
        <_>
          21 29 1 8 3.</_></rects>
      <tilted>0</tilted></_>
    <_>
      <rects>
        <_>
          21 5 8 4 -1.</_>
        <_>
          21 7 8 2 2.</_></rects>
      <tilted>0</tilted></_>
    <_>
      <rects>
        <_>
          21 10 15 19 -1.</_>
        <_>
          26 10 5 19 3.</_></rects>
      <tilted>0</tilted></_>
    <_>
      <rects>
        <_>
          21 22 10 12 -1.</_>
        <_>
          21 22 5 6 2.</_>
        <_>
          26 28 5 6 2.</_></rects>
      <tilted>0</tilted></_>
    <_>
      <rects>
        <_>
          21 28 3 12 -1.</_>
        <_>
          22 28 1 12 3.</_></rects>
      <tilted>0</tilted></_>
    <_>
      <rects>
        <_>
          21 29 14 5 -1.</_>
        <_>
          28 29 7 5 2.</_></rects>
      <tilted>0</tilted></_>
    <_>
      <rects>
        <_>
          22 8 1 9 -1.</_>
        <_>
          22 11 1 3 3.</_></rects>
      <tilted>0</tilted></_>
    <_>
      <rects>
        <_>
          22 8 16 22 -1.</_>
        <_>
          30 8 8 22 2.</_></rects>
      <tilted>0</tilted></_>
    <_>
      <rects>
        <_>
          24 23 3 17 -1.</_>
        <_>
          25 23 1 17 3.</_></rects>
      <tilted>0</tilted></_>
    <_>
      <rects>
        <_>
          24 26 3 12 -1.</_>
        <_>
          24 30 3 4 3.</_></rects>
      <tilted>0</tilted></_>
    <_>
      <rects>
        <_>
          24 28 5 8 -1.</_>
        <_>
          24 32 5 4 2.</_></rects>
      <tilted>0</tilted></_>
    <_>
      <rects>
        <_>
          25 16 9 24 -1.</_>
        <_>
          28 16 3 24 3.</_></rects>
      <tilted>0</tilted></_>
    <_>
      <rects>
        <_>
          25 19 5 2 -1.</_>
        <_>
          25 20 5 1 2.</_></rects>
      <tilted>0</tilted></_>
    <_>
      <rects>
        <_>
          25 21 3 19 -1.</_>
        <_>
          26 21 1 19 3.</_></rects>
      <tilted>0</tilted></_>
    <_>
      <rects>
        <_>
          26 21 3 19 -1.</_>
        <_>
          27 21 1 19 3.</_></rects>
      <tilted>0</tilted></_>
    <_>
      <rects>
        <_>
          27 18 3 11 -1.</_>
        <_>
          28 18 1 11 3.</_></rects>
      <tilted>0</tilted></_>
    <_>
      <rects>
        <_>
          27 20 13 6 -1.</_>
        <_>
          27 22 13 2 3.</_></rects>
      <tilted>0</tilted></_>
    <_>
      <rects>
        <_>
          27 22 10 8 -1.</_>
        <_>
          32 22 5 8 2.</_></rects>
      <tilted>0</tilted></_>
    <_>
      <rects>
        <_>
          28 0 3 31 -1.</_>
        <_>
          29 0 1 31 3.</_></rects>
      <tilted>0</tilted></_>
    <_>
      <rects>
        <_>
          28 6 6 31 -1.</_>
        <_>
          31 6 3 31 2.</_></rects>
      <tilted>0</tilted></_>
    <_>
      <rects>
        <_>
          28 6 12 24 -1.</_>
        <_>
          32 6 4 24 3.</_></rects>
      <tilted>0</tilted></_>
    <_>
      <rects>
        <_>
          28 19 9 3 -1.</_>
        <_>
          28 20 9 1 3.</_></rects>
      <tilted>0</tilted></_>
    <_>
      <rects>
        <_>
          28 23 10 12 -1.</_>
        <_>
          28 23 5 6 2.</_>
        <_>
          33 29 5 6 2.</_></rects>
      <tilted>0</tilted></_>
    <_>
      <rects>
        <_>
          29 19 10 3 -1.</_>
        <_>
          29 20 10 1 3.</_></rects>
      <tilted>0</tilted></_>
    <_>
      <rects>
        <_>
          29 23 8 3 -1.</_>
        <_>
          33 23 4 3 2.</_></rects>
      <tilted>0</tilted></_>
    <_>
      <rects>
        <_>
          29 23 8 3 -1.</_>
        <_>
          29 24 8 1 3.</_></rects>
      <tilted>0</tilted></_>
    <_>
      <rects>
        <_>
          30 8 10 14 -1.</_>
        <_>
          35 8 5 14 2.</_></rects>
      <tilted>0</tilted></_>
    <_>
      <rects>
        <_>
          30 11 10 15 -1.</_>
        <_>
          35 11 5 15 2.</_></rects>
      <tilted>0</tilted></_>
    <_>
      <rects>
        <_>
          30 17 3 3 -1.</_>
        <_>
          30 18 3 1 3.</_></rects>
      <tilted>0</tilted></_>
    <_>
      <rects>
        <_>
          30 18 3 5 -1.</_>
        <_>
          31 18 1 5 3.</_></rects>
      <tilted>0</tilted></_>
    <_>
      <rects>
        <_>
          30 22 8 2 -1.</_>
        <_>
          30 23 8 1 2.</_></rects>
      <tilted>0</tilted></_>
    <_>
      <rects>
        <_>
          31 13 9 11 -1.</_>
        <_>
          34 13 3 11 3.</_></rects>
      <tilted>0</tilted></_>
    <_>
      <rects>
        <_>
          31 37 9 3 -1.</_>
        <_>
          31 38 9 1 3.</_></rects>
      <tilted>0</tilted></_>
    <_>
      <rects>
        <_>
          32 4 8 26 -1.</_>
        <_>
          36 4 4 26 2.</_></rects>
      <tilted>0</tilted></_>
    <_>
      <rects>
        <_>
          32 5 8 22 -1.</_>
        <_>
          36 5 4 22 2.</_></rects>
      <tilted>0</tilted></_>
    <_>
      <rects>
        <_>
          32 17 4 2 -1.</_>
        <_>
          34 17 2 2 2.</_></rects>
      <tilted>0</tilted></_>
    <_>
      <rects>
        <_>
          32 17 4 10 -1.</_>
        <_>
          32 17 2 5 2.</_>
        <_>
          34 22 2 5 2.</_></rects>
      <tilted>0</tilted></_>
    <_>
      <rects>
        <_>
          32 17 4 11 -1.</_>
        <_>
          34 17 2 11 2.</_></rects>
      <tilted>0</tilted></_>
    <_>
      <rects>
        <_>
          32 18 8 4 -1.</_>
        <_>
          36 18 4 4 2.</_></rects>
      <tilted>0</tilted></_>
    <_>
      <rects>
        <_>
          33 21 6 8 -1.</_>
        <_>
          35 21 2 8 3.</_></rects>
      <tilted>0</tilted></_>
    <_>
      <rects>
        <_>
          34 12 6 22 -1.</_>
        <_>
          37 12 3 22 2.</_></rects>
      <tilted>0</tilted></_>
    <_>
      <rects>
        <_>
          38 12 1 6 -1.</_>
        <_>
          38 14 1 2 3.</_></rects>
      <tilted>0</tilted></_>
    <_>
      <rects>
        <_>
          38 18 1 6 -1.</_>
        <_>
          38 20 1 2 3.</_></rects>
      <tilted>0</tilted></_>
    <_>
      <rects>
        <_>
          39 26 1 14 -1.</_>
        <_>
          39 33 1 7 2.</_></rects>
      <tilted>0</tilted></_></features></cascade>
</opencv_storage>
