<?xml version="1.0"?>
<opencv_storage>
<cascade>
  <stageType>BOOST</stageType>
  <featureType>HAAR</featureType>
  <height>40</height>
  <width>40</width>
  <stageParams>
    <boostType>GAB</boostType>
    <minHitRate>9.9500000476837158e-01</minHitRate>
    <maxFalseAlarm>4.0000000596046448e-01</maxFalseAlarm>
    <weightTrimRate>9.4999999999999996e-01</weightTrimRate>
    <maxDepth>1</maxDepth>
    <maxWeakCount>100</maxWeakCount></stageParams>
  <featureParams>
    <maxCatCount>0</maxCatCount>
    <featSize>1</featSize>
    <mode>BASIC</mode></featureParams>
  <stageNum>20</stageNum>
  <stages>
    <!-- stage 0 -->
    <_>
      <maxWeakCount>3</maxWeakCount>
      <stageThreshold>-5.2930885553359985e-01</stageThreshold>
      <weakClassifiers>
        <_>
          <internalNodes>
            0 -1 28 -2.2981289774179459e-02</internalNodes>
          <leafValues>
            7.5609755516052246e-01 -6.3265305757522583e-01</leafValues></_>
        <_>
          <internalNodes>
            0 -1 8 2.0071635954082012e-03</internalNodes>
          <leafValues>
            6.6813039779663086e-01 -7.0750933885574341e-01</leafValues></_>
        <_>
          <internalNodes>
            0 -1 26 -5.0685345195233822e-03</internalNodes>
          <leafValues>
            8.1085354089736938e-01 -5.4434061050415039e-01</leafValues></_></weakClassifiers></_>
    <!-- stage 1 -->
    <_>
      <maxWeakCount>5</maxWeakCount>
      <stageThreshold>-3.0546373128890991e-01</stageThreshold>
      <weakClassifiers>
        <_>
          <internalNodes>
            0 -1 22 -1.3137233257293701e-01</internalNodes>
          <leafValues>
            9.6551722288131714e-01 -4.5901638269424438e-01</leafValues></_>
        <_>
          <internalNodes>
            0 -1 41 -1.2965545989573002e-02</internalNodes>
          <leafValues>
            7.7301448583602905e-01 -4.5119091868400574e-01</leafValues></_>
        <_>
          <internalNodes>
            0 -1 89 2.0476474892348051e-03</internalNodes>
          <leafValues>
            4.0132743120193481e-01 -9.7158539295196533e-01</leafValues></_>
        <_>
          <internalNodes>
            0 -1 4 -2.2863286721985787e-04</internalNodes>
          <leafValues>
            6.6882342100143433e-01 -5.3536361455917358e-01</leafValues></_>
        <_>
          <internalNodes>
            0 -1 75 1.1489915195852518e-03</internalNodes>
          <leafValues>
            -4.4566279649734497e-01 7.3877978324890137e-01</leafValues></_></weakClassifiers></_>
    <!-- stage 2 -->
    <_>
      <maxWeakCount>5</maxWeakCount>
      <stageThreshold>-3.2953077554702759e-01</stageThreshold>
      <weakClassifiers>
        <_>
          <internalNodes>
            0 -1 3 2.0537467207759619e-03</internalNodes>
          <leafValues>
            3.9837399125099182e-01 -8.5964912176132202e-01</leafValues></_>
        <_>
          <internalNodes>
            0 -1 66 -1.1213459074497223e-03</internalNodes>
          <leafValues>
            9.1671186685562134e-01 -4.5761635899543762e-01</leafValues></_>
        <_>
          <internalNodes>
            0 -1 13 -2.1386910229921341e-02</internalNodes>
          <leafValues>
            6.8282663822174072e-01 -4.9993324279785156e-01</leafValues></_>
        <_>
          <internalNodes>
            0 -1 29 -8.7676219642162323e-02</internalNodes>
          <leafValues>
            6.5736681222915649e-01 -4.6200820803642273e-01</leafValues></_>
        <_>
          <internalNodes>
            0 -1 60 -4.4463697820901871e-02</internalNodes>
          <leafValues>
            7.6252609491348267e-01 -4.2772197723388672e-01</leafValues></_></weakClassifiers></_>
    <!-- stage 3 -->
    <_>
      <maxWeakCount>5</maxWeakCount>
      <stageThreshold>-9.5443330705165863e-02</stageThreshold>
      <weakClassifiers>
        <_>
          <internalNodes>
            0 -1 19 -1.7314825952053070e-01</internalNodes>
          <leafValues>
            9.2452830076217651e-01 -3.8582676649093628e-01</leafValues></_>
        <_>
          <internalNodes>
            0 -1 0 -2.6078676455654204e-04</internalNodes>
          <leafValues>
            6.2169837951660156e-01 -4.5296618342399597e-01</leafValues></_>
        <_>
          <internalNodes>
            0 -1 77 -1.7872215248644352e-03</internalNodes>
          <leafValues>
            6.8603718280792236e-01 -3.8392636179924011e-01</leafValues></_>
        <_>
          <internalNodes>
            0 -1 40 -1.0893123224377632e-02</internalNodes>
          <leafValues>
            7.1992856264114380e-01 -4.3100816011428833e-01</leafValues></_>
        <_>
          <internalNodes>
            0 -1 48 3.9621805772185326e-03</internalNodes>
          <leafValues>
            -5.8634394407272339e-01 5.6652528047561646e-01</leafValues></_></weakClassifiers></_>
    <!-- stage 4 -->
    <_>
      <maxWeakCount>5</maxWeakCount>
      <stageThreshold>-3.5414820909500122e-01</stageThreshold>
      <weakClassifiers>
        <_>
          <internalNodes>
            0 -1 33 -4.9425221979618073e-02</internalNodes>
          <leafValues>
            1. -4.0625000000000000e-01</leafValues></_>
        <_>
          <internalNodes>
            0 -1 68 2.1963233593851328e-03</internalNodes>
          <leafValues>
            -5.1825129985809326e-01 6.2981700897216797e-01</leafValues></_>
        <_>
          <internalNodes>
            0 -1 36 1.3788936659693718e-02</internalNodes>
          <leafValues>
            -4.0031126141548157e-01 6.4849078655242920e-01</leafValues></_>
        <_>
          <internalNodes>
            0 -1 23 8.8258390314877033e-04</internalNodes>
          <leafValues>
            3.4358787536621094e-01 -8.3948940038681030e-01</leafValues></_>
        <_>
          <internalNodes>
            0 -1 59 -9.5206871628761292e-03</internalNodes>
          <leafValues>
            6.5237104892730713e-01 -4.2172557115554810e-01</leafValues></_></weakClassifiers></_>
    <!-- stage 5 -->
    <_>
      <maxWeakCount>5</maxWeakCount>
      <stageThreshold>-8.2519584894180298e-01</stageThreshold>
      <weakClassifiers>
        <_>
          <internalNodes>
            0 -1 51 -1.8250295892357826e-02</internalNodes>
          <leafValues>
            5.9036141633987427e-01 -5.0515460968017578e-01</leafValues></_>
        <_>
          <internalNodes>
            0 -1 34 -6.5234373323619366e-04</internalNodes>
          <leafValues>
            -7.7093762159347534e-01 3.2723718881607056e-01</leafValues></_>
        <_>
          <internalNodes>
            0 -1 92 3.5606098826974630e-03</internalNodes>
          <leafValues>
            -4.5581272244453430e-01 5.3577679395675659e-01</leafValues></_>
        <_>
          <internalNodes>
            0 -1 106 -1.3693284709006548e-03</internalNodes>
          <leafValues>
            -7.5497412681579590e-01 4.1357645392417908e-01</leafValues></_>
        <_>
          <internalNodes>
            0 -1 45 1.2354979291558266e-02</internalNodes>
          <leafValues>
            -6.0238337516784668e-01 4.3315634131431580e-01</leafValues></_></weakClassifiers></_>
    <!-- stage 6 -->
    <_>
      <maxWeakCount>5</maxWeakCount>
      <stageThreshold>-3.6069145798683167e-01</stageThreshold>
      <weakClassifiers>
        <_>
          <internalNodes>
            0 -1 32 -5.7522021234035492e-02</internalNodes>
          <leafValues>
            7.0491802692413330e-01 -3.6134454607963562e-01</leafValues></_>
        <_>
          <internalNodes>
            0 -1 52 6.8109398707747459e-03</internalNodes>
          <leafValues>
            -3.7911558151245117e-01 6.4494466781616211e-01</leafValues></_>
        <_>
          <internalNodes>
            0 -1 90 -1.4334054663777351e-02</internalNodes>
          <leafValues>
            9.3579304218292236e-01 -2.2766262292861938e-01</leafValues></_>
        <_>
          <internalNodes>
            0 -1 81 -1.2524917256087065e-03</internalNodes>
          <leafValues>
            -8.1154096126556396e-01 3.3583366870880127e-01</leafValues></_>
        <_>
          <internalNodes>
            0 -1 104 -7.4851431418210268e-04</internalNodes>
          <leafValues>
            -9.7464066743850708e-01 2.7159762382507324e-01</leafValues></_></weakClassifiers></_>
    <!-- stage 7 -->
    <_>
      <maxWeakCount>6</maxWeakCount>
      <stageThreshold>-6.9251877069473267e-01</stageThreshold>
      <weakClassifiers>
        <_>
          <internalNodes>
            0 -1 83 -4.9520088359713554e-03</internalNodes>
          <leafValues>
            4.3999999761581421e-01 -5.5000001192092896e-01</leafValues></_>
        <_>
          <internalNodes>
            0 -1 24 -8.1325392238795757e-04</internalNodes>
          <leafValues>
            -9.2875742912292480e-01 2.6444295048713684e-01</leafValues></_>
        <_>
          <internalNodes>
            0 -1 53 5.1422943361103535e-03</internalNodes>
          <leafValues>
            -4.5981645584106445e-01 6.3196521997451782e-01</leafValues></_>
        <_>
          <internalNodes>
            0 -1 38 -1.5517947031185031e-03</internalNodes>
          <leafValues>
            -7.7531212568283081e-01 3.1619119644165039e-01</leafValues></_>
        <_>
          <internalNodes>
            0 -1 44 9.9950248841196299e-04</internalNodes>
          <leafValues>
            -5.1125001907348633e-01 5.0649791955947876e-01</leafValues></_>
        <_>
          <internalNodes>
            0 -1 100 -2.1461299620568752e-03</internalNodes>
          <leafValues>
            -8.8975489139556885e-01 3.2166886329650879e-01</leafValues></_></weakClassifiers></_>
    <!-- stage 8 -->
    <_>
      <maxWeakCount>6</maxWeakCount>
      <stageThreshold>-7.5950402021408081e-01</stageThreshold>
      <weakClassifiers>
        <_>
          <internalNodes>
            0 -1 21 -5.3595099598169327e-03</internalNodes>
          <leafValues>
            8.2142859697341919e-01 -3.7096774578094482e-01</leafValues></_>
        <_>
          <internalNodes>
            0 -1 57 -1.3567146379500628e-03</internalNodes>
          <leafValues>
            7.0258235931396484e-01 -3.2374766469001770e-01</leafValues></_>
        <_>
          <internalNodes>
            0 -1 65 2.3398394114337862e-04</internalNodes>
          <leafValues>
            -5.0153547525405884e-01 5.1917237043380737e-01</leafValues></_>
        <_>
          <internalNodes>
            0 -1 103 6.5842898038681597e-05</internalNodes>
          <leafValues>
            -4.7471103072166443e-01 6.0843950510025024e-01</leafValues></_>
        <_>
          <internalNodes>
            0 -1 96 7.8327371738851070e-05</internalNodes>
          <leafValues>
            -4.3999883532524109e-01 6.4878559112548828e-01</leafValues></_>
        <_>
          <internalNodes>
            0 -1 63 4.4545903801918030e-03</internalNodes>
          <leafValues>
            -7.5803554058074951e-01 4.2375573515892029e-01</leafValues></_></weakClassifiers></_>
    <!-- stage 9 -->
    <_>
      <maxWeakCount>5</maxWeakCount>
      <stageThreshold>-5.1577425003051758e-01</stageThreshold>
      <weakClassifiers>
        <_>
          <internalNodes>
            0 -1 49 -3.4261725842952728e-02</internalNodes>
          <leafValues>
            6.5714287757873535e-01 -4.1818180680274963e-01</leafValues></_>
        <_>
          <internalNodes>
            0 -1 20 5.4875756613910198e-03</internalNodes>
          <leafValues>
            2.9697817564010620e-01 -8.5539209842681885e-01</leafValues></_>
        <_>
          <internalNodes>
            0 -1 71 4.8516646027565002e-02</internalNodes>
          <leafValues>
            -3.1601125001907349e-01 8.8125783205032349e-01</leafValues></_>
        <_>
          <internalNodes>
            0 -1 69 6.8092235596850514e-04</internalNodes>
          <leafValues>
            -4.3051686882972717e-01 5.8152419328689575e-01</leafValues></_>
        <_>
          <internalNodes>
            0 -1 101 2.3389821872115135e-03</internalNodes>
          <leafValues>
            3.7505212426185608e-01 -8.4531152248382568e-01</leafValues></_></weakClassifiers></_>
    <!-- stage 10 -->
    <_>
      <maxWeakCount>6</maxWeakCount>
      <stageThreshold>-5.4015082120895386e-01</stageThreshold>
      <weakClassifiers>
        <_>
          <internalNodes>
            0 -1 99 8.4833125583827496e-04</internalNodes>
          <leafValues>
            2.6241135597229004e-01 -9.4871795177459717e-01</leafValues></_>
        <_>
          <internalNodes>
            0 -1 74 6.1541597824543715e-04</internalNodes>
          <leafValues>
            -4.2206633090972900e-01 7.1799010038375854e-01</leafValues></_>
        <_>
          <internalNodes>
            0 -1 7 -2.7267084806226194e-04</internalNodes>
          <leafValues>
            -8.1205904483795166e-01 3.0538967251777649e-01</leafValues></_>
        <_>
          <internalNodes>
            0 -1 86 5.3720630239695311e-04</internalNodes>
          <leafValues>
            -4.7407478094100952e-01 5.1622140407562256e-01</leafValues></_>
        <_>
          <internalNodes>
            0 -1 73 -1.9973551854491234e-02</internalNodes>
          <leafValues>
            6.4778083562850952e-01 -4.2245322465896606e-01</leafValues></_>
        <_>
          <internalNodes>
            0 -1 105 4.9447367200627923e-04</internalNodes>
          <leafValues>
            3.3779501914978027e-01 -8.6914777755737305e-01</leafValues></_></weakClassifiers></_>
    <!-- stage 11 -->
    <_>
      <maxWeakCount>5</maxWeakCount>
      <stageThreshold>-1.5612371265888214e-01</stageThreshold>
      <weakClassifiers>
        <_>
          <internalNodes>
            0 -1 10 -4.5985924080014229e-03</internalNodes>
          <leafValues>
            -8.7500000000000000e-01 3.1818181276321411e-01</leafValues></_>
        <_>
          <internalNodes>
            0 -1 93 2.1073217503726482e-03</internalNodes>
          <leafValues>
            -3.7071329355239868e-01 8.6525750160217285e-01</leafValues></_>
        <_>
          <internalNodes>
            0 -1 87 8.7993387132883072e-03</internalNodes>
          <leafValues>
            -3.0558839440345764e-01 8.3054685592651367e-01</leafValues></_>
        <_>
          <internalNodes>
            0 -1 16 1.6632829792797565e-03</internalNodes>
          <leafValues>
            6.0555619001388550e-01 -3.7353408336639404e-01</leafValues></_>
        <_>
          <internalNodes>
            0 -1 70 2.3639002756681293e-04</internalNodes>
          <leafValues>
            -4.0356004238128662e-01 7.0082151889801025e-01</leafValues></_></weakClassifiers></_>
    <!-- stage 12 -->
    <_>
      <maxWeakCount>5</maxWeakCount>
      <stageThreshold>-4.3657290935516357e-01</stageThreshold>
      <weakClassifiers>
        <_>
          <internalNodes>
            0 -1 6 -2.9717308282852173e-01</internalNodes>
          <leafValues>
            8.1818181276321411e-01 -2.6470589637756348e-01</leafValues></_>
        <_>
          <internalNodes>
            0 -1 54 1.4110344927757978e-03</internalNodes>
          <leafValues>
            3.1429147720336914e-01 -8.1135475635528564e-01</leafValues></_>
        <_>
          <internalNodes>
            0 -1 91 1.7441872507333755e-02</internalNodes>
          <leafValues>
            -4.6419203281402588e-01 4.8821586370468140e-01</leafValues></_>
        <_>
          <internalNodes>
            0 -1 18 2.1783963311463594e-03</internalNodes>
          <leafValues>
            -4.3900060653686523e-01 6.1184930801391602e-01</leafValues></_>
        <_>
          <internalNodes>
            0 -1 94 2.1430116612464190e-04</internalNodes>
          <leafValues>
            -4.6057742834091187e-01 5.5467641353607178e-01</leafValues></_></weakClassifiers></_>
    <!-- stage 13 -->
    <_>
      <maxWeakCount>7</maxWeakCount>
      <stageThreshold>-3.8237771391868591e-01</stageThreshold>
      <weakClassifiers>
        <_>
          <internalNodes>
            0 -1 2 -4.3141257762908936e-01</internalNodes>
          <leafValues>
            1. -2.1621622145175934e-01</leafValues></_>
        <_>
          <internalNodes>
            0 -1 39 4.5605318155139685e-04</internalNodes>
          <leafValues>
            -4.7039976716041565e-01 4.4396930932998657e-01</leafValues></_>
        <_>
          <internalNodes>
            0 -1 25 3.7420862354338169e-03</internalNodes>
          <leafValues>
            -3.9129522442817688e-01 6.3689893484115601e-01</leafValues></_>
        <_>
          <internalNodes>
            0 -1 37 -8.5201300680637360e-03</internalNodes>
          <leafValues>
            7.1410900354385376e-01 -2.9888445138931274e-01</leafValues></_>
        <_>
          <internalNodes>
            0 -1 67 2.9063847614452243e-04</internalNodes>
          <leafValues>
            3.7349769473075867e-01 -6.8896842002868652e-01</leafValues></_>
        <_>
          <internalNodes>
            0 -1 98 3.4845346817746758e-04</internalNodes>
          <leafValues>
            -4.8041856288909912e-01 4.8439857363700867e-01</leafValues></_>
        <_>
          <internalNodes>
            0 -1 95 -3.2059228979051113e-03</internalNodes>
          <leafValues>
            -7.7784740924835205e-01 3.2858428359031677e-01</leafValues></_></weakClassifiers></_>
    <!-- stage 14 -->
    <_>
      <maxWeakCount>7</maxWeakCount>
      <stageThreshold>-1.3262422382831573e-01</stageThreshold>
      <weakClassifiers>
        <_>
          <internalNodes>
            0 -1 43 -5.8545589447021484e-02</internalNodes>
          <leafValues>
            7.9166668653488159e-01 -2.8787878155708313e-01</leafValues></_>
        <_>
          <internalNodes>
            0 -1 30 4.8365928232669830e-02</internalNodes>
          <leafValues>
            3.2014629244804382e-01 -6.8575590848922729e-01</leafValues></_>
        <_>
          <internalNodes>
            0 -1 5 9.8771788179874420e-04</internalNodes>
          <leafValues>
            2.6118585467338562e-01 -8.5525518655776978e-01</leafValues></_>
        <_>
          <internalNodes>
            0 -1 62 -8.9384976308792830e-04</internalNodes>
          <leafValues>
            7.2374385595321655e-01 -3.4792214632034302e-01</leafValues></_>
        <_>
          <internalNodes>
            0 -1 12 -5.1254581194370985e-05</internalNodes>
          <leafValues>
            6.1060881614685059e-01 -4.3808257579803467e-01</leafValues></_>
        <_>
          <internalNodes>
            0 -1 58 -1.6331560909748077e-02</internalNodes>
          <leafValues>
            7.9058098793029785e-01 -3.0134567618370056e-01</leafValues></_>
        <_>
          <internalNodes>
            0 -1 56 -1.0307048214599490e-03</internalNodes>
          <leafValues>
            6.8755424022674561e-01 -3.8587880134582520e-01</leafValues></_></weakClassifiers></_>
    <!-- stage 15 -->
    <_>
      <maxWeakCount>5</maxWeakCount>
      <stageThreshold>-1.0215458869934082e+00</stageThreshold>
      <weakClassifiers>
        <_>
          <internalNodes>
            0 -1 1 -1.7196390777826309e-02</internalNodes>
          <leafValues>
            5.5000001192092896e-01 -4.3999999761581421e-01</leafValues></_>
        <_>
          <internalNodes>
            0 -1 14 2.0872103050351143e-03</internalNodes>
          <leafValues>
            3.0466082692146301e-01 -9.0887093544006348e-01</leafValues></_>
        <_>
          <internalNodes>
            0 -1 76 1.2447194894775748e-03</internalNodes>
          <leafValues>
            3.6447611451148987e-01 -7.9654777050018311e-01</leafValues></_>
        <_>
          <internalNodes>
            0 -1 50 2.7199899777770042e-03</internalNodes>
          <leafValues>
            -5.6656134128570557e-01 5.2212917804718018e-01</leafValues></_>
        <_>
          <internalNodes>
            0 -1 88 2.7190800756216049e-03</internalNodes>
          <leafValues>
            4.3391308188438416e-01 -6.8412148952484131e-01</leafValues></_></weakClassifiers></_>
    <!-- stage 16 -->
    <_>
      <maxWeakCount>5</maxWeakCount>
      <stageThreshold>-4.2436808347702026e-01</stageThreshold>
      <weakClassifiers>
        <_>
          <internalNodes>
            0 -1 27 -6.0606999322772026e-03</internalNodes>
          <leafValues>
            5.5555558204650879e-01 -4.5454546809196472e-01</leafValues></_>
        <_>
          <internalNodes>
            0 -1 72 2.9903842369094491e-04</internalNodes>
          <leafValues>
            -4.1936573386192322e-01 5.5298787355422974e-01</leafValues></_>
        <_>
          <internalNodes>
            0 -1 42 5.5132415145635605e-03</internalNodes>
          <leafValues>
            -5.0065720081329346e-01 5.4194200038909912e-01</leafValues></_>
        <_>
          <internalNodes>
            0 -1 15 -7.1838527219370008e-05</internalNodes>
          <leafValues>
            5.0808191299438477e-01 -5.6555140018463135e-01</leafValues></_>
        <_>
          <internalNodes>
            0 -1 78 -1.9270833581686020e-02</internalNodes>
          <leafValues>
            6.7735064029693604e-01 -4.6670293807983398e-01</leafValues></_></weakClassifiers></_>
    <!-- stage 17 -->
    <_>
      <maxWeakCount>6</maxWeakCount>
      <stageThreshold>-5.3724592924118042e-01</stageThreshold>
      <weakClassifiers>
        <_>
          <internalNodes>
            0 -1 46 -5.7080380618572235e-02</internalNodes>
          <leafValues>
            5.0561797618865967e-01 -4.9450549483299255e-01</leafValues></_>
        <_>
          <internalNodes>
            0 -1 55 -4.4489518040791154e-04</internalNodes>
          <leafValues>
            -8.9241397380828857e-01 2.4660377204418182e-01</leafValues></_>
        <_>
          <internalNodes>
            0 -1 85 6.9301750045269728e-05</internalNodes>
          <leafValues>
            -4.7389972209930420e-01 6.8745398521423340e-01</leafValues></_>
        <_>
          <internalNodes>
            0 -1 31 -1.3631547335535288e-03</internalNodes>
          <leafValues>
            -8.7381881475448608e-01 2.9801213741302490e-01</leafValues></_>
        <_>
          <internalNodes>
            0 -1 97 3.0002521816641092e-03</internalNodes>
          <leafValues>
            -5.3431725502014160e-01 5.1681452989578247e-01</leafValues></_>
        <_>
          <internalNodes>
            0 -1 84 1.5648878179490566e-03</internalNodes>
          <leafValues>
            -4.5856365561485291e-01 6.2412899732589722e-01</leafValues></_></weakClassifiers></_>
    <!-- stage 18 -->
    <_>
      <maxWeakCount>6</maxWeakCount>
      <stageThreshold>-3.3877307176589966e-01</stageThreshold>
      <weakClassifiers>
        <_>
          <internalNodes>
            0 -1 64 3.0753801111131907e-03</internalNodes>
          <leafValues>
            -3.5483869910240173e-01 7.8571426868438721e-01</leafValues></_>
        <_>
          <internalNodes>
            0 -1 17 -7.8886898700147867e-04</internalNodes>
          <leafValues>
            -8.9624565839767456e-01 3.3620300889015198e-01</leafValues></_>
        <_>
          <internalNodes>
            0 -1 47 1.6229735920205712e-03</internalNodes>
          <leafValues>
            -3.5292670130729675e-01 8.3903992176055908e-01</leafValues></_>
        <_>
          <internalNodes>
            0 -1 11 -3.8393824361264706e-03</internalNodes>
          <leafValues>
            -7.8206783533096313e-01 4.7195881605148315e-01</leafValues></_>
        <_>
          <internalNodes>
            0 -1 102 -6.7422715947031975e-03</internalNodes>
          <leafValues>
            -9.7377312183380127e-01 3.2017469406127930e-01</leafValues></_>
        <_>
          <internalNodes>
            0 -1 35 5.3815008141100407e-04</internalNodes>
          <leafValues>
            -6.4587050676345825e-01 5.1497310400009155e-01</leafValues></_></weakClassifiers></_>
    <!-- stage 19 -->
    <_>
      <maxWeakCount>5</maxWeakCount>
      <stageThreshold>-4.2792472243309021e-01</stageThreshold>
      <weakClassifiers>
        <_>
          <internalNodes>
            0 -1 61 -4.4939992949366570e-03</internalNodes>
          <leafValues>
            9.1836732625961304e-01 -3.4351146221160889e-01</leafValues></_>
        <_>
          <internalNodes>
            0 -1 82 1.2797596864402294e-03</internalNodes>
          <leafValues>
            -3.4200230240821838e-01 7.7136391401290894e-01</leafValues></_>
        <_>
          <internalNodes>
            0 -1 9 -1.2637134641408920e-03</internalNodes>
          <leafValues>
            -9.1265249252319336e-01 3.1846764683723450e-01</leafValues></_>
        <_>
          <internalNodes>
            0 -1 79 4.4075981713831425e-04</internalNodes>
          <leafValues>
            4.5370844006538391e-01 -7.0701020956039429e-01</leafValues></_>
        <_>
          <internalNodes>
            0 -1 80 -1.1353241279721260e-04</internalNodes>
          <leafValues>
            7.1942692995071411e-01 -5.1458704471588135e-01</leafValues></_></weakClassifiers></_></stages>
  <features>
    <_>
      <rects>
        <_>
          0 0 12 1 -1.</_>
        <_>
          6 0 6 1 2.</_></rects>
      <tilted>0</tilted></_>
    <_>
      <rects>
        <_>
          0 1 24 9 -1.</_>
        <_>
          8 1 8 9 3.</_></rects>
      <tilted>0</tilted></_>
    <_>
      <rects>
        <_>
          0 5 39 27 -1.</_>
        <_>
          13 5 13 27 3.</_></rects>
      <tilted>0</tilted></_>
    <_>
      <rects>
        <_>
          0 18 6 11 -1.</_>
        <_>
          2 18 2 11 3.</_></rects>
      <tilted>0</tilted></_>
    <_>
      <rects>
        <_>
          0 18 6 1 -1.</_>
        <_>
          3 18 3 1 2.</_></rects>
      <tilted>0</tilted></_>
    <_>
      <rects>
        <_>
          0 25 3 14 -1.</_>
        <_>
          1 25 1 14 3.</_></rects>
      <tilted>0</tilted></_>
    <_>
      <rects>
        <_>
          1 4 36 24 -1.</_>
        <_>
          13 4 12 24 3.</_></rects>
      <tilted>0</tilted></_>
    <_>
      <rects>
        <_>
          1 5 3 3 -1.</_>
        <_>
          2 5 1 3 3.</_></rects>
      <tilted>0</tilted></_>
    <_>
      <rects>
        <_>
          2 0 15 6 -1.</_>
        <_>
          2 2 15 2 3.</_></rects>
      <tilted>0</tilted></_>
    <_>
      <rects>
        <_>
          2 0 34 2 -1.</_>
        <_>
          2 0 17 1 2.</_>
        <_>
          19 1 17 1 2.</_></rects>
      <tilted>0</tilted></_>
    <_>
      <rects>
        <_>
          2 12 1 21 -1.</_>
        <_>
          2 19 1 7 3.</_></rects>
      <tilted>0</tilted></_>
    <_>
      <rects>
        <_>
          3 5 32 4 -1.</_>
        <_>
          3 5 16 2 2.</_>
        <_>
          19 7 16 2 2.</_></rects>
      <tilted>0</tilted></_>
    <_>
      <rects>
        <_>
          3 6 4 1 -1.</_>
        <_>
          5 6 2 1 2.</_></rects>
      <tilted>0</tilted></_>
    <_>
      <rects>
        <_>
          4 4 21 9 -1.</_>
        <_>
          11 4 7 9 3.</_></rects>
      <tilted>0</tilted></_>
    <_>
      <rects>
        <_>
          4 21 6 5 -1.</_>
        <_>
          6 21 2 5 3.</_></rects>
      <tilted>0</tilted></_>
    <_>
      <rects>
        <_>
          5 0 6 4 -1.</_>
        <_>
          5 0 3 2 2.</_>
        <_>
          8 2 3 2 2.</_></rects>
      <tilted>0</tilted></_>
    <_>
      <rects>
        <_>
          5 1 4 34 -1.</_>
        <_>
          5 1 2 17 2.</_>
        <_>
          7 18 2 17 2.</_></rects>
      <tilted>0</tilted></_>
    <_>
      <rects>
        <_>
          5 2 2 8 -1.</_>
        <_>
          5 2 1 4 2.</_>
        <_>
          6 6 1 4 2.</_></rects>
      <tilted>0</tilted></_>
    <_>
      <rects>
        <_>
          5 7 10 8 -1.</_>
        <_>
          5 7 5 4 2.</_>
        <_>
          10 11 5 4 2.</_></rects>
      <tilted>0</tilted></_>
    <_>
      <rects>
        <_>
          5 11 30 15 -1.</_>
        <_>
          15 11 10 15 3.</_></rects>
      <tilted>0</tilted></_>
    <_>
      <rects>
        <_>
          5 14 3 12 -1.</_>
        <_>
          5 18 3 4 3.</_></rects>
      <tilted>0</tilted></_>
    <_>
      <rects>
        <_>
          6 8 8 4 -1.</_>
        <_>
          10 8 4 4 2.</_></rects>
      <tilted>0</tilted></_>
    <_>
      <rects>
        <_>
          7 11 27 15 -1.</_>
        <_>
          16 11 9 15 3.</_></rects>
      <tilted>0</tilted></_>
    <_>
      <rects>
        <_>
          8 28 4 5 -1.</_>
        <_>
          10 28 2 5 2.</_></rects>
      <tilted>0</tilted></_>
    <_>
      <rects>
        <_>
          9 0 5 3 -1.</_>
        <_>
          9 1 5 1 3.</_></rects>
      <tilted>0</tilted></_>
    <_>
      <rects>
        <_>
          9 6 16 3 -1.</_>
        <_>
          17 6 8 3 2.</_></rects>
      <tilted>0</tilted></_>
    <_>
      <rects>
        <_>
          9 8 6 12 -1.</_>
        <_>
          12 8 3 12 2.</_></rects>
      <tilted>0</tilted></_>
    <_>
      <rects>
        <_>
          9 9 6 11 -1.</_>
        <_>
          12 9 3 11 2.</_></rects>
      <tilted>0</tilted></_>
    <_>
      <rects>
        <_>
          9 16 24 5 -1.</_>
        <_>
          17 16 8 5 3.</_></rects>
      <tilted>0</tilted></_>
    <_>
      <rects>
        <_>
          9 17 30 18 -1.</_>
        <_>
          19 17 10 18 3.</_></rects>
      <tilted>0</tilted></_>
    <_>
      <rects>
        <_>
          9 19 22 20 -1.</_>
        <_>
          20 19 11 20 2.</_></rects>
      <tilted>0</tilted></_>
    <_>
      <rects>
        <_>
          9 34 26 2 -1.</_>
        <_>
          9 34 13 1 2.</_>
        <_>
          22 35 13 1 2.</_></rects>
      <tilted>0</tilted></_>
    <_>
      <rects>
        <_>
          10 3 18 21 -1.</_>
        <_>
          10 10 18 7 3.</_></rects>
      <tilted>0</tilted></_>
    <_>
      <rects>
        <_>
          10 15 24 5 -1.</_>
        <_>
          18 15 8 5 3.</_></rects>
      <tilted>0</tilted></_>
    <_>
      <rects>
        <_>
          10 23 6 3 -1.</_>
        <_>
          12 23 2 3 3.</_></rects>
      <tilted>0</tilted></_>
    <_>
      <rects>
        <_>
          10 23 16 4 -1.</_>
        <_>
          10 23 8 2 2.</_>
        <_>
          18 25 8 2 2.</_></rects>
      <tilted>0</tilted></_>
    <_>
      <rects>
        <_>
          11 1 4 33 -1.</_>
        <_>
          11 12 4 11 3.</_></rects>
      <tilted>0</tilted></_>
    <_>
      <rects>
        <_>
          11 6 12 9 -1.</_>
        <_>
          11 9 12 3 3.</_></rects>
      <tilted>0</tilted></_>
    <_>
      <rects>
        <_>
          11 13 1 15 -1.</_>
        <_>
          11 18 1 5 3.</_></rects>
      <tilted>0</tilted></_>
    <_>
      <rects>
        <_>
          11 21 9 3 -1.</_>
        <_>
          14 21 3 3 3.</_></rects>
      <tilted>0</tilted></_>
    <_>
      <rects>
        <_>
          12 3 12 15 -1.</_>
        <_>
          16 3 4 15 3.</_></rects>
      <tilted>0</tilted></_>
    <_>
      <rects>
        <_>
          12 3 10 18 -1.</_>
        <_>
          12 3 5 9 2.</_>
        <_>
          17 12 5 9 2.</_></rects>
      <tilted>0</tilted></_>
    <_>
      <rects>
        <_>
          12 14 6 18 -1.</_>
        <_>
          12 20 6 6 3.</_></rects>
      <tilted>0</tilted></_>
    <_>
      <rects>
        <_>
          12 18 18 7 -1.</_>
        <_>
          18 18 6 7 3.</_></rects>
      <tilted>0</tilted></_>
    <_>
      <rects>
        <_>
          13 4 15 1 -1.</_>
        <_>
          18 4 5 1 3.</_></rects>
      <tilted>0</tilted></_>
    <_>
      <rects>
        <_>
          14 4 26 12 -1.</_>
        <_>
          14 4 13 6 2.</_>
        <_>
          27 10 13 6 2.</_></rects>
      <tilted>0</tilted></_>
    <_>
      <rects>
        <_>
          14 9 26 30 -1.</_>
        <_>
          14 9 13 15 2.</_>
        <_>
          27 24 13 15 2.</_></rects>
      <tilted>0</tilted></_>
    <_>
      <rects>
        <_>
          14 12 4 4 -1.</_>
        <_>
          14 14 4 2 2.</_></rects>
      <tilted>0</tilted></_>
    <_>
      <rects>
        <_>
          14 17 20 6 -1.</_>
        <_>
          14 20 20 3 2.</_></rects>
      <tilted>0</tilted></_>
    <_>
      <rects>
        <_>
          14 18 15 10 -1.</_>
        <_>
          19 18 5 10 3.</_></rects>
      <tilted>0</tilted></_>
    <_>
      <rects>
        <_>
          14 29 14 6 -1.</_>
        <_>
          14 32 14 3 2.</_></rects>
      <tilted>0</tilted></_>
    <_>
      <rects>
        <_>
          15 15 12 10 -1.</_>
        <_>
          19 15 4 10 3.</_></rects>
      <tilted>0</tilted></_>
    <_>
      <rects>
        <_>
          15 19 6 16 -1.</_>
        <_>
          15 19 3 8 2.</_>
        <_>
          18 27 3 8 2.</_></rects>
      <tilted>0</tilted></_>
    <_>
      <rects>
        <_>
          15 28 9 8 -1.</_>
        <_>
          15 32 9 4 2.</_></rects>
      <tilted>0</tilted></_>
    <_>
      <rects>
        <_>
          16 0 21 3 -1.</_>
        <_>
          16 1 21 1 3.</_></rects>
      <tilted>0</tilted></_>
    <_>
      <rects>
        <_>
          16 22 2 10 -1.</_>
        <_>
          16 22 1 5 2.</_>
        <_>
          17 27 1 5 2.</_></rects>
      <tilted>0</tilted></_>
    <_>
      <rects>
        <_>
          17 13 5 6 -1.</_>
        <_>
          17 15 5 2 3.</_></rects>
      <tilted>0</tilted></_>
    <_>
      <rects>
        <_>
          18 15 2 13 -1.</_>
        <_>
          19 15 1 13 2.</_></rects>
      <tilted>0</tilted></_>
    <_>
      <rects>
        <_>
          18 25 11 15 -1.</_>
        <_>
          18 30 11 5 3.</_></rects>
      <tilted>0</tilted></_>
    <_>
      <rects>
        <_>
          19 7 2 27 -1.</_>
        <_>
          19 16 2 9 3.</_></rects>
      <tilted>0</tilted></_>
    <_>
      <rects>
        <_>
          19 7 18 32 -1.</_>
        <_>
          19 7 9 16 2.</_>
        <_>
          28 23 9 16 2.</_></rects>
      <tilted>0</tilted></_>
    <_>
      <rects>
        <_>
          19 14 3 12 -1.</_>
        <_>
          19 18 3 4 3.</_></rects>
      <tilted>0</tilted></_>
    <_>
      <rects>
        <_>
          19 17 2 6 -1.</_>
        <_>
          20 17 1 6 2.</_></rects>
      <tilted>0</tilted></_>
    <_>
      <rects>
        <_>
          19 20 10 5 -1.</_>
        <_>
          24 20 5 5 2.</_></rects>
      <tilted>0</tilted></_>
    <_>
      <rects>
        <_>
          19 28 3 8 -1.</_>
        <_>
          19 32 3 4 2.</_></rects>
      <tilted>0</tilted></_>
    <_>
      <rects>
        <_>
          19 31 5 4 -1.</_>
        <_>
          19 33 5 2 2.</_></rects>
      <tilted>0</tilted></_>
    <_>
      <rects>
        <_>
          20 0 12 1 -1.</_>
        <_>
          26 0 6 1 2.</_></rects>
      <tilted>0</tilted></_>
    <_>
      <rects>
        <_>
          20 5 6 2 -1.</_>
        <_>
          20 5 3 1 2.</_>
        <_>
          23 6 3 1 2.</_></rects>
      <tilted>0</tilted></_>
    <_>
      <rects>
        <_>
          20 15 1 24 -1.</_>
        <_>
          20 27 1 12 2.</_></rects>
      <tilted>0</tilted></_>
    <_>
      <rects>
        <_>
          20 15 6 7 -1.</_>
        <_>
          22 15 2 7 3.</_></rects>
      <tilted>0</tilted></_>
    <_>
      <rects>
        <_>
          20 27 2 4 -1.</_>
        <_>
          20 29 2 2 2.</_></rects>
      <tilted>0</tilted></_>
    <_>
      <rects>
        <_>
          21 1 14 18 -1.</_>
        <_>
          21 1 7 9 2.</_>
        <_>
          28 10 7 9 2.</_></rects>
      <tilted>0</tilted></_>
    <_>
      <rects>
        <_>
          21 4 2 14 -1.</_>
        <_>
          22 4 1 14 2.</_></rects>
      <tilted>0</tilted></_>
    <_>
      <rects>
        <_>
          21 6 3 27 -1.</_>
        <_>
          21 15 3 9 3.</_></rects>
      <tilted>0</tilted></_>
    <_>
      <rects>
        <_>
          21 19 2 6 -1.</_>
        <_>
          22 19 1 6 2.</_></rects>
      <tilted>0</tilted></_>
    <_>
      <rects>
        <_>
          21 22 6 2 -1.</_>
        <_>
          24 22 3 2 2.</_></rects>
      <tilted>0</tilted></_>
    <_>
      <rects>
        <_>
          21 37 19 3 -1.</_>
        <_>
          21 38 19 1 3.</_></rects>
      <tilted>0</tilted></_>
    <_>
      <rects>
        <_>
          22 0 18 1 -1.</_>
        <_>
          28 0 6 1 3.</_></rects>
      <tilted>0</tilted></_>
    <_>
      <rects>
        <_>
          22 2 18 34 -1.</_>
        <_>
          22 2 9 17 2.</_>
        <_>
          31 19 9 17 2.</_></rects>
      <tilted>0</tilted></_>
    <_>
      <rects>
        <_>
          23 38 10 2 -1.</_>
        <_>
          23 38 5 1 2.</_>
        <_>
          28 39 5 1 2.</_></rects>
      <tilted>0</tilted></_>
    <_>
      <rects>
        <_>
          24 8 5 2 -1.</_>
        <_>
          24 9 5 1 2.</_></rects>
      <tilted>0</tilted></_>
    <_>
      <rects>
        <_>
          24 15 3 19 -1.</_>
        <_>
          25 15 1 19 3.</_></rects>
      <tilted>0</tilted></_>
    <_>
      <rects>
        <_>
          24 24 4 8 -1.</_>
        <_>
          26 24 2 8 2.</_></rects>
      <tilted>0</tilted></_>
    <_>
      <rects>
        <_>
          25 5 12 32 -1.</_>
        <_>
          25 5 6 16 2.</_>
        <_>
          31 21 6 16 2.</_></rects>
      <tilted>0</tilted></_>
    <_>
      <rects>
        <_>
          25 11 3 9 -1.</_>
        <_>
          25 14 3 3 3.</_></rects>
      <tilted>0</tilted></_>
    <_>
      <rects>
        <_>
          25 18 2 2 -1.</_>
        <_>
          25 19 2 1 2.</_></rects>
      <tilted>0</tilted></_>
    <_>
      <rects>
        <_>
          25 23 4 8 -1.</_>
        <_>
          27 23 2 8 2.</_></rects>
      <tilted>0</tilted></_>
    <_>
      <rects>
        <_>
          26 5 6 18 -1.</_>
        <_>
          26 5 3 9 2.</_>
        <_>
          29 14 3 9 2.</_></rects>
      <tilted>0</tilted></_>
    <_>
      <rects>
        <_>
          26 17 6 11 -1.</_>
        <_>
          28 17 2 11 3.</_></rects>
      <tilted>0</tilted></_>
    <_>
      <rects>
        <_>
          27 0 2 6 -1.</_>
        <_>
          27 3 2 3 2.</_></rects>
      <tilted>0</tilted></_>
    <_>
      <rects>
        <_>
          27 0 12 8 -1.</_>
        <_>
          31 0 4 8 3.</_></rects>
      <tilted>0</tilted></_>
    <_>
      <rects>
        <_>
          27 3 8 16 -1.</_>
        <_>
          27 11 8 8 2.</_></rects>
      <tilted>0</tilted></_>
    <_>
      <rects>
        <_>
          27 6 10 5 -1.</_>
        <_>
          32 6 5 5 2.</_></rects>
      <tilted>0</tilted></_>
    <_>
      <rects>
        <_>
          27 10 6 2 -1.</_>
        <_>
          30 10 3 2 2.</_></rects>
      <tilted>0</tilted></_>
    <_>
      <rects>
        <_>
          27 23 10 4 -1.</_>
        <_>
          27 23 5 2 2.</_>
        <_>
          32 25 5 2 2.</_></rects>
      <tilted>0</tilted></_>
    <_>
      <rects>
        <_>
          27 29 9 9 -1.</_>
        <_>
          30 29 3 9 3.</_></rects>
      <tilted>0</tilted></_>
    <_>
      <rects>
        <_>
          29 34 5 3 -1.</_>
        <_>
          29 35 5 1 3.</_></rects>
      <tilted>0</tilted></_>
    <_>
      <rects>
        <_>
          30 3 8 15 -1.</_>
        <_>
          34 3 4 15 2.</_></rects>
      <tilted>0</tilted></_>
    <_>
      <rects>
        <_>
          30 6 4 4 -1.</_>
        <_>
          32 6 2 4 2.</_></rects>
      <tilted>0</tilted></_>
    <_>
      <rects>
        <_>
          31 34 5 3 -1.</_>
        <_>
          31 35 5 1 3.</_></rects>
      <tilted>0</tilted></_>
    <_>
      <rects>
        <_>
          32 23 4 9 -1.</_>
        <_>
          34 23 2 9 2.</_></rects>
      <tilted>0</tilted></_>
    <_>
      <rects>
        <_>
          33 21 6 6 -1.</_>
        <_>
          35 21 2 6 3.</_></rects>
      <tilted>0</tilted></_>
    <_>
      <rects>
        <_>
          34 14 2 12 -1.</_>
        <_>
          34 20 2 6 2.</_></rects>
      <tilted>0</tilted></_>
    <_>
      <rects>
        <_>
          35 0 4 1 -1.</_>
        <_>
          37 0 2 1 2.</_></rects>
      <tilted>0</tilted></_>
    <_>
      <rects>
        <_>
          36 1 1 6 -1.</_>
        <_>
          36 4 1 3 2.</_></rects>
      <tilted>0</tilted></_>
    <_>
      <rects>
        <_>
          36 23 3 4 -1.</_>
        <_>
          37 23 1 4 3.</_></rects>
      <tilted>0</tilted></_>
    <_>
      <rects>
        <_>
          38 5 2 19 -1.</_>
        <_>
          39 5 1 19 2.</_></rects>
      <tilted>0</tilted></_></features></cascade>
</opencv_storage>
