<?xml version="1.0"?>
<opencv_storage>
<cascade>
  <stageType>BOOST</stageType>
  <featureType>HAAR</featureType>
  <height>40</height>
  <width>40</width>
  <stageParams>
    <boostType>GAB</boostType>
    <minHitRate>9.9500000476837158e-01</minHitRate>
    <maxFalseAlarm>4.0000000596046448e-01</maxFalseAlarm>
    <weightTrimRate>9.4999999999999996e-01</weightTrimRate>
    <maxDepth>1</maxDepth>
    <maxWeakCount>100</maxWeakCount></stageParams>
  <featureParams>
    <maxCatCount>0</maxCatCount>
    <featSize>1</featSize>
    <mode>BASIC</mode></featureParams>
  <stageNum>20</stageNum>
  <stages>
    <!-- stage 0 -->
    <_>
      <maxWeakCount>6</maxWeakCount>
      <stageThreshold>-9.5880228281021118e-01</stageThreshold>
      <weakClassifiers>
        <_>
          <internalNodes>
            0 -1 147 1.6537429764866829e-03</internalNodes>
          <leafValues>
            6.4705884456634521e-01 -5.7894736528396606e-01</leafValues></_>
        <_>
          <internalNodes>
            0 -1 2 -4.1893430054187775e-02</internalNodes>
          <leafValues>
            8.9375084638595581e-01 -3.2013940811157227e-01</leafValues></_>
        <_>
          <internalNodes>
            0 -1 48 1.8553668633103371e-04</internalNodes>
          <leafValues>
            5.0654304027557373e-01 -5.2454817295074463e-01</leafValues></_>
        <_>
          <internalNodes>
            0 -1 152 -2.1686446852982044e-03</internalNodes>
          <leafValues>
            -8.9853274822235107e-01 2.5303873419761658e-01</leafValues></_>
        <_>
          <internalNodes>
            0 -1 23 4.7917579649947584e-05</internalNodes>
          <leafValues>
            4.3941637873649597e-01 -6.4932805299758911e-01</leafValues></_>
        <_>
          <internalNodes>
            0 -1 124 -4.7613978385925293e-02</internalNodes>
          <leafValues>
            7.8090310096740723e-01 -3.5276821255683899e-01</leafValues></_></weakClassifiers></_>
    <!-- stage 1 -->
    <_>
      <maxWeakCount>8</maxWeakCount>
      <stageThreshold>-7.0852893590927124e-01</stageThreshold>
      <weakClassifiers>
        <_>
          <internalNodes>
            0 -1 123 1.5767328441143036e-03</internalNodes>
          <leafValues>
            2.4381625652313232e-01 -8.9610391855239868e-01</leafValues></_>
        <_>
          <internalNodes>
            0 -1 136 -2.7013392536900938e-04</internalNodes>
          <leafValues>
            3.6483544111251831e-01 -5.5584681034088135e-01</leafValues></_>
        <_>
          <internalNodes>
            0 -1 126 -7.7167688868939877e-04</internalNodes>
          <leafValues>
            -9.3441820144653320e-01 2.2214277088642120e-01</leafValues></_>
        <_>
          <internalNodes>
            0 -1 20 -1.7985433340072632e-02</internalNodes>
          <leafValues>
            7.1385616064071655e-01 -3.4203034639358521e-01</leafValues></_>
        <_>
          <internalNodes>
            0 -1 68 2.3118976969271898e-03</internalNodes>
          <leafValues>
            3.0219572782516479e-01 -8.2867443561553955e-01</leafValues></_>
        <_>
          <internalNodes>
            0 -1 134 -5.5310234427452087e-02</internalNodes>
          <leafValues>
            7.4465394020080566e-01 -3.5263788700103760e-01</leafValues></_>
        <_>
          <internalNodes>
            0 -1 80 -1.9224040210247040e-02</internalNodes>
          <leafValues>
            8.0846428871154785e-01 -2.2713498771190643e-01</leafValues></_>
        <_>
          <internalNodes>
            0 -1 117 -6.6747411619871855e-04</internalNodes>
          <leafValues>
            -8.3568227291107178e-01 2.7277997136116028e-01</leafValues></_></weakClassifiers></_>
    <!-- stage 2 -->
    <_>
      <maxWeakCount>8</maxWeakCount>
      <stageThreshold>-2.9619067907333374e-01</stageThreshold>
      <weakClassifiers>
        <_>
          <internalNodes>
            0 -1 145 -6.2813202384859324e-04</internalNodes>
          <leafValues>
            -8.6111110448837280e-01 2.1527777612209320e-01</leafValues></_>
        <_>
          <internalNodes>
            0 -1 14 -7.1975453756749630e-03</internalNodes>
          <leafValues>
            4.3444243073463440e-01 -3.8634312152862549e-01</leafValues></_>
        <_>
          <internalNodes>
            0 -1 185 -2.1446195896714926e-03</internalNodes>
          <leafValues>
            -8.0769389867782593e-01 2.6155397295951843e-01</leafValues></_>
        <_>
          <internalNodes>
            0 -1 127 -9.1903805732727051e-03</internalNodes>
          <leafValues>
            5.8685445785522461e-01 -3.5499519109725952e-01</leafValues></_>
        <_>
          <internalNodes>
            0 -1 159 -1.2136530131101608e-01</internalNodes>
          <leafValues>
            7.7546501159667969e-01 -2.6562428474426270e-01</leafValues></_>
        <_>
          <internalNodes>
            0 -1 105 -1.9166361540555954e-02</internalNodes>
          <leafValues>
            6.0343313217163086e-01 -2.5689777731895447e-01</leafValues></_>
        <_>
          <internalNodes>
            0 -1 34 6.6457679495215416e-03</internalNodes>
          <leafValues>
            1.9385154545307159e-01 -9.5007628202438354e-01</leafValues></_>
        <_>
          <internalNodes>
            0 -1 114 9.8319873213768005e-03</internalNodes>
          <leafValues>
            -3.1488218903541565e-01 8.0038046836853027e-01</leafValues></_></weakClassifiers></_>
    <!-- stage 3 -->
    <_>
      <maxWeakCount>9</maxWeakCount>
      <stageThreshold>-1.2847833633422852e+00</stageThreshold>
      <weakClassifiers>
        <_>
          <internalNodes>
            0 -1 130 -2.9174950905144215e-03</internalNodes>
          <leafValues>
            -7.1171170473098755e-01 3.1726908683776855e-01</leafValues></_>
        <_>
          <internalNodes>
            0 -1 131 2.8486656956374645e-03</internalNodes>
          <leafValues>
            -3.2428109645843506e-01 6.9609194993972778e-01</leafValues></_>
        <_>
          <internalNodes>
            0 -1 15 5.9818044304847717e-02</internalNodes>
          <leafValues>
            -2.3424984514713287e-01 8.3281129598617554e-01</leafValues></_>
        <_>
          <internalNodes>
            0 -1 187 -1.5632493887096643e-03</internalNodes>
          <leafValues>
            7.9569226503372192e-01 -1.8186546862125397e-01</leafValues></_>
        <_>
          <internalNodes>
            0 -1 133 -8.0529116094112396e-03</internalNodes>
          <leafValues>
            5.9121721982955933e-01 -3.7485104799270630e-01</leafValues></_>
        <_>
          <internalNodes>
            0 -1 64 2.6536840945482254e-02</internalNodes>
          <leafValues>
            -2.2306217253208160e-01 7.2166991233825684e-01</leafValues></_>
        <_>
          <internalNodes>
            0 -1 57 3.9938483387231827e-03</internalNodes>
          <leafValues>
            -2.0850142836570740e-01 8.5310703516006470e-01</leafValues></_>
        <_>
          <internalNodes>
            0 -1 11 -1.5101172029972076e-02</internalNodes>
          <leafValues>
            -7.8882455825805664e-01 2.8819659352302551e-01</leafValues></_>
        <_>
          <internalNodes>
            0 -1 157 -9.8988458514213562e-02</internalNodes>
          <leafValues>
            6.5474313497543335e-01 -3.4343793988227844e-01</leafValues></_></weakClassifiers></_>
    <!-- stage 4 -->
    <_>
      <maxWeakCount>8</maxWeakCount>
      <stageThreshold>-5.4269880056381226e-01</stageThreshold>
      <weakClassifiers>
        <_>
          <internalNodes>
            0 -1 12 2.4266047403216362e-03</internalNodes>
          <leafValues>
            2.7007299661636353e-01 -8.6046510934829712e-01</leafValues></_>
        <_>
          <internalNodes>
            0 -1 163 1.1195121333003044e-03</internalNodes>
          <leafValues>
            1.9873261451721191e-01 -6.5534365177154541e-01</leafValues></_>
        <_>
          <internalNodes>
            0 -1 113 -7.6420098543167114e-02</internalNodes>
          <leafValues>
            9.2493605613708496e-01 -1.9113914668560028e-01</leafValues></_>
        <_>
          <internalNodes>
            0 -1 21 -3.3091017976403236e-03</internalNodes>
          <leafValues>
            -6.2845861911773682e-01 2.9369351267814636e-01</leafValues></_>
        <_>
          <internalNodes>
            0 -1 66 3.7972882390022278e-02</internalNodes>
          <leafValues>
            -2.8691232204437256e-01 6.3287639617919922e-01</leafValues></_>
        <_>
          <internalNodes>
            0 -1 76 -9.4243753701448441e-03</internalNodes>
          <leafValues>
            7.5712859630584717e-01 -2.0029307901859283e-01</leafValues></_>
        <_>
          <internalNodes>
            0 -1 9 7.5251053203828633e-05</internalNodes>
          <leafValues>
            2.9870980978012085e-01 -6.5546637773513794e-01</leafValues></_>
        <_>
          <internalNodes>
            0 -1 87 -1.4921197434887290e-03</internalNodes>
          <leafValues>
            -7.4391120672225952e-01 2.3936232924461365e-01</leafValues></_></weakClassifiers></_>
    <!-- stage 5 -->
    <_>
      <maxWeakCount>10</maxWeakCount>
      <stageThreshold>-8.6169880628585815e-01</stageThreshold>
      <weakClassifiers>
        <_>
          <internalNodes>
            0 -1 132 -1.3219015672802925e-03</internalNodes>
          <leafValues>
            -1. 1.4649681746959686e-01</leafValues></_>
        <_>
          <internalNodes>
            0 -1 111 6.4097102731466293e-03</internalNodes>
          <leafValues>
            -2.2052213549613953e-01 7.1645635366439819e-01</leafValues></_>
        <_>
          <internalNodes>
            0 -1 74 -6.0181446373462677e-02</internalNodes>
          <leafValues>
            7.6015383005142212e-01 -1.5292657911777496e-01</leafValues></_>
        <_>
          <internalNodes>
            0 -1 58 -1.6310279024764895e-03</internalNodes>
          <leafValues>
            -8.8146030902862549e-01 1.7814174294471741e-01</leafValues></_>
        <_>
          <internalNodes>
            0 -1 49 4.2133120587095618e-05</internalNodes>
          <leafValues>
            3.6088287830352783e-01 -3.9933457970619202e-01</leafValues></_>
        <_>
          <internalNodes>
            0 -1 93 7.3312036693096161e-04</internalNodes>
          <leafValues>
            -2.5292783975601196e-01 5.8497589826583862e-01</leafValues></_>
        <_>
          <internalNodes>
            0 -1 120 -1.4241900062188506e-03</internalNodes>
          <leafValues>
            -8.2888925075531006e-01 1.7508333921432495e-01</leafValues></_>
        <_>
          <internalNodes>
            0 -1 106 -9.3578669475391507e-04</internalNodes>
          <leafValues>
            -8.9264023303985596e-01 1.3969781994819641e-01</leafValues></_>
        <_>
          <internalNodes>
            0 -1 60 1.7384804785251617e-01</internalNodes>
          <leafValues>
            -2.0616799592971802e-01 8.9154875278472900e-01</leafValues></_>
        <_>
          <internalNodes>
            0 -1 177 1.5949504449963570e-02</internalNodes>
          <leafValues>
            -2.6923939585685730e-01 7.4012351036071777e-01</leafValues></_></weakClassifiers></_>
    <!-- stage 6 -->
    <_>
      <maxWeakCount>10</maxWeakCount>
      <stageThreshold>-7.1044147014617920e-01</stageThreshold>
      <weakClassifiers>
        <_>
          <internalNodes>
            0 -1 142 1.4076024526730180e-03</internalNodes>
          <leafValues>
            1.7406143248081207e-01 -7.6119405031204224e-01</leafValues></_>
        <_>
          <internalNodes>
            0 -1 102 -9.5332890748977661e-02</internalNodes>
          <leafValues>
            7.8625470399856567e-01 -1.9199557602405548e-01</leafValues></_>
        <_>
          <internalNodes>
            0 -1 51 5.0058786291629076e-04</internalNodes>
          <leafValues>
            -3.0203092098236084e-01 4.9289646744728088e-01</leafValues></_>
        <_>
          <internalNodes>
            0 -1 88 -5.5706710554659367e-03</internalNodes>
          <leafValues>
            6.5786087512969971e-01 -2.3846080899238586e-01</leafValues></_>
        <_>
          <internalNodes>
            0 -1 191 -5.4276030277833343e-04</internalNodes>
          <leafValues>
            -8.7619984149932861e-01 2.1993404626846313e-01</leafValues></_>
        <_>
          <internalNodes>
            0 -1 71 9.4520226411987096e-05</internalNodes>
          <leafValues>
            -4.0559652447700500e-01 4.4219934940338135e-01</leafValues></_>
        <_>
          <internalNodes>
            0 -1 178 -3.6508850753307343e-03</internalNodes>
          <leafValues>
            6.5732061862945557e-01 -2.4279698729515076e-01</leafValues></_>
        <_>
          <internalNodes>
            0 -1 52 -4.2958778794854879e-04</internalNodes>
          <leafValues>
            4.4616666436195374e-01 -3.4844541549682617e-01</leafValues></_>
        <_>
          <internalNodes>
            0 -1 118 1.2828467879444361e-04</internalNodes>
          <leafValues>
            -2.3894810676574707e-01 5.6142979860305786e-01</leafValues></_>
        <_>
          <internalNodes>
            0 -1 31 -1.6406014561653137e-02</internalNodes>
          <leafValues>
            -6.2127459049224854e-01 2.0955340564250946e-01</leafValues></_></weakClassifiers></_>
    <!-- stage 7 -->
    <_>
      <maxWeakCount>11</maxWeakCount>
      <stageThreshold>-6.6138076782226562e-01</stageThreshold>
      <weakClassifiers>
        <_>
          <internalNodes>
            0 -1 85 -1.8720295280218124e-02</internalNodes>
          <leafValues>
            7.3529410362243652e-01 -1.7123287916183472e-01</leafValues></_>
        <_>
          <internalNodes>
            0 -1 69 3.2147236168384552e-02</internalNodes>
          <leafValues>
            -2.0387399196624756e-01 6.4726704359054565e-01</leafValues></_>
        <_>
          <internalNodes>
            0 -1 90 -3.9253956638276577e-03</internalNodes>
          <leafValues>
            -8.8678950071334839e-01 1.7206518352031708e-01</leafValues></_>
        <_>
          <internalNodes>
            0 -1 94 3.6232701968401670e-03</internalNodes>
          <leafValues>
            -2.2170996665954590e-01 5.9554153680801392e-01</leafValues></_>
        <_>
          <internalNodes>
            0 -1 197 -9.4268121756613255e-04</internalNodes>
          <leafValues>
            -8.2514756917953491e-01 1.7735819518566132e-01</leafValues></_>
        <_>
          <internalNodes>
            0 -1 19 3.3559305593371391e-03</internalNodes>
          <leafValues>
            1.9728870689868927e-01 -6.5993720293045044e-01</leafValues></_>
        <_>
          <internalNodes>
            0 -1 7 -2.9743764549493790e-02</internalNodes>
          <leafValues>
            6.4286887645721436e-01 -2.4862490594387054e-01</leafValues></_>
        <_>
          <internalNodes>
            0 -1 24 1.7594169825315475e-02</internalNodes>
          <leafValues>
            -3.4637793898582458e-01 6.5387707948684692e-01</leafValues></_>
        <_>
          <internalNodes>
            0 -1 37 1.9339072750881314e-03</internalNodes>
          <leafValues>
            2.4612011015415192e-01 -7.7418297529220581e-01</leafValues></_>
        <_>
          <internalNodes>
            0 -1 149 -5.4605898912996054e-04</internalNodes>
          <leafValues>
            4.5123076438903809e-01 -3.5863402485847473e-01</leafValues></_>
        <_>
          <internalNodes>
            0 -1 171 -1.4109932817518711e-03</internalNodes>
          <leafValues>
            -7.7031177282333374e-01 2.1216392517089844e-01</leafValues></_></weakClassifiers></_>
    <!-- stage 8 -->
    <_>
      <maxWeakCount>8</maxWeakCount>
      <stageThreshold>-3.8559946417808533e-01</stageThreshold>
      <weakClassifiers>
        <_>
          <internalNodes>
            0 -1 18 -4.8559904098510742e-03</internalNodes>
          <leafValues>
            -8.3870965242385864e-01 1.7449665069580078e-01</leafValues></_>
        <_>
          <internalNodes>
            0 -1 26 1.0825818777084351e-01</internalNodes>
          <leafValues>
            1.0237715393304825e-01 -1.</leafValues></_>
        <_>
          <internalNodes>
            0 -1 115 -1.5630706911906600e-04</internalNodes>
          <leafValues>
            -5.5569005012512207e-01 3.9881399273872375e-01</leafValues></_>
        <_>
          <internalNodes>
            0 -1 40 3.3786743879318237e-03</internalNodes>
          <leafValues>
            -2.2226746380329132e-01 8.5704827308654785e-01</leafValues></_>
        <_>
          <internalNodes>
            0 -1 28 -8.3085242658853531e-03</internalNodes>
          <leafValues>
            6.3537383079528809e-01 -2.8278988599777222e-01</leafValues></_>
        <_>
          <internalNodes>
            0 -1 162 -1.2771848123520613e-03</internalNodes>
          <leafValues>
            -7.5798374414443970e-01 2.5160467624664307e-01</leafValues></_>
        <_>
          <internalNodes>
            0 -1 158 1.5451232902705669e-03</internalNodes>
          <leafValues>
            -2.6800939440727234e-01 5.4138207435607910e-01</leafValues></_>
        <_>
          <internalNodes>
            0 -1 103 -1.5300409868359566e-02</internalNodes>
          <leafValues>
            4.7338116168975830e-01 -3.1352335214614868e-01</leafValues></_></weakClassifiers></_>
    <!-- stage 9 -->
    <_>
      <maxWeakCount>11</maxWeakCount>
      <stageThreshold>-7.9212749004364014e-01</stageThreshold>
      <weakClassifiers>
        <_>
          <internalNodes>
            0 -1 119 6.1954865232110023e-03</internalNodes>
          <leafValues>
            1.0769230872392654e-01 -1.</leafValues></_>
        <_>
          <internalNodes>
            0 -1 70 3.7213298492133617e-04</internalNodes>
          <leafValues>
            -1.6289253532886505e-01 7.9733586311340332e-01</leafValues></_>
        <_>
          <internalNodes>
            0 -1 101 9.9047049880027771e-03</internalNodes>
          <leafValues>
            -2.4478359520435333e-01 4.9087151885032654e-01</leafValues></_>
        <_>
          <internalNodes>
            0 -1 32 -1.4945607632398605e-02</internalNodes>
          <leafValues>
            -5.4777163267135620e-01 2.6950672268867493e-01</leafValues></_>
        <_>
          <internalNodes>
            0 -1 192 8.3324266597628593e-05</internalNodes>
          <leafValues>
            2.7685162425041199e-01 -5.0086140632629395e-01</leafValues></_>
        <_>
          <internalNodes>
            0 -1 155 -2.1061409264802933e-02</internalNodes>
          <leafValues>
            6.0653823614120483e-01 -2.4948534369468689e-01</leafValues></_>
        <_>
          <internalNodes>
            0 -1 63 -2.8628332074731588e-03</internalNodes>
          <leafValues>
            5.2484643459320068e-01 -3.2972410321235657e-01</leafValues></_>
        <_>
          <internalNodes>
            0 -1 17 2.0101421978324652e-04</internalNodes>
          <leafValues>
            2.4271792173385620e-01 -5.5070775747299194e-01</leafValues></_>
        <_>
          <internalNodes>
            0 -1 140 -4.0273924241773784e-04</internalNodes>
          <leafValues>
            -6.0457372665405273e-01 2.4628974497318268e-01</leafValues></_>
        <_>
          <internalNodes>
            0 -1 139 1.0953058954328299e-03</internalNodes>
          <leafValues>
            1.5998324751853943e-01 -7.5842541456222534e-01</leafValues></_>
        <_>
          <internalNodes>
            0 -1 174 -7.6351934694685042e-05</internalNodes>
          <leafValues>
            5.0600868463516235e-01 -2.9100504517555237e-01</leafValues></_></weakClassifiers></_>
    <!-- stage 10 -->
    <_>
      <maxWeakCount>10</maxWeakCount>
      <stageThreshold>-7.3929655551910400e-01</stageThreshold>
      <weakClassifiers>
        <_>
          <internalNodes>
            0 -1 55 -2.2258567810058594e-01</internalNodes>
          <leafValues>
            8.0645161867141724e-01 -1.6778524219989777e-01</leafValues></_>
        <_>
          <internalNodes>
            0 -1 45 8.7870925664901733e-02</internalNodes>
          <leafValues>
            -2.5853314995765686e-01 6.6266852617263794e-01</leafValues></_>
        <_>
          <internalNodes>
            0 -1 53 2.3015215992927551e-04</internalNodes>
          <leafValues>
            3.4214222431182861e-01 -4.0167617797851562e-01</leafValues></_>
        <_>
          <internalNodes>
            0 -1 93 -8.9663243852555752e-04</internalNodes>
          <leafValues>
            6.5003097057342529e-01 -2.0761746168136597e-01</leafValues></_>
        <_>
          <internalNodes>
            0 -1 121 3.7267426960170269e-03</internalNodes>
          <leafValues>
            -2.6330468058586121e-01 6.6479206085205078e-01</leafValues></_>
        <_>
          <internalNodes>
            0 -1 135 -4.0137590258382261e-04</internalNodes>
          <leafValues>
            3.6142024397850037e-01 -4.9720856547355652e-01</leafValues></_>
        <_>
          <internalNodes>
            0 -1 41 3.1348450575023890e-03</internalNodes>
          <leafValues>
            -2.7450609207153320e-01 5.2880471944808960e-01</leafValues></_>
        <_>
          <internalNodes>
            0 -1 13 -3.8806956261396408e-02</internalNodes>
          <leafValues>
            5.9903991222381592e-01 -2.9228606820106506e-01</leafValues></_>
        <_>
          <internalNodes>
            0 -1 22 1.2090147356502712e-04</internalNodes>
          <leafValues>
            2.4912534654140472e-01 -6.0612863302230835e-01</leafValues></_>
        <_>
          <internalNodes>
            0 -1 151 -3.3353670733049512e-04</internalNodes>
          <leafValues>
            5.1838040351867676e-01 -2.8646370768547058e-01</leafValues></_></weakClassifiers></_>
    <!-- stage 11 -->
    <_>
      <maxWeakCount>10</maxWeakCount>
      <stageThreshold>-6.6117703914642334e-01</stageThreshold>
      <weakClassifiers>
        <_>
          <internalNodes>
            0 -1 73 -1.9959218800067902e-02</internalNodes>
          <leafValues>
            -9.2452830076217651e-01 1.5960912406444550e-01</leafValues></_>
        <_>
          <internalNodes>
            0 -1 194 -1.6376769053749740e-04</internalNodes>
          <leafValues>
            -6.0703921318054199e-01 1.7087280750274658e-01</leafValues></_>
        <_>
          <internalNodes>
            0 -1 65 8.0616696504876018e-04</internalNodes>
          <leafValues>
            -2.2390648722648621e-01 5.1478052139282227e-01</leafValues></_>
        <_>
          <internalNodes>
            0 -1 4 3.1570714781992137e-04</internalNodes>
          <leafValues>
            2.4070183932781219e-01 -6.6610771417617798e-01</leafValues></_>
        <_>
          <internalNodes>
            0 -1 46 -2.9070157324895263e-04</internalNodes>
          <leafValues>
            -4.6425604820251465e-01 3.0429080128669739e-01</leafValues></_>
        <_>
          <internalNodes>
            0 -1 86 -1.1980631388723850e-02</internalNodes>
          <leafValues>
            6.8968361616134644e-01 -2.8709080815315247e-01</leafValues></_>
        <_>
          <internalNodes>
            0 -1 166 1.0893709957599640e-02</internalNodes>
          <leafValues>
            -8.4322430193424225e-02 9.3480575084686279e-01</leafValues></_>
        <_>
          <internalNodes>
            0 -1 30 1.2271104380488396e-02</internalNodes>
          <leafValues>
            -1.4173002541065216e-01 8.0212986469268799e-01</leafValues></_>
        <_>
          <internalNodes>
            0 -1 160 1.4275970170274377e-03</internalNodes>
          <leafValues>
            -2.4753400683403015e-01 5.9145778417587280e-01</leafValues></_>
        <_>
          <internalNodes>
            0 -1 167 -1.1029522866010666e-03</internalNodes>
          <leafValues>
            -8.0804073810577393e-01 2.1647900342941284e-01</leafValues></_></weakClassifiers></_>
    <!-- stage 12 -->
    <_>
      <maxWeakCount>14</maxWeakCount>
      <stageThreshold>-6.2287014722824097e-01</stageThreshold>
      <weakClassifiers>
        <_>
          <internalNodes>
            0 -1 10 5.3911767899990082e-02</internalNodes>
          <leafValues>
            1.3548387587070465e-01 -8.3999997377395630e-01</leafValues></_>
        <_>
          <internalNodes>
            0 -1 169 -1.1980785988271236e-02</internalNodes>
          <leafValues>
            4.3373915553092957e-01 -2.9857507348060608e-01</leafValues></_>
        <_>
          <internalNodes>
            0 -1 29 -4.3348125182092190e-03</internalNodes>
          <leafValues>
            5.8850729465484619e-01 -1.7602136731147766e-01</leafValues></_>
        <_>
          <internalNodes>
            0 -1 96 2.8029293753206730e-04</internalNodes>
          <leafValues>
            -2.1913720667362213e-01 5.3801399469375610e-01</leafValues></_>
        <_>
          <internalNodes>
            0 -1 190 2.8377622948028147e-04</internalNodes>
          <leafValues>
            1.2448278814554214e-01 -8.6790502071380615e-01</leafValues></_>
        <_>
          <internalNodes>
            0 -1 61 2.2324710153043270e-04</internalNodes>
          <leafValues>
            3.3214935660362244e-01 -4.0799060463905334e-01</leafValues></_>
        <_>
          <internalNodes>
            0 -1 42 -8.8895261287689209e-02</internalNodes>
          <leafValues>
            -8.5049176216125488e-01 1.0410337150096893e-01</leafValues></_>
        <_>
          <internalNodes>
            0 -1 50 -1.0377571452409029e-03</internalNodes>
          <leafValues>
            -5.1102858781814575e-01 2.7275314927101135e-01</leafValues></_>
        <_>
          <internalNodes>
            0 -1 144 -7.3475688695907593e-03</internalNodes>
          <leafValues>
            -5.7359063625335693e-01 2.8370875120162964e-01</leafValues></_>
        <_>
          <internalNodes>
            0 -1 128 9.5658679492771626e-04</internalNodes>
          <leafValues>
            -2.4424113333225250e-01 6.6002541780471802e-01</leafValues></_>
        <_>
          <internalNodes>
            0 -1 104 -4.4454053044319153e-02</internalNodes>
          <leafValues>
            6.9890546798706055e-01 -2.0521225035190582e-01</leafValues></_>
        <_>
          <internalNodes>
            0 -1 154 1.7319493053946644e-04</internalNodes>
          <leafValues>
            -2.1465729176998138e-01 5.9982722997665405e-01</leafValues></_>
        <_>
          <internalNodes>
            0 -1 188 -1.2731899914797395e-04</internalNodes>
          <leafValues>
            -5.2270144224166870e-01 3.0635276436805725e-01</leafValues></_>
        <_>
          <internalNodes>
            0 -1 89 2.9834033921360970e-04</internalNodes>
          <leafValues>
            1.8524672091007233e-01 -5.6040441989898682e-01</leafValues></_></weakClassifiers></_>
    <!-- stage 13 -->
    <_>
      <maxWeakCount>13</maxWeakCount>
      <stageThreshold>-8.7363672256469727e-01</stageThreshold>
      <weakClassifiers>
        <_>
          <internalNodes>
            0 -1 6 1.8238634802401066e-03</internalNodes>
          <leafValues>
            2.3012551665306091e-01 -4.5454546809196472e-01</leafValues></_>
        <_>
          <internalNodes>
            0 -1 143 -1.5519736334681511e-03</internalNodes>
          <leafValues>
            -8.7563508749008179e-01 1.0152126848697662e-01</leafValues></_>
        <_>
          <internalNodes>
            0 -1 98 -5.3280387073755264e-03</internalNodes>
          <leafValues>
            6.2685328722000122e-01 -1.9185559451580048e-01</leafValues></_>
        <_>
          <internalNodes>
            0 -1 92 2.4755832273513079e-03</internalNodes>
          <leafValues>
            -2.8630435466766357e-01 5.0400817394256592e-01</leafValues></_>
        <_>
          <internalNodes>
            0 -1 189 -3.4253171179443598e-04</internalNodes>
          <leafValues>
            5.8082950115203857e-01 -1.9239173829555511e-01</leafValues></_>
        <_>
          <internalNodes>
            0 -1 54 -7.4289499025326222e-05</internalNodes>
          <leafValues>
            -4.2410019040107727e-01 2.8649631142616272e-01</leafValues></_>
        <_>
          <internalNodes>
            0 -1 146 -1.4994046650826931e-03</internalNodes>
          <leafValues>
            -8.1569498777389526e-01 1.7535319924354553e-01</leafValues></_>
        <_>
          <internalNodes>
            0 -1 38 3.4912436967715621e-04</internalNodes>
          <leafValues>
            -2.6371684670448303e-01 5.3341352939605713e-01</leafValues></_>
        <_>
          <internalNodes>
            0 -1 25 -4.4522946700453758e-03</internalNodes>
          <leafValues>
            5.2409064769744873e-01 -2.7567696571350098e-01</leafValues></_>
        <_>
          <internalNodes>
            0 -1 150 -5.3460560739040375e-03</internalNodes>
          <leafValues>
            -4.3839457631111145e-01 3.3084940910339355e-01</leafValues></_>
        <_>
          <internalNodes>
            0 -1 75 -1.3386429287493229e-02</internalNodes>
          <leafValues>
            5.1027077436447144e-01 -3.2504859566688538e-01</leafValues></_>
        <_>
          <internalNodes>
            0 -1 110 2.7331756427884102e-03</internalNodes>
          <leafValues>
            -2.0836417376995087e-01 6.9497549533843994e-01</leafValues></_>
        <_>
          <internalNodes>
            0 -1 165 -4.5323750237002969e-04</internalNodes>
          <leafValues>
            4.0789863467216492e-01 -3.7934699654579163e-01</leafValues></_></weakClassifiers></_>
    <!-- stage 14 -->
    <_>
      <maxWeakCount>13</maxWeakCount>
      <stageThreshold>-8.8364607095718384e-01</stageThreshold>
      <weakClassifiers>
        <_>
          <internalNodes>
            0 -1 39 -6.8937530741095543e-03</internalNodes>
          <leafValues>
            7.4603176116943359e-01 -1.5824915468692780e-01</leafValues></_>
        <_>
          <internalNodes>
            0 -1 186 -3.2652186928316951e-04</internalNodes>
          <leafValues>
            4.7681194543838501e-01 -2.3128321766853333e-01</leafValues></_>
        <_>
          <internalNodes>
            0 -1 33 5.3134132176637650e-02</internalNodes>
          <leafValues>
            1.4735868573188782e-01 -8.0314677953720093e-01</leafValues></_>
        <_>
          <internalNodes>
            0 -1 72 6.4297131029888988e-04</internalNodes>
          <leafValues>
            -3.7092924118041992e-01 3.4142100811004639e-01</leafValues></_>
        <_>
          <internalNodes>
            0 -1 8 -4.4039748609066010e-03</internalNodes>
          <leafValues>
            -5.3477931022644043e-01 2.7175822854042053e-01</leafValues></_>
        <_>
          <internalNodes>
            0 -1 84 -2.3289606906473637e-04</internalNodes>
          <leafValues>
            5.6013244390487671e-01 -2.5359693169593811e-01</leafValues></_>
        <_>
          <internalNodes>
            0 -1 91 -1.0632732883095741e-03</internalNodes>
          <leafValues>
            -7.3531234264373779e-01 1.8774032592773438e-01</leafValues></_>
        <_>
          <internalNodes>
            0 -1 79 2.7050543576478958e-03</internalNodes>
          <leafValues>
            -1.9493588805198669e-01 7.9092115163803101e-01</leafValues></_>
        <_>
          <internalNodes>
            0 -1 112 1.2109499657526612e-03</internalNodes>
          <leafValues>
            -2.1739117801189423e-01 6.2675559520721436e-01</leafValues></_>
        <_>
          <internalNodes>
            0 -1 196 -1.0603845294099301e-04</internalNodes>
          <leafValues>
            -4.4764256477355957e-01 3.5560369491577148e-01</leafValues></_>
        <_>
          <internalNodes>
            0 -1 161 -4.9253685574512929e-05</internalNodes>
          <leafValues>
            4.6166571974754333e-01 -3.3661890029907227e-01</leafValues></_>
        <_>
          <internalNodes>
            0 -1 1 3.1743868021294475e-04</internalNodes>
          <leafValues>
            2.5148233771324158e-01 -6.2685561180114746e-01</leafValues></_>
        <_>
          <internalNodes>
            0 -1 27 -1.6517235781066120e-04</internalNodes>
          <leafValues>
            3.3994570374488831e-01 -4.3561944365501404e-01</leafValues></_></weakClassifiers></_>
    <!-- stage 15 -->
    <_>
      <maxWeakCount>11</maxWeakCount>
      <stageThreshold>-3.2757601141929626e-01</stageThreshold>
      <weakClassifiers>
        <_>
          <internalNodes>
            0 -1 97 1.8149230163544416e-03</internalNodes>
          <leafValues>
            1.5646257996559143e-01 -6.9696968793869019e-01</leafValues></_>
        <_>
          <internalNodes>
            0 -1 125 1.1671186803141609e-04</internalNodes>
          <leafValues>
            -4.7621425986289978e-01 2.6007476449012756e-01</leafValues></_>
        <_>
          <internalNodes>
            0 -1 168 1.6498430632054806e-03</internalNodes>
          <leafValues>
            1.7870192229747772e-01 -7.4924886226654053e-01</leafValues></_>
        <_>
          <internalNodes>
            0 -1 3 1.3590594753623009e-03</internalNodes>
          <leafValues>
            2.1555402874946594e-01 -6.3395506143569946e-01</leafValues></_>
        <_>
          <internalNodes>
            0 -1 100 1.3353036592889111e-05</internalNodes>
          <leafValues>
            -3.2789891958236694e-01 4.5667406916618347e-01</leafValues></_>
        <_>
          <internalNodes>
            0 -1 183 9.0674302555271424e-06</internalNodes>
          <leafValues>
            -3.4631422162055969e-01 3.9685338735580444e-01</leafValues></_>
        <_>
          <internalNodes>
            0 -1 137 3.7074750289320946e-03</internalNodes>
          <leafValues>
            -2.7235564589500427e-01 5.1098442077636719e-01</leafValues></_>
        <_>
          <internalNodes>
            0 -1 43 8.9596852194517851e-04</internalNodes>
          <leafValues>
            1.6892427206039429e-01 -7.9156482219696045e-01</leafValues></_>
        <_>
          <internalNodes>
            0 -1 78 -9.0185443696100265e-05</internalNodes>
          <leafValues>
            3.9620709419250488e-01 -3.5653442144393921e-01</leafValues></_>
        <_>
          <internalNodes>
            0 -1 47 -7.7031403779983521e-03</internalNodes>
          <leafValues>
            7.7850502729415894e-01 -1.9334296882152557e-01</leafValues></_>
        <_>
          <internalNodes>
            0 -1 148 9.5110444817692041e-04</internalNodes>
          <leafValues>
            -3.4626740217208862e-01 4.7249120473861694e-01</leafValues></_></weakClassifiers></_>
    <!-- stage 16 -->
    <_>
      <maxWeakCount>10</maxWeakCount>
      <stageThreshold>-1.0418527126312256e+00</stageThreshold>
      <weakClassifiers>
        <_>
          <internalNodes>
            0 -1 59 2.9294840991497040e-02</internalNodes>
          <leafValues>
            2.3357664048671722e-01 -7.4418604373931885e-01</leafValues></_>
        <_>
          <internalNodes>
            0 -1 173 1.8156230449676514e-02</internalNodes>
          <leafValues>
            -2.4657060205936432e-01 6.6840523481369019e-01</leafValues></_>
        <_>
          <internalNodes>
            0 -1 35 2.8524128720164299e-04</internalNodes>
          <leafValues>
            2.9672774672508240e-01 -4.8522263765335083e-01</leafValues></_>
        <_>
          <internalNodes>
            0 -1 138 -1.2881186557933688e-03</internalNodes>
          <leafValues>
            -8.2944083213806152e-01 2.3712603747844696e-01</leafValues></_>
        <_>
          <internalNodes>
            0 -1 107 -1.5946899657137692e-04</internalNodes>
          <leafValues>
            -4.5269176363945007e-01 2.9835379123687744e-01</leafValues></_>
        <_>
          <internalNodes>
            0 -1 180 -2.0173774100840092e-03</internalNodes>
          <leafValues>
            5.9536385536193848e-01 -2.6447615027427673e-01</leafValues></_>
        <_>
          <internalNodes>
            0 -1 81 2.4429152254015207e-03</internalNodes>
          <leafValues>
            3.2221400737762451e-01 -5.0545418262481689e-01</leafValues></_>
        <_>
          <internalNodes>
            0 -1 176 6.0683966148644686e-04</internalNodes>
          <leafValues>
            -2.9894915223121643e-01 5.2712047100067139e-01</leafValues></_>
        <_>
          <internalNodes>
            0 -1 95 -1.4303920324891806e-03</internalNodes>
          <leafValues>
            5.7649165391921997e-01 -2.8701102733612061e-01</leafValues></_>
        <_>
          <internalNodes>
            0 -1 175 -1.2191575951874256e-03</internalNodes>
          <leafValues>
            -7.5065839290618896e-01 1.9715125858783722e-01</leafValues></_></weakClassifiers></_>
    <!-- stage 17 -->
    <_>
      <maxWeakCount>9</maxWeakCount>
      <stageThreshold>-5.2241170406341553e-01</stageThreshold>
      <weakClassifiers>
        <_>
          <internalNodes>
            0 -1 122 6.9201318547129631e-04</internalNodes>
          <leafValues>
            1.8088737130165100e-01 -7.9104477167129517e-01</leafValues></_>
        <_>
          <internalNodes>
            0 -1 0 -1.1436624918133020e-03</internalNodes>
          <leafValues>
            -4.3233212828636169e-01 3.2111486792564392e-01</leafValues></_>
        <_>
          <internalNodes>
            0 -1 82 9.2021201271563768e-04</internalNodes>
          <leafValues>
            -2.3921519517898560e-01 6.6634440422058105e-01</leafValues></_>
        <_>
          <internalNodes>
            0 -1 179 4.5578209683299065e-03</internalNodes>
          <leafValues>
            -3.2010629773139954e-01 5.1702845096588135e-01</leafValues></_>
        <_>
          <internalNodes>
            0 -1 99 -7.4015319114550948e-05</internalNodes>
          <leafValues>
            -5.8737540245056152e-01 3.0868640542030334e-01</leafValues></_>
        <_>
          <internalNodes>
            0 -1 153 -7.5993442442268133e-04</internalNodes>
          <leafValues>
            -7.0586037635803223e-01 2.0726002752780914e-01</leafValues></_>
        <_>
          <internalNodes>
            0 -1 182 4.1556698270142078e-03</internalNodes>
          <leafValues>
            -2.2993600368499756e-01 8.0404782295227051e-01</leafValues></_>
        <_>
          <internalNodes>
            0 -1 36 1.1464471928775311e-02</internalNodes>
          <leafValues>
            3.8044819235801697e-01 -4.4980826973915100e-01</leafValues></_>
        <_>
          <internalNodes>
            0 -1 67 5.2804418373852968e-04</internalNodes>
          <leafValues>
            -3.0751049518585205e-01 5.9476721286773682e-01</leafValues></_></weakClassifiers></_>
    <!-- stage 18 -->
    <_>
      <maxWeakCount>10</maxWeakCount>
      <stageThreshold>-3.8219213485717773e-01</stageThreshold>
      <weakClassifiers>
        <_>
          <internalNodes>
            0 -1 109 6.7400012630969286e-04</internalNodes>
          <leafValues>
            -2.9090908169746399e-01 4.5714285969734192e-01</leafValues></_>
        <_>
          <internalNodes>
            0 -1 193 -9.8359480034559965e-05</internalNodes>
          <leafValues>
            -4.5212092995643616e-01 3.5011586546897888e-01</leafValues></_>
        <_>
          <internalNodes>
            0 -1 184 -2.3248067009262741e-04</internalNodes>
          <leafValues>
            -3.5703417658805847e-01 4.9700906872749329e-01</leafValues></_>
        <_>
          <internalNodes>
            0 -1 141 2.3768044775351882e-04</internalNodes>
          <leafValues>
            2.6923036575317383e-01 -6.1131685972213745e-01</leafValues></_>
        <_>
          <internalNodes>
            0 -1 83 3.4597085323184729e-04</internalNodes>
          <leafValues>
            -1.8345470726490021e-01 7.7906048297882080e-01</leafValues></_>
        <_>
          <internalNodes>
            0 -1 116 -5.0373389385640621e-03</internalNodes>
          <leafValues>
            -7.6618593931198120e-01 2.1144120395183563e-01</leafValues></_>
        <_>
          <internalNodes>
            0 -1 56 -1.5057236305437982e-04</internalNodes>
          <leafValues>
            5.6090545654296875e-01 -3.1644961237907410e-01</leafValues></_>
        <_>
          <internalNodes>
            0 -1 77 -1.9865468493662775e-04</internalNodes>
          <leafValues>
            -6.6671633720397949e-01 2.1304386854171753e-01</leafValues></_>
        <_>
          <internalNodes>
            0 -1 170 -3.6169323720969260e-05</internalNodes>
          <leafValues>
            5.0070458650588989e-01 -3.2694581151008606e-01</leafValues></_>
        <_>
          <internalNodes>
            0 -1 181 -8.1171555211767554e-04</internalNodes>
          <leafValues>
            -8.0425846576690674e-01 1.8915931880474091e-01</leafValues></_></weakClassifiers></_>
    <!-- stage 19 -->
    <_>
      <maxWeakCount>10</maxWeakCount>
      <stageThreshold>-8.8805150985717773e-01</stageThreshold>
      <weakClassifiers>
        <_>
          <internalNodes>
            0 -1 195 3.3037242246791720e-04</internalNodes>
          <leafValues>
            1.9434629380702972e-01 -7.1428573131561279e-01</leafValues></_>
        <_>
          <internalNodes>
            0 -1 156 -6.4512854442000389e-04</internalNodes>
          <leafValues>
            8.5676831007003784e-01 -2.1432702243328094e-01</leafValues></_>
        <_>
          <internalNodes>
            0 -1 129 1.7848443239927292e-03</internalNodes>
          <leafValues>
            -1.5106132626533508e-01 7.6308691501617432e-01</leafValues></_>
        <_>
          <internalNodes>
            0 -1 172 1.9672469352371991e-04</internalNodes>
          <leafValues>
            -3.3619871735572815e-01 4.9628183245658875e-01</leafValues></_>
        <_>
          <internalNodes>
            0 -1 164 4.2366050183773041e-04</internalNodes>
          <leafValues>
            -3.0078521370887756e-01 5.0485891103744507e-01</leafValues></_>
        <_>
          <internalNodes>
            0 -1 5 1.3353602262213826e-03</internalNodes>
          <leafValues>
            3.3214399218559265e-01 -4.7685670852661133e-01</leafValues></_>
        <_>
          <internalNodes>
            0 -1 16 -3.2444596290588379e-02</internalNodes>
          <leafValues>
            9.3699687719345093e-01 -2.0862652361392975e-01</leafValues></_>
        <_>
          <internalNodes>
            0 -1 62 9.2996523017063737e-04</internalNodes>
          <leafValues>
            -2.1776835620403290e-01 6.5821236371994019e-01</leafValues></_>
        <_>
          <internalNodes>
            0 -1 44 -5.3261290304362774e-04</internalNodes>
          <leafValues>
            -5.8414179086685181e-01 3.1798356771469116e-01</leafValues></_>
        <_>
          <internalNodes>
            0 -1 108 6.6928070737048984e-05</internalNodes>
          <leafValues>
            -3.2723799347877502e-01 6.0023438930511475e-01</leafValues></_></weakClassifiers></_></stages>
  <features>
    <_>
      <rects>
        <_>
          0 0 6 15 -1.</_>
        <_>
          0 5 6 5 3.</_></rects>
      <tilted>0</tilted></_>
    <_>
      <rects>
        <_>
          0 0 7 2 -1.</_>
        <_>
          0 1 7 1 2.</_></rects>
      <tilted>0</tilted></_>
    <_>
      <rects>
        <_>
          0 0 32 16 -1.</_>
        <_>
          0 8 32 8 2.</_></rects>
      <tilted>0</tilted></_>
    <_>
      <rects>
        <_>
          0 1 2 12 -1.</_>
        <_>
          0 5 2 4 3.</_></rects>
      <tilted>0</tilted></_>
    <_>
      <rects>
        <_>
          0 1 6 3 -1.</_>
        <_>
          0 2 6 1 3.</_></rects>
      <tilted>0</tilted></_>
    <_>
      <rects>
        <_>
          0 1 26 1 -1.</_>
        <_>
          13 1 13 1 2.</_></rects>
      <tilted>0</tilted></_>
    <_>
      <rects>
        <_>
          0 4 3 12 -1.</_>
        <_>
          0 10 3 6 2.</_></rects>
      <tilted>0</tilted></_>
    <_>
      <rects>
        <_>
          0 8 20 12 -1.</_>
        <_>
          10 8 10 12 2.</_></rects>
      <tilted>0</tilted></_>
    <_>
      <rects>
        <_>
          0 9 40 6 -1.</_>
        <_>
          0 11 40 2 3.</_></rects>
      <tilted>0</tilted></_>
    <_>
      <rects>
        <_>
          0 10 2 1 -1.</_>
        <_>
          1 10 1 1 2.</_></rects>
      <tilted>0</tilted></_>
    <_>
      <rects>
        <_>
          0 10 35 15 -1.</_>
        <_>
          0 15 35 5 3.</_></rects>
      <tilted>0</tilted></_>
    <_>
      <rects>
        <_>
          0 10 38 9 -1.</_>
        <_>
          0 13 38 3 3.</_></rects>
      <tilted>0</tilted></_>
    <_>
      <rects>
        <_>
          0 17 2 23 -1.</_>
        <_>
          1 17 1 23 2.</_></rects>
      <tilted>0</tilted></_>
    <_>
      <rects>
        <_>
          0 17 16 18 -1.</_>
        <_>
          8 17 8 18 2.</_></rects>
      <tilted>0</tilted></_>
    <_>
      <rects>
        <_>
          0 22 18 7 -1.</_>
        <_>
          6 22 6 7 3.</_></rects>
      <tilted>0</tilted></_>
    <_>
      <rects>
        <_>
          0 23 22 14 -1.</_>
        <_>
          11 23 11 14 2.</_></rects>
      <tilted>0</tilted></_>
    <_>
      <rects>
        <_>
          0 26 39 5 -1.</_>
        <_>
          13 26 13 5 3.</_></rects>
      <tilted>0</tilted></_>
    <_>
      <rects>
        <_>
          0 27 1 9 -1.</_>
        <_>
          0 30 1 3 3.</_></rects>
      <tilted>0</tilted></_>
    <_>
      <rects>
        <_>
          0 36 16 4 -1.</_>
        <_>
          0 38 16 2 2.</_></rects>
      <tilted>0</tilted></_>
    <_>
      <rects>
        <_>
          1 1 6 10 -1.</_>
        <_>
          1 6 6 5 2.</_></rects>
      <tilted>0</tilted></_>
    <_>
      <rects>
        <_>
          1 5 12 18 -1.</_>
        <_>
          7 5 6 18 2.</_></rects>
      <tilted>0</tilted></_>
    <_>
      <rects>
        <_>
          1 6 10 6 -1.</_>
        <_>
          1 9 10 3 2.</_></rects>
      <tilted>0</tilted></_>
    <_>
      <rects>
        <_>
          1 8 2 3 -1.</_>
        <_>
          1 9 2 1 3.</_></rects>
      <tilted>0</tilted></_>
    <_>
      <rects>
        <_>
          1 10 2 1 -1.</_>
        <_>
          2 10 1 1 2.</_></rects>
      <tilted>0</tilted></_>
    <_>
      <rects>
        <_>
          1 11 27 6 -1.</_>
        <_>
          10 11 9 6 3.</_></rects>
      <tilted>0</tilted></_>
    <_>
      <rects>
        <_>
          1 13 15 4 -1.</_>
        <_>
          6 13 5 4 3.</_></rects>
      <tilted>0</tilted></_>
    <_>
      <rects>
        <_>
          1 13 21 24 -1.</_>
        <_>
          1 21 21 8 3.</_></rects>
      <tilted>0</tilted></_>
    <_>
      <rects>
        <_>
          1 15 4 14 -1.</_>
        <_>
          1 15 2 7 2.</_>
        <_>
          3 22 2 7 2.</_></rects>
      <tilted>0</tilted></_>
    <_>
      <rects>
        <_>
          1 20 12 5 -1.</_>
        <_>
          5 20 4 5 3.</_></rects>
      <tilted>0</tilted></_>
    <_>
      <rects>
        <_>
          1 20 10 3 -1.</_>
        <_>
          6 20 5 3 2.</_></rects>
      <tilted>0</tilted></_>
    <_>
      <rects>
        <_>
          2 5 8 22 -1.</_>
        <_>
          2 5 4 11 2.</_>
        <_>
          6 16 4 11 2.</_></rects>
      <tilted>0</tilted></_>
    <_>
      <rects>
        <_>
          2 6 38 9 -1.</_>
        <_>
          2 9 38 3 3.</_></rects>
      <tilted>0</tilted></_>
    <_>
      <rects>
        <_>
          2 8 38 15 -1.</_>
        <_>
          2 13 38 5 3.</_></rects>
      <tilted>0</tilted></_>
    <_>
      <rects>
        <_>
          2 20 14 20 -1.</_>
        <_>
          2 30 14 10 2.</_></rects>
      <tilted>0</tilted></_>
    <_>
      <rects>
        <_>
          2 26 13 6 -1.</_>
        <_>
          2 28 13 2 3.</_></rects>
      <tilted>0</tilted></_>
    <_>
      <rects>
        <_>
          3 6 1 8 -1.</_>
        <_>
          3 10 1 4 2.</_></rects>
      <tilted>0</tilted></_>
    <_>
      <rects>
        <_>
          3 11 10 21 -1.</_>
        <_>
          3 18 10 7 3.</_></rects>
      <tilted>0</tilted></_>
    <_>
      <rects>
        <_>
          3 11 20 3 -1.</_>
        <_>
          3 12 20 1 3.</_></rects>
      <tilted>0</tilted></_>
    <_>
      <rects>
        <_>
          3 13 9 1 -1.</_>
        <_>
          6 13 3 1 3.</_></rects>
      <tilted>0</tilted></_>
    <_>
      <rects>
        <_>
          3 14 8 5 -1.</_>
        <_>
          7 14 4 5 2.</_></rects>
      <tilted>0</tilted></_>
    <_>
      <rects>
        <_>
          3 19 9 4 -1.</_>
        <_>
          6 19 3 4 3.</_></rects>
      <tilted>0</tilted></_>
    <_>
      <rects>
        <_>
          3 24 10 8 -1.</_>
        <_>
          8 24 5 8 2.</_></rects>
      <tilted>0</tilted></_>
    <_>
      <rects>
        <_>
          3 25 36 14 -1.</_>
        <_>
          3 32 36 7 2.</_></rects>
      <tilted>0</tilted></_>
    <_>
      <rects>
        <_>
          3 37 7 3 -1.</_>
        <_>
          3 38 7 1 3.</_></rects>
      <tilted>0</tilted></_>
    <_>
      <rects>
        <_>
          3 38 13 2 -1.</_>
        <_>
          3 39 13 1 2.</_></rects>
      <tilted>0</tilted></_>
    <_>
      <rects>
        <_>
          4 1 32 28 -1.</_>
        <_>
          4 1 16 14 2.</_>
        <_>
          20 15 16 14 2.</_></rects>
      <tilted>0</tilted></_>
    <_>
      <rects>
        <_>
          4 3 16 2 -1.</_>
        <_>
          4 3 8 1 2.</_>
        <_>
          12 4 8 1 2.</_></rects>
      <tilted>0</tilted></_>
    <_>
      <rects>
        <_>
          4 30 10 7 -1.</_>
        <_>
          9 30 5 7 2.</_></rects>
      <tilted>0</tilted></_>
    <_>
      <rects>
        <_>
          5 0 2 6 -1.</_>
        <_>
          5 2 2 2 3.</_></rects>
      <tilted>0</tilted></_>
    <_>
      <rects>
        <_>
          5 9 1 6 -1.</_>
        <_>
          5 12 1 3 2.</_></rects>
      <tilted>0</tilted></_>
    <_>
      <rects>
        <_>
          5 16 21 15 -1.</_>
        <_>
          5 21 21 5 3.</_></rects>
      <tilted>0</tilted></_>
    <_>
      <rects>
        <_>
          5 18 6 8 -1.</_>
        <_>
          5 18 3 4 2.</_>
        <_>
          8 22 3 4 2.</_></rects>
      <tilted>0</tilted></_>
    <_>
      <rects>
        <_>
          5 27 17 3 -1.</_>
        <_>
          5 28 17 1 3.</_></rects>
      <tilted>0</tilted></_>
    <_>
      <rects>
        <_>
          6 0 5 4 -1.</_>
        <_>
          6 2 5 2 2.</_></rects>
      <tilted>0</tilted></_>
    <_>
      <rects>
        <_>
          6 0 14 4 -1.</_>
        <_>
          6 0 7 2 2.</_>
        <_>
          13 2 7 2 2.</_></rects>
      <tilted>0</tilted></_>
    <_>
      <rects>
        <_>
          6 4 34 36 -1.</_>
        <_>
          6 4 17 18 2.</_>
        <_>
          23 22 17 18 2.</_></rects>
      <tilted>0</tilted></_>
    <_>
      <rects>
        <_>
          6 4 25 3 -1.</_>
        <_>
          6 5 25 1 3.</_></rects>
      <tilted>0</tilted></_>
    <_>
      <rects>
        <_>
          6 5 22 1 -1.</_>
        <_>
          17 5 11 1 2.</_></rects>
      <tilted>0</tilted></_>
    <_>
      <rects>
        <_>
          6 8 14 3 -1.</_>
        <_>
          6 9 14 1 3.</_></rects>
      <tilted>0</tilted></_>
    <_>
      <rects>
        <_>
          6 17 31 12 -1.</_>
        <_>
          6 21 31 4 3.</_></rects>
      <tilted>0</tilted></_>
    <_>
      <rects>
        <_>
          6 23 33 14 -1.</_>
        <_>
          17 23 11 14 3.</_></rects>
      <tilted>0</tilted></_>
    <_>
      <rects>
        <_>
          6 24 12 3 -1.</_>
        <_>
          6 25 12 1 3.</_></rects>
      <tilted>0</tilted></_>
    <_>
      <rects>
        <_>
          6 31 6 3 -1.</_>
        <_>
          9 31 3 3 2.</_></rects>
      <tilted>0</tilted></_>
    <_>
      <rects>
        <_>
          6 39 33 1 -1.</_>
        <_>
          17 39 11 1 3.</_></rects>
      <tilted>0</tilted></_>
    <_>
      <rects>
        <_>
          7 5 24 14 -1.</_>
        <_>
          7 5 12 7 2.</_>
        <_>
          19 12 12 7 2.</_></rects>
      <tilted>0</tilted></_>
    <_>
      <rects>
        <_>
          7 14 6 4 -1.</_>
        <_>
          9 14 2 4 3.</_></rects>
      <tilted>0</tilted></_>
    <_>
      <rects>
        <_>
          8 3 22 18 -1.</_>
        <_>
          8 3 11 9 2.</_>
        <_>
          19 12 11 9 2.</_></rects>
      <tilted>0</tilted></_>
    <_>
      <rects>
        <_>
          8 19 6 3 -1.</_>
        <_>
          10 19 2 3 3.</_></rects>
      <tilted>0</tilted></_>
    <_>
      <rects>
        <_>
          9 12 27 3 -1.</_>
        <_>
          9 13 27 1 3.</_></rects>
      <tilted>0</tilted></_>
    <_>
      <rects>
        <_>
          10 5 18 14 -1.</_>
        <_>
          10 5 9 7 2.</_>
        <_>
          19 12 9 7 2.</_></rects>
      <tilted>0</tilted></_>
    <_>
      <rects>
        <_>
          10 12 2 4 -1.</_>
        <_>
          11 12 1 4 2.</_></rects>
      <tilted>0</tilted></_>
    <_>
      <rects>
        <_>
          10 22 2 3 -1.</_>
        <_>
          11 22 1 3 2.</_></rects>
      <tilted>0</tilted></_>
    <_>
      <rects>
        <_>
          10 23 8 2 -1.</_>
        <_>
          14 23 4 2 2.</_></rects>
      <tilted>0</tilted></_>
    <_>
      <rects>
        <_>
          11 0 22 3 -1.</_>
        <_>
          22 0 11 3 2.</_></rects>
      <tilted>0</tilted></_>
    <_>
      <rects>
        <_>
          11 3 22 20 -1.</_>
        <_>
          11 3 11 10 2.</_>
        <_>
          22 13 11 10 2.</_></rects>
      <tilted>0</tilted></_>
    <_>
      <rects>
        <_>
          11 3 28 8 -1.</_>
        <_>
          11 7 28 4 2.</_></rects>
      <tilted>0</tilted></_>
    <_>
      <rects>
        <_>
          11 7 18 8 -1.</_>
        <_>
          11 7 9 4 2.</_>
        <_>
          20 11 9 4 2.</_></rects>
      <tilted>0</tilted></_>
    <_>
      <rects>
        <_>
          12 0 6 2 -1.</_>
        <_>
          12 1 6 1 2.</_></rects>
      <tilted>0</tilted></_>
    <_>
      <rects>
        <_>
          12 2 2 18 -1.</_>
        <_>
          12 2 1 9 2.</_>
        <_>
          13 11 1 9 2.</_></rects>
      <tilted>0</tilted></_>
    <_>
      <rects>
        <_>
          12 3 12 4 -1.</_>
        <_>
          12 3 6 2 2.</_>
        <_>
          18 5 6 2 2.</_></rects>
      <tilted>0</tilted></_>
    <_>
      <rects>
        <_>
          12 7 14 7 -1.</_>
        <_>
          19 7 7 7 2.</_></rects>
      <tilted>0</tilted></_>
    <_>
      <rects>
        <_>
          12 9 24 6 -1.</_>
        <_>
          12 11 24 2 3.</_></rects>
      <tilted>0</tilted></_>
    <_>
      <rects>
        <_>
          12 11 5 6 -1.</_>
        <_>
          12 14 5 3 2.</_></rects>
      <tilted>0</tilted></_>
    <_>
      <rects>
        <_>
          12 29 13 2 -1.</_>
        <_>
          12 30 13 1 2.</_></rects>
      <tilted>0</tilted></_>
    <_>
      <rects>
        <_>
          12 30 2 6 -1.</_>
        <_>
          12 30 1 3 2.</_>
        <_>
          13 33 1 3 2.</_></rects>
      <tilted>0</tilted></_>
    <_>
      <rects>
        <_>
          13 5 14 12 -1.</_>
        <_>
          13 5 7 6 2.</_>
        <_>
          20 11 7 6 2.</_></rects>
      <tilted>0</tilted></_>
    <_>
      <rects>
        <_>
          13 6 18 8 -1.</_>
        <_>
          13 6 9 4 2.</_>
        <_>
          22 10 9 4 2.</_></rects>
      <tilted>0</tilted></_>
    <_>
      <rects>
        <_>
          13 8 3 29 -1.</_>
        <_>
          14 8 1 29 3.</_></rects>
      <tilted>0</tilted></_>
    <_>
      <rects>
        <_>
          13 8 24 1 -1.</_>
        <_>
          21 8 8 1 3.</_></rects>
      <tilted>0</tilted></_>
    <_>
      <rects>
        <_>
          13 13 3 9 -1.</_>
        <_>
          14 13 1 9 3.</_></rects>
      <tilted>0</tilted></_>
    <_>
      <rects>
        <_>
          13 18 6 16 -1.</_>
        <_>
          15 18 2 16 3.</_></rects>
      <tilted>0</tilted></_>
    <_>
      <rects>
        <_>
          14 0 15 1 -1.</_>
        <_>
          19 0 5 1 3.</_></rects>
      <tilted>0</tilted></_>
    <_>
      <rects>
        <_>
          14 5 10 6 -1.</_>
        <_>
          14 5 5 3 2.</_>
        <_>
          19 8 5 3 2.</_></rects>
      <tilted>0</tilted></_>
    <_>
      <rects>
        <_>
          14 5 14 2 -1.</_>
        <_>
          14 5 7 1 2.</_>
        <_>
          21 6 7 1 2.</_></rects>
      <tilted>0</tilted></_>
    <_>
      <rects>
        <_>
          14 9 18 3 -1.</_>
        <_>
          20 9 6 3 3.</_></rects>
      <tilted>0</tilted></_>
    <_>
      <rects>
        <_>
          14 15 18 3 -1.</_>
        <_>
          20 15 6 3 3.</_></rects>
      <tilted>0</tilted></_>
    <_>
      <rects>
        <_>
          14 38 8 1 -1.</_>
        <_>
          18 38 4 1 2.</_></rects>
      <tilted>0</tilted></_>
    <_>
      <rects>
        <_>
          15 1 3 38 -1.</_>
        <_>
          16 1 1 38 3.</_></rects>
      <tilted>0</tilted></_>
    <_>
      <rects>
        <_>
          15 3 10 10 -1.</_>
        <_>
          15 3 5 5 2.</_>
        <_>
          20 8 5 5 2.</_></rects>
      <tilted>0</tilted></_>
    <_>
      <rects>
        <_>
          15 22 2 5 -1.</_>
        <_>
          16 22 1 5 2.</_></rects>
      <tilted>0</tilted></_>
    <_>
      <rects>
        <_>
          15 29 3 1 -1.</_>
        <_>
          16 29 1 1 3.</_></rects>
      <tilted>0</tilted></_>
    <_>
      <rects>
        <_>
          16 2 18 10 -1.</_>
        <_>
          16 2 9 5 2.</_>
        <_>
          25 7 9 5 2.</_></rects>
      <tilted>0</tilted></_>
    <_>
      <rects>
        <_>
          16 6 22 22 -1.</_>
        <_>
          16 6 11 11 2.</_>
        <_>
          27 17 11 11 2.</_></rects>
      <tilted>0</tilted></_>
    <_>
      <rects>
        <_>
          16 7 24 6 -1.</_>
        <_>
          24 7 8 6 3.</_></rects>
      <tilted>0</tilted></_>
    <_>
      <rects>
        <_>
          16 11 21 12 -1.</_>
        <_>
          23 11 7 12 3.</_></rects>
      <tilted>0</tilted></_>
    <_>
      <rects>
        <_>
          16 18 24 17 -1.</_>
        <_>
          24 18 8 17 3.</_></rects>
      <tilted>0</tilted></_>
    <_>
      <rects>
        <_>
          16 19 3 14 -1.</_>
        <_>
          17 19 1 14 3.</_></rects>
      <tilted>0</tilted></_>
    <_>
      <rects>
        <_>
          16 26 6 8 -1.</_>
        <_>
          18 26 2 8 3.</_></rects>
      <tilted>0</tilted></_>
    <_>
      <rects>
        <_>
          16 28 1 3 -1.</_>
        <_>
          16 29 1 1 3.</_></rects>
      <tilted>0</tilted></_>
    <_>
      <rects>
        <_>
          16 31 9 7 -1.</_>
        <_>
          19 31 3 7 3.</_></rects>
      <tilted>0</tilted></_>
    <_>
      <rects>
        <_>
          17 3 1 21 -1.</_>
        <_>
          17 10 1 7 3.</_></rects>
      <tilted>0</tilted></_>
    <_>
      <rects>
        <_>
          17 6 8 8 -1.</_>
        <_>
          17 6 4 4 2.</_>
        <_>
          21 10 4 4 2.</_></rects>
      <tilted>0</tilted></_>
    <_>
      <rects>
        <_>
          17 8 4 6 -1.</_>
        <_>
          17 8 2 3 2.</_>
        <_>
          19 11 2 3 2.</_></rects>
      <tilted>0</tilted></_>
    <_>
      <rects>
        <_>
          17 9 18 24 -1.</_>
        <_>
          17 9 9 12 2.</_>
        <_>
          26 21 9 12 2.</_></rects>
      <tilted>0</tilted></_>
    <_>
      <rects>
        <_>
          17 13 21 2 -1.</_>
        <_>
          24 13 7 2 3.</_></rects>
      <tilted>0</tilted></_>
    <_>
      <rects>
        <_>
          17 14 10 24 -1.</_>
        <_>
          17 22 10 8 3.</_></rects>
      <tilted>0</tilted></_>
    <_>
      <rects>
        <_>
          17 17 12 11 -1.</_>
        <_>
          21 17 4 11 3.</_></rects>
      <tilted>0</tilted></_>
    <_>
      <rects>
        <_>
          17 21 3 8 -1.</_>
        <_>
          18 21 1 8 3.</_></rects>
      <tilted>0</tilted></_>
    <_>
      <rects>
        <_>
          17 26 3 2 -1.</_>
        <_>
          17 27 3 1 2.</_></rects>
      <tilted>0</tilted></_>
    <_>
      <rects>
        <_>
          18 3 6 18 -1.</_>
        <_>
          20 3 2 18 3.</_></rects>
      <tilted>0</tilted></_>
    <_>
      <rects>
        <_>
          18 4 3 20 -1.</_>
        <_>
          19 4 1 20 3.</_></rects>
      <tilted>0</tilted></_>
    <_>
      <rects>
        <_>
          18 4 8 6 -1.</_>
        <_>
          18 4 4 3 2.</_>
        <_>
          22 7 4 3 2.</_></rects>
      <tilted>0</tilted></_>
    <_>
      <rects>
        <_>
          18 7 3 8 -1.</_>
        <_>
          19 7 1 8 3.</_></rects>
      <tilted>0</tilted></_>
    <_>
      <rects>
        <_>
          18 7 3 27 -1.</_>
        <_>
          19 7 1 27 3.</_></rects>
      <tilted>0</tilted></_>
    <_>
      <rects>
        <_>
          18 10 20 11 -1.</_>
        <_>
          28 10 10 11 2.</_></rects>
      <tilted>0</tilted></_>
    <_>
      <rects>
        <_>
          18 13 1 24 -1.</_>
        <_>
          18 21 1 8 3.</_></rects>
      <tilted>0</tilted></_>
    <_>
      <rects>
        <_>
          18 20 3 7 -1.</_>
        <_>
          19 20 1 7 3.</_></rects>
      <tilted>0</tilted></_>
    <_>
      <rects>
        <_>
          19 0 3 16 -1.</_>
        <_>
          19 8 3 8 2.</_></rects>
      <tilted>0</tilted></_>
    <_>
      <rects>
        <_>
          19 7 4 6 -1.</_>
        <_>
          19 7 2 3 2.</_>
        <_>
          21 10 2 3 2.</_></rects>
      <tilted>0</tilted></_>
    <_>
      <rects>
        <_>
          19 7 5 9 -1.</_>
        <_>
          19 10 5 3 3.</_></rects>
      <tilted>0</tilted></_>
    <_>
      <rects>
        <_>
          19 8 1 30 -1.</_>
        <_>
          19 18 1 10 3.</_></rects>
      <tilted>0</tilted></_>
    <_>
      <rects>
        <_>
          19 14 18 1 -1.</_>
        <_>
          28 14 9 1 2.</_></rects>
      <tilted>0</tilted></_>
    <_>
      <rects>
        <_>
          19 16 3 17 -1.</_>
        <_>
          20 16 1 17 3.</_></rects>
      <tilted>0</tilted></_>
    <_>
      <rects>
        <_>
          19 21 18 7 -1.</_>
        <_>
          25 21 6 7 3.</_></rects>
      <tilted>0</tilted></_>
    <_>
      <rects>
        <_>
          19 26 18 12 -1.</_>
        <_>
          28 26 9 12 2.</_></rects>
      <tilted>0</tilted></_>
    <_>
      <rects>
        <_>
          19 30 3 10 -1.</_>
        <_>
          19 35 3 5 2.</_></rects>
      <tilted>0</tilted></_>
    <_>
      <rects>
        <_>
          19 30 5 8 -1.</_>
        <_>
          19 34 5 4 2.</_></rects>
      <tilted>0</tilted></_>
    <_>
      <rects>
        <_>
          19 35 15 5 -1.</_>
        <_>
          24 35 5 5 3.</_></rects>
      <tilted>0</tilted></_>
    <_>
      <rects>
        <_>
          20 0 3 25 -1.</_>
        <_>
          21 0 1 25 3.</_></rects>
      <tilted>0</tilted></_>
    <_>
      <rects>
        <_>
          20 1 3 25 -1.</_>
        <_>
          21 1 1 25 3.</_></rects>
      <tilted>0</tilted></_>
    <_>
      <rects>
        <_>
          20 4 3 7 -1.</_>
        <_>
          21 4 1 7 3.</_></rects>
      <tilted>0</tilted></_>
    <_>
      <rects>
        <_>
          20 5 3 5 -1.</_>
        <_>
          21 5 1 5 3.</_></rects>
      <tilted>0</tilted></_>
    <_>
      <rects>
        <_>
          20 8 3 26 -1.</_>
        <_>
          21 8 1 26 3.</_></rects>
      <tilted>0</tilted></_>
    <_>
      <rects>
        <_>
          20 10 3 26 -1.</_>
        <_>
          21 10 1 26 3.</_></rects>
      <tilted>0</tilted></_>
    <_>
      <rects>
        <_>
          20 13 20 12 -1.</_>
        <_>
          20 17 20 4 3.</_></rects>
      <tilted>0</tilted></_>
    <_>
      <rects>
        <_>
          20 16 3 14 -1.</_>
        <_>
          21 16 1 14 3.</_></rects>
      <tilted>0</tilted></_>
    <_>
      <rects>
        <_>
          21 0 3 33 -1.</_>
        <_>
          22 0 1 33 3.</_></rects>
      <tilted>0</tilted></_>
    <_>
      <rects>
        <_>
          21 0 18 4 -1.</_>
        <_>
          21 2 18 2 2.</_></rects>
      <tilted>0</tilted></_>
    <_>
      <rects>
        <_>
          21 6 1 24 -1.</_>
        <_>
          21 14 1 8 3.</_></rects>
      <tilted>0</tilted></_>
    <_>
      <rects>
        <_>
          21 7 9 2 -1.</_>
        <_>
          24 7 3 2 3.</_></rects>
      <tilted>0</tilted></_>
    <_>
      <rects>
        <_>
          21 9 12 12 -1.</_>
        <_>
          21 13 12 4 3.</_></rects>
      <tilted>0</tilted></_>
    <_>
      <rects>
        <_>
          21 13 6 4 -1.</_>
        <_>
          21 13 3 2 2.</_>
        <_>
          24 15 3 2 2.</_></rects>
      <tilted>0</tilted></_>
    <_>
      <rects>
        <_>
          21 19 6 11 -1.</_>
        <_>
          23 19 2 11 3.</_></rects>
      <tilted>0</tilted></_>
    <_>
      <rects>
        <_>
          21 20 3 17 -1.</_>
        <_>
          22 20 1 17 3.</_></rects>
      <tilted>0</tilted></_>
    <_>
      <rects>
        <_>
          21 28 2 3 -1.</_>
        <_>
          21 29 2 1 3.</_></rects>
      <tilted>0</tilted></_>
    <_>
      <rects>
        <_>
          21 29 16 7 -1.</_>
        <_>
          29 29 8 7 2.</_></rects>
      <tilted>0</tilted></_>
    <_>
      <rects>
        <_>
          21 36 4 2 -1.</_>
        <_>
          23 36 2 2 2.</_></rects>
      <tilted>0</tilted></_>
    <_>
      <rects>
        <_>
          22 6 18 32 -1.</_>
        <_>
          31 6 9 32 2.</_></rects>
      <tilted>0</tilted></_>
    <_>
      <rects>
        <_>
          22 9 12 4 -1.</_>
        <_>
          26 9 4 4 3.</_></rects>
      <tilted>0</tilted></_>
    <_>
      <rects>
        <_>
          22 10 18 30 -1.</_>
        <_>
          31 10 9 30 2.</_></rects>
      <tilted>0</tilted></_>
    <_>
      <rects>
        <_>
          22 15 12 1 -1.</_>
        <_>
          26 15 4 1 3.</_></rects>
      <tilted>0</tilted></_>
    <_>
      <rects>
        <_>
          22 34 1 3 -1.</_>
        <_>
          22 35 1 1 3.</_></rects>
      <tilted>0</tilted></_>
    <_>
      <rects>
        <_>
          23 5 3 22 -1.</_>
        <_>
          24 5 1 22 3.</_></rects>
      <tilted>0</tilted></_>
    <_>
      <rects>
        <_>
          23 5 3 29 -1.</_>
        <_>
          24 5 1 29 3.</_></rects>
      <tilted>0</tilted></_>
    <_>
      <rects>
        <_>
          23 26 6 14 -1.</_>
        <_>
          25 26 2 14 3.</_></rects>
      <tilted>0</tilted></_>
    <_>
      <rects>
        <_>
          23 28 6 2 -1.</_>
        <_>
          26 28 3 2 2.</_></rects>
      <tilted>0</tilted></_>
    <_>
      <rects>
        <_>
          23 32 10 7 -1.</_>
        <_>
          28 32 5 7 2.</_></rects>
      <tilted>0</tilted></_>
    <_>
      <rects>
        <_>
          24 10 3 18 -1.</_>
        <_>
          25 10 1 18 3.</_></rects>
      <tilted>0</tilted></_>
    <_>
      <rects>
        <_>
          24 15 3 24 -1.</_>
        <_>
          25 15 1 24 3.</_></rects>
      <tilted>0</tilted></_>
    <_>
      <rects>
        <_>
          24 21 15 18 -1.</_>
        <_>
          29 21 5 18 3.</_></rects>
      <tilted>0</tilted></_>
    <_>
      <rects>
        <_>
          24 30 4 4 -1.</_>
        <_>
          24 30 2 2 2.</_>
        <_>
          26 32 2 2 2.</_></rects>
      <tilted>0</tilted></_>
    <_>
      <rects>
        <_>
          25 0 3 34 -1.</_>
        <_>
          26 0 1 34 3.</_></rects>
      <tilted>0</tilted></_>
    <_>
      <rects>
        <_>
          26 1 12 18 -1.</_>
        <_>
          26 1 6 9 2.</_>
        <_>
          32 10 6 9 2.</_></rects>
      <tilted>0</tilted></_>
    <_>
      <rects>
        <_>
          27 12 12 11 -1.</_>
        <_>
          33 12 6 11 2.</_></rects>
      <tilted>0</tilted></_>
    <_>
      <rects>
        <_>
          27 13 3 2 -1.</_>
        <_>
          27 14 3 1 2.</_></rects>
      <tilted>0</tilted></_>
    <_>
      <rects>
        <_>
          27 27 11 3 -1.</_>
        <_>
          27 28 11 1 3.</_></rects>
      <tilted>0</tilted></_>
    <_>
      <rects>
        <_>
          28 10 4 24 -1.</_>
        <_>
          28 10 2 12 2.</_>
        <_>
          30 22 2 12 2.</_></rects>
      <tilted>0</tilted></_>
    <_>
      <rects>
        <_>
          28 10 8 24 -1.</_>
        <_>
          32 10 4 24 2.</_></rects>
      <tilted>0</tilted></_>
    <_>
      <rects>
        <_>
          28 18 8 10 -1.</_>
        <_>
          28 18 4 5 2.</_>
        <_>
          32 23 4 5 2.</_></rects>
      <tilted>0</tilted></_>
    <_>
      <rects>
        <_>
          28 18 12 6 -1.</_>
        <_>
          34 18 6 6 2.</_></rects>
      <tilted>0</tilted></_>
    <_>
      <rects>
        <_>
          28 21 4 6 -1.</_>
        <_>
          30 21 2 6 2.</_></rects>
      <tilted>0</tilted></_>
    <_>
      <rects>
        <_>
          29 24 7 3 -1.</_>
        <_>
          29 25 7 1 3.</_></rects>
      <tilted>0</tilted></_>
    <_>
      <rects>
        <_>
          30 26 10 8 -1.</_>
        <_>
          30 26 5 4 2.</_>
        <_>
          35 30 5 4 2.</_></rects>
      <tilted>0</tilted></_>
    <_>
      <rects>
        <_>
          31 3 2 2 -1.</_>
        <_>
          32 3 1 2 2.</_></rects>
      <tilted>0</tilted></_>
    <_>
      <rects>
        <_>
          31 6 4 10 -1.</_>
        <_>
          31 11 4 5 2.</_></rects>
      <tilted>0</tilted></_>
    <_>
      <rects>
        <_>
          31 10 7 6 -1.</_>
        <_>
          31 12 7 2 3.</_></rects>
      <tilted>0</tilted></_>
    <_>
      <rects>
        <_>
          31 15 2 9 -1.</_>
        <_>
          32 15 1 9 2.</_></rects>
      <tilted>0</tilted></_>
    <_>
      <rects>
        <_>
          31 21 4 7 -1.</_>
        <_>
          33 21 2 7 2.</_></rects>
      <tilted>0</tilted></_>
    <_>
      <rects>
        <_>
          33 12 2 3 -1.</_>
        <_>
          33 13 2 1 3.</_></rects>
      <tilted>0</tilted></_>
    <_>
      <rects>
        <_>
          33 33 2 7 -1.</_>
        <_>
          34 33 1 7 2.</_></rects>
      <tilted>0</tilted></_>
    <_>
      <rects>
        <_>
          34 0 1 3 -1.</_>
        <_>
          34 1 1 1 3.</_></rects>
      <tilted>0</tilted></_>
    <_>
      <rects>
        <_>
          34 14 3 3 -1.</_>
        <_>
          34 15 3 1 3.</_></rects>
      <tilted>0</tilted></_>
    <_>
      <rects>
        <_>
          36 0 4 2 -1.</_>
        <_>
          36 1 4 1 2.</_></rects>
      <tilted>0</tilted></_>
    <_>
      <rects>
        <_>
          36 7 2 6 -1.</_>
        <_>
          36 7 1 3 2.</_>
        <_>
          37 10 1 3 2.</_></rects>
      <tilted>0</tilted></_>
    <_>
      <rects>
        <_>
          37 28 2 2 -1.</_>
        <_>
          38 28 1 2 2.</_></rects>
      <tilted>0</tilted></_>
    <_>
      <rects>
        <_>
          38 2 2 8 -1.</_>
        <_>
          38 2 1 4 2.</_>
        <_>
          39 6 1 4 2.</_></rects>
      <tilted>0</tilted></_>
    <_>
      <rects>
        <_>
          38 12 2 5 -1.</_>
        <_>
          39 12 1 5 2.</_></rects>
      <tilted>0</tilted></_>
    <_>
      <rects>
        <_>
          38 20 2 9 -1.</_>
        <_>
          39 20 1 9 2.</_></rects>
      <tilted>0</tilted></_></features></cascade>
</opencv_storage>
