<?xml version="1.0"?>
<opencv_storage>
<cascade>
  <stageType>BOOST</stageType>
  <featureType>HOG</featureType>
  <height>40</height>
  <width>40</width>
  <stageParams>
    <boostType>GAB</boostType>
    <minHitRate>9.9500000476837158e-01</minHitRate>
    <maxFalseAlarm>4.0000000596046448e-01</maxFalseAlarm>
    <weightTrimRate>9.4999999999999996e-01</weightTrimRate>
    <maxDepth>1</maxDepth>
    <maxWeakCount>100</maxWeakCount></stageParams>
  <featureParams>
    <maxCatCount>0</maxCatCount>
    <featSize>36</featSize></featureParams>
  <stageNum>15</stageNum>
  <stages>
    <!-- stage 0 -->
    <_>
      <maxWeakCount>2</maxWeakCount>
      <stageThreshold>-8.6889639496803284e-02</stageThreshold>
      <weakClassifiers>
        <_>
          <internalNodes>
            0 -1 35 1.8509380519390106e-02</internalNodes>
          <leafValues>
            8.1052631139755249e-01 -9.0588235855102539e-01</leafValues></_>
        <_>
          <internalNodes>
            0 -1 8 3.8941822946071625e-02</internalNodes>
          <leafValues>
            -8.9741593599319458e-01 8.5183840990066528e-01</leafValues></_></weakClassifiers></_>
    <!-- stage 1 -->
    <_>
      <maxWeakCount>2</maxWeakCount>
      <stageThreshold>-2.1569897234439850e-01</stageThreshold>
      <weakClassifiers>
        <_>
          <internalNodes>
            0 -1 28 2.0087068900465965e-02</internalNodes>
          <leafValues>
            6.4150941371917725e-01 -9.1891890764236450e-01</leafValues></_>
        <_>
          <internalNodes>
            0 -1 45 4.7843806445598602e-02</internalNodes>
          <leafValues>
            -8.1294292211532593e-01 7.0321995019912720e-01</leafValues></_></weakClassifiers></_>
    <!-- stage 2 -->
    <_>
      <maxWeakCount>3</maxWeakCount>
      <stageThreshold>-1.1644659042358398e+00</stageThreshold>
      <weakClassifiers>
        <_>
          <internalNodes>
            0 -1 37 1.5078408643603325e-02</internalNodes>
          <leafValues>
            6.4814811944961548e-01 -9.7222220897674561e-01</leafValues></_>
        <_>
          <internalNodes>
            0 -1 42 3.6644682288169861e-02</internalNodes>
          <leafValues>
            -9.1890650987625122e-01 5.4987549781799316e-01</leafValues></_>
        <_>
          <internalNodes>
            0 -1 25 3.1397029757499695e-02</internalNodes>
          <leafValues>
            5.3094685077667236e-01 -8.9370757341384888e-01</leafValues></_></weakClassifiers></_>
    <!-- stage 3 -->
    <_>
      <maxWeakCount>3</maxWeakCount>
      <stageThreshold>4.7596597671508789e-01</stageThreshold>
      <weakClassifiers>
        <_>
          <internalNodes>
            0 -1 16 3.6764413118362427e-02</internalNodes>
          <leafValues>
            -8.3999997377395630e-01 6.0000002384185791e-01</leafValues></_>
        <_>
          <internalNodes>
            0 -1 15 1.8990445882081985e-02</internalNodes>
          <leafValues>
            -8.3843988180160522e-01 6.4586818218231201e-01</leafValues></_>
        <_>
          <internalNodes>
            0 -1 32 2.5451872497797012e-02</internalNodes>
          <leafValues>
            -7.6523870229721069e-01 7.1440583467483521e-01</leafValues></_></weakClassifiers></_>
    <!-- stage 4 -->
    <_>
      <maxWeakCount>4</maxWeakCount>
      <stageThreshold>-7.3326760530471802e-01</stageThreshold>
      <weakClassifiers>
        <_>
          <internalNodes>
            0 -1 9 1.4547189697623253e-02</internalNodes>
          <leafValues>
            5.1304346323013306e-01 -9.0769231319427490e-01</leafValues></_>
        <_>
          <internalNodes>
            0 -1 20 2.1035758778452873e-02</internalNodes>
          <leafValues>
            -9.5420598983764648e-01 4.7630113363265991e-01</leafValues></_>
        <_>
          <internalNodes>
            0 -1 33 4.5117467641830444e-02</internalNodes>
          <leafValues>
            -8.0485761165618896e-01 5.0009101629257202e-01</leafValues></_>
        <_>
          <internalNodes>
            0 -1 22 2.5878187268972397e-02</internalNodes>
          <leafValues>
            -7.9219609498977661e-01 6.5279114246368408e-01</leafValues></_></weakClassifiers></_>
    <!-- stage 5 -->
    <_>
      <maxWeakCount>3</maxWeakCount>
      <stageThreshold>3.7707969546318054e-01</stageThreshold>
      <weakClassifiers>
        <_>
          <internalNodes>
            0 -1 14 5.0486244261264801e-02</internalNodes>
          <leafValues>
            -7.3033708333969116e-01 7.1428573131561279e-01</leafValues></_>
        <_>
          <internalNodes>
            0 -1 26 1.7350193113088608e-02</internalNodes>
          <leafValues>
            -9.5517265796661377e-01 4.9563440680503845e-01</leafValues></_>
        <_>
          <internalNodes>
            0 -1 29 4.0124006569385529e-02</internalNodes>
          <leafValues>
            -8.3284044265747070e-01 6.2929958105087280e-01</leafValues></_></weakClassifiers></_>
    <!-- stage 6 -->
    <_>
      <maxWeakCount>4</maxWeakCount>
      <stageThreshold>-6.1041438579559326e-01</stageThreshold>
      <weakClassifiers>
        <_>
          <internalNodes>
            0 -1 30 2.5318032130599022e-02</internalNodes>
          <leafValues>
            -7.8666669130325317e-01 5.6190478801727295e-01</leafValues></_>
        <_>
          <internalNodes>
            0 -1 24 8.0483229830861092e-03</internalNodes>
          <leafValues>
            -8.2699477672576904e-01 5.4296308755874634e-01</leafValues></_>
        <_>
          <internalNodes>
            0 -1 34 4.7047160565853119e-02</internalNodes>
          <leafValues>
            -7.6637762784957886e-01 6.4614313840866089e-01</leafValues></_>
        <_>
          <internalNodes>
            0 -1 36 2.0371422171592712e-02</internalNodes>
          <leafValues>
            -9.2514222860336304e-01 4.2105326056480408e-01</leafValues></_></weakClassifiers></_>
    <!-- stage 7 -->
    <_>
      <maxWeakCount>4</maxWeakCount>
      <stageThreshold>-3.3003506064414978e-01</stageThreshold>
      <weakClassifiers>
        <_>
          <internalNodes>
            0 -1 19 4.7898128628730774e-02</internalNodes>
          <leafValues>
            -7.0370370149612427e-01 5.7575756311416626e-01</leafValues></_>
        <_>
          <internalNodes>
            0 -1 13 1.0803885757923126e-02</internalNodes>
          <leafValues>
            4.7611585259437561e-01 -7.1911126375198364e-01</leafValues></_>
        <_>
          <internalNodes>
            0 -1 23 1.5993829816579819e-02</internalNodes>
          <leafValues>
            -6.8530577421188354e-01 4.5455980300903320e-01</leafValues></_>
        <_>
          <internalNodes>
            0 -1 2 2.1862354129552841e-02</internalNodes>
          <leafValues>
            -5.5700701475143433e-01 7.0685863494873047e-01</leafValues></_></weakClassifiers></_>
    <!-- stage 8 -->
    <_>
      <maxWeakCount>5</maxWeakCount>
      <stageThreshold>-9.3359202146530151e-02</stageThreshold>
      <weakClassifiers>
        <_>
          <internalNodes>
            0 -1 43 2.1740878000855446e-02</internalNodes>
          <leafValues>
            -8.6440676450729370e-01 4.2148759961128235e-01</leafValues></_>
        <_>
          <internalNodes>
            0 -1 10 5.4325796663761139e-02</internalNodes>
          <leafValues>
            -6.4306581020355225e-01 5.9844708442687988e-01</leafValues></_>
        <_>
          <internalNodes>
            0 -1 7 1.6528103500604630e-02</internalNodes>
          <leafValues>
            -8.6178892850875854e-01 5.2661490440368652e-01</leafValues></_>
        <_>
          <internalNodes>
            0 -1 41 3.2983504235744476e-02</internalNodes>
          <leafValues>
            -7.0197367668151855e-01 4.4292366504669189e-01</leafValues></_>
        <_>
          <internalNodes>
            0 -1 43 2.6805404573678970e-02</internalNodes>
          <leafValues>
            -6.5440136194229126e-01 5.4708427190780640e-01</leafValues></_></weakClassifiers></_>
    <!-- stage 9 -->
    <_>
      <maxWeakCount>4</maxWeakCount>
      <stageThreshold>-3.4749042987823486e-01</stageThreshold>
      <weakClassifiers>
        <_>
          <internalNodes>
            0 -1 31 4.9091096967458725e-02</internalNodes>
          <leafValues>
            -7.5555557012557983e-01 7.5555557012557983e-01</leafValues></_>
        <_>
          <internalNodes>
            0 -1 17 5.5055126547813416e-02</internalNodes>
          <leafValues>
            -6.9442498683929443e-01 7.5672578811645508e-01</leafValues></_>
        <_>
          <internalNodes>
            0 -1 44 3.3888548612594604e-02</internalNodes>
          <leafValues>
            -8.4821492433547974e-01 6.0288107395172119e-01</leafValues></_>
        <_>
          <internalNodes>
            0 -1 11 1.3335545547306538e-02</internalNodes>
          <leafValues>
            4.9960902333259583e-01 -7.7000117301940918e-01</leafValues></_></weakClassifiers></_>
    <!-- stage 10 -->
    <_>
      <maxWeakCount>4</maxWeakCount>
      <stageThreshold>-3.0722948908805847e-01</stageThreshold>
      <weakClassifiers>
        <_>
          <internalNodes>
            0 -1 18 4.4192507863044739e-02</internalNodes>
          <leafValues>
            -7.5555557012557983e-01 7.5555557012557983e-01</leafValues></_>
        <_>
          <internalNodes>
            0 -1 4 1.6415588557720184e-02</internalNodes>
          <leafValues>
            -7.3517268896102905e-01 6.9090169668197632e-01</leafValues></_>
        <_>
          <internalNodes>
            0 -1 39 2.5460213422775269e-02</internalNodes>
          <leafValues>
            4.4750782847404480e-01 -1.</leafValues></_>
        <_>
          <internalNodes>
            0 -1 5 3.8456566631793976e-02</internalNodes>
          <leafValues>
            -6.9008344411849976e-01 8.1214338541030884e-01</leafValues></_></weakClassifiers></_>
    <!-- stage 11 -->
    <_>
      <maxWeakCount>4</maxWeakCount>
      <stageThreshold>-3.3087971806526184e-01</stageThreshold>
      <weakClassifiers>
        <_>
          <internalNodes>
            0 -1 40 4.2238038033246994e-02</internalNodes>
          <leafValues>
            -6.5909093618392944e-01 6.3043481111526489e-01</leafValues></_>
        <_>
          <internalNodes>
            0 -1 21 2.8426313772797585e-02</internalNodes>
          <leafValues>
            -9.5213615894317627e-01 4.4177863001823425e-01</leafValues></_>
        <_>
          <internalNodes>
            0 -1 10 6.6582232713699341e-02</internalNodes>
          <leafValues>
            -4.8003819584846497e-01 7.8886103630065918e-01</leafValues></_>
        <_>
          <internalNodes>
            0 -1 12 2.7027450501918793e-02</internalNodes>
          <leafValues>
            -7.9551094770431519e-01 4.7085985541343689e-01</leafValues></_></weakClassifiers></_>
    <!-- stage 12 -->
    <_>
      <maxWeakCount>2</maxWeakCount>
      <stageThreshold>-1.0123333334922791e-01</stageThreshold>
      <weakClassifiers>
        <_>
          <internalNodes>
            0 -1 27 1.9510921090841293e-02</internalNodes>
          <leafValues>
            -6.9072163105010986e-01 8.0722892284393311e-01</leafValues></_>
        <_>
          <internalNodes>
            0 -1 6 3.2581340521574020e-02</internalNodes>
          <leafValues>
            -9.0846222639083862e-01 6.5989005565643311e-01</leafValues></_></weakClassifiers></_>
    <!-- stage 13 -->
    <_>
      <maxWeakCount>3</maxWeakCount>
      <stageThreshold>-8.3247667551040649e-01</stageThreshold>
      <weakClassifiers>
        <_>
          <internalNodes>
            0 -1 3 6.5388418734073639e-03</internalNodes>
          <leafValues>
            -8.0000001192092896e-01 1.</leafValues></_>
        <_>
          <internalNodes>
            0 -1 38 2.3783255368471146e-02</internalNodes>
          <leafValues>
            -8.6382818222045898e-01 8.1705850362777710e-01</leafValues></_>
        <_>
          <internalNodes>
            0 -1 0 4.8673851415514946e-03</internalNodes>
          <leafValues>
            -8.4953516721725464e-01 8.5097962617874146e-01</leafValues></_></weakClassifiers></_>
    <!-- stage 14 -->
    <_>
      <maxWeakCount>1</maxWeakCount>
      <stageThreshold>1.</stageThreshold>
      <weakClassifiers>
        <_>
          <internalNodes>
            0 -1 1 7.0573180913925171e-02</internalNodes>
          <leafValues>
            1. -1.</leafValues></_></weakClassifiers></_></stages>
  <features>
    <_>
      <rect>
        0 0 8 8 3</rect></_>
    <_>
      <rect>
        0 0 8 8 13</rect></_>
    <_>
      <rect>
        0 0 8 8 15</rect></_>
    <_>
      <rect>
        0 8 8 8 1</rect></_>
    <_>
      <rect>
        0 12 8 8 33</rect></_>
    <_>
      <rect>
        12 0 8 8 35</rect></_>
    <_>
      <rect>
        16 20 8 8 9</rect></_>
    <_>
      <rect>
        20 24 8 8 25</rect></_>
    <_>
      <rect>
        24 12 8 8 18</rect></_>
    <_>
      <rect>
        24 20 8 8 31</rect></_>
    <_>
      <rect>
        24 24 8 8 35</rect></_>
    <_>
      <rect>
        0 4 8 16 21</rect></_>
    <_>
      <rect>
        0 4 8 16 25</rect></_>
    <_>
      <rect>
        0 8 8 16 21</rect></_>
    <_>
      <rect>
        4 8 8 16 26</rect></_>
    <_>
      <rect>
        8 0 8 16 0</rect></_>
    <_>
      <rect>
        8 0 8 16 25</rect></_>
    <_>
      <rect>
        8 4 8 16 25</rect></_>
    <_>
      <rect>
        12 4 8 16 35</rect></_>
    <_>
      <rect>
        20 8 8 16 35</rect></_>
    <_>
      <rect>
        24 0 8 16 7</rect></_>
    <_>
      <rect>
        24 4 8 16 35</rect></_>
    <_>
      <rect>
        24 8 8 16 34</rect></_>
    <_>
      <rect>
        0 4 16 8 1</rect></_>
    <_>
      <rect>
        0 4 16 8 5</rect></_>
    <_>
      <rect>
        4 0 16 8 4</rect></_>
    <_>
      <rect>
        8 4 16 8 16</rect></_>
    <_>
      <rect>
        8 8 16 8 24</rect></_>
    <_>
      <rect>
        0 0 16 16 12</rect></_>
    <_>
      <rect>
        0 0 16 16 27</rect></_>
    <_>
      <rect>
        0 4 16 16 34</rect></_>
    <_>
      <rect>
        0 8 16 16 26</rect></_>
    <_>
      <rect>
        4 0 16 16 9</rect></_>
    <_>
      <rect>
        4 0 16 16 25</rect></_>
    <_>
      <rect>
        4 4 16 16 25</rect></_>
    <_>
      <rect>
        4 4 16 16 31</rect></_>
    <_>
      <rect>
        4 8 16 16 16</rect></_>
    <_>
      <rect>
        4 8 16 16 21</rect></_>
    <_>
      <rect>
        4 8 16 16 34</rect></_>
    <_>
      <rect>
        8 0 16 16 4</rect></_>
    <_>
      <rect>
        8 0 16 16 27</rect></_>
    <_>
      <rect>
        8 0 16 16 34</rect></_>
    <_>
      <rect>
        8 4 16 16 25</rect></_>
    <_>
      <rect>
        8 8 16 16 0</rect></_>
    <_>
      <rect>
        8 8 16 16 27</rect></_>
    <_>
      <rect>
        8 8 16 16 35</rect></_></features></cascade>
</opencv_storage>
